svm_type c_svc
kernel_type linear
nr_class 2
total_sv 2
rho -0.00182186
label 1 2
nr_sv 1 1
SV
6.747638326585695e-05 154941:1 389360:1 987777:1 1403814:1 1537180:1 1689998:1 1771404:1 2032319:1 2881182:1 3077415:1 3251597:1 3583463:1 3778237:1 3842585:1 4044824:1 4061631:1 4223774:1 4343395:1 4607319:1 4629161:1 4805763:1 5589621:1 6322236:1 6322817:1 6492890:1 8290912:1 8470458:1 8797626:1 8986236:1 9361622:1 10174901:1 10481112:1 10928900:1 11157273:1 11204220:1 11736260:1 12433072:1 13037042:1 13187016:1 13346120:1 13526170:1 13560443:1 14950644:1 14990396:1 15763333:1 15767815:1 15789115:1 15927512:1 15963407:1 16174822:1 16533982:1 17157857:1 17299825:1 17620162:1 17815340:1 17874484:1 18065280:1 18071382:1 18185426:1 18688724:1 18741806:1 19006104:1 19158367:1 19583117:1 19632401:1 20278805:1 21495528:1 21611341:1 22517797:1 22871071:1 23270663:1 23406034:1 24027646:1 24048437:1 24152235:1 24352128:1 24444397:1 24970822:1 25057138:1 25439173:1 26074761:1 26336873:1 26357104:1 26496192:1 26648900:1 26686652:1 27124355:1 27127144:1 28425949:1 29190382:1 29209817:1 29514976:1 29713532:1 29759233:1 29826571:1 30196470:1 30676573:1 30710352:1 30724157:1 30899743:1 31111000:1 32361794:1 32389072:1 32869311:1 33141467:1 33524752:1 34074033:1 34078568:1 34137359:1 34569105:1 34959210:1 35715190:1 35908349:1 36128892:1 36446064:1 36886215:1 37320918:1 37731914:1 37820334:1 37926509:1 37983606:1 37994020:1 38386529:1 38410707:1 38756540:1 38765739:1 38776000:1 39133694:1 39300516:1 39665945:1 40052795:1 40071588:1 41077929:1 41315485:1 41355829:1 41544926:1 42489347:1 43125040:1 44067657:1 44735252:1 44774159:1 44900291:1 45459288:1 45662435:1 45664122:1 46369087:1 46571740:1 46675197:1 46774786:1 47373349:1 47426241:1 47745687:1 47760020:1 47861863:1 47922841:1 48087538:1 48445808:1 49011023:1 49170086:1 49171303:1 49761682:1 49819778:1 49867119:1 49939282:1 49941603:1 50279743:1 51358081:1 51914789:1 52060459:1 52340920:1 52885770:1 52965845:1 53131421:1 53240147:1 53270830:1 54910262:1 55760787:1 55843256:1 56072708:1 56265712:1 56353101:1 56955318:1 57308888:1 57368227:1 57612581:1 57673444:1 58545831:1 58939989:1 58942354:1 59370781:1 59621960:1 59643917:1 59881111:1 60021115:1 60025787:1 60099617:1 60461960:1 61085559:1 61570112:1 62118084:1 62292893:1 63410612:1 63546150:1 63696513:1 63864313:1 64401626:1 65080310:1 65430294:1 65766256:1 66153901:1 66213944:1 66349272:1 66386707:1 66489528:1 66762609:1 67271545:1 67504755:1 67506626:1 67515569:1 67534914:1 67676765:1 67870873:1 67908137:1 68176081:1 68246914:1 68297924:1 69149254:1 69191653:1 69265538:1 69298615:1 69397553:1 69421218:1 69545993:1 69577184:1 69836856:1 70035511:1 70615787:1 71141764:1 71159934:1 71438713:1 71463295:1 71481734:1 71505966:1 71780343:1 72090575:1 72520607:1 72603163:1 72893203:1 72939358:1 73302823:1 73548709:1 73585508:1 73627017:1 73639362:1 75252052:1 76133191:1 76267411:1 76693682:1 76894958:1 77083312:1 77146539:1 77942455:1 78555360:1 78615406:1 79723605:1 79955115:1 80367870:1 80512051:1 80850502:1 80940935:1 81419915:1 81638313:1 81813453:1 81837914:1 81931779:1 82183985:1 82991394:1 83051817:1 84514770:1 84519776:1 84607223:1 85207569:1 85600635:1 86027726:1 86668879:1 86721999:1 86742439:1 87114019:1 87129152:1 87207980:1 88266201:1 88493255:1 88670106:1 88721017:1 88913665:1 89299341:1 89648566:1 89787078:1 89789716:1 90196468:1 90587458:1 90901030:1 91185446:1 91630595:1 91767610:1 92372370:1 92557662:1 93218751:1 93240867:1 93445582:1 94143889:1 94276893:1 94431230:1 95238428:1 95484711:1 95709280:1 95807157:1 95868638:1 96207837:1 96228492:1 97274237:1 97568194:1 97695478:1 98071249:1 98435461:1 98952651:1 98982304:1 99010910:1 99295640:1 99705406:1 99907269:1 99997438:1 100267223:1 100508350:1 100585515:1 101734318:1 101985989:1 102542956:1 103194986:1 103832281:1 103866173:1 104223627:1 105011802:1 105799994:1 106031534:1 106315700:1 106557650:1 106588073:1 106795520:1 107125353:1 108172239:1 108520574:1 108563794:1 108638425:1 108914511:1 109017151:1 109695101:1 109949007:1 110003324:1 110237842:1 110328380:1 110969233:1 111427846:1 111457537:1 111884703:1 112141911:1 112601766:1 112685617:1 113305372:1 113789624:1 113937389:1 114050698:1 114185760:1 114692359:1 114924521:1 115470952:1 115841587:1 116040141:1 117145894:1 117419129:1 117648890:1 117688519:1 118264374:1 118662329:1 119313005:1 119326286:1 119370107:1 120053413:1 120291178:1 120428068:1 121317278:1 121461882:1 121601712:1 121831036:1 122814983:1 123030068:1 123032559:1 123130305:1 123405809:1 123659181:1 124126834:1 124139181:1 124509534:1 124720549:1 125944892:1 126573136:1 127638533:1 128070832:1 128428941:1 128451349:1 128634797:1 128707094:1 129509576:1 129652490:1 130203938:1 130297250:1 130474073:1 130635453:1 131365207:1 131529397:1 131748014:1 131901772:1 132269278:1 132941351:1 133148028:1 133464159:1 133720720:1 133820171:1 134055643:1 134258606:1 134603609:1 135214804:1 135560901:1 135566893:1 135799156:1 136058316:1 136408476:1 136497165:1 136887592:1 136929715:1 137080280:1 137627563:1 137674303:1 137871126:1 138507651:1 139038518:1 139213909:1 139697907:1 140245858:1 140360804:1 140517737:1 141140777:1 141417074:1 141722911:1 142073188:1 142270358:1 142356758:1 142423588:1 142693776:1 142753639:1 142851773:1 143115103:1 143396942:1 143408814:1 143572075:1 143649585:1 143798617:1 144841683:1 145215606:1 145216403:1 145713890:1 146472803:1 146561349:1 146634860:1 146655392:1 146878413:1 146931840:1 147054728:1 147095167:1 147112816:1 147391879:1 147683485:1 147719564:1 147758185:1 148025640:1 148106941:1 148129266:1 148204305:1 148974455:1 149273305:1 149611218:1 149682480:1 149873960:1 150814603:1 150985577:1 151418970:1 151749327:1 152066448:1 152676054:1 152736746:1 153924613:1 153934774:1 154264627:1 154343126:1 154635099:1 154744168:1 155212476:1 155521288:1 155692060:1 155845697:1 156067035:1 156194504:1 156269418:1 156557742:1 157225713:1 157413174:1 157563196:1 157964224:1 158004867:1 158072279:1 158103344:1 158466075:1 158482228:1 158532439:1 158734209:1 158829087:1 159005527:1 159912336:1 160136792:1 160199355:1 160216966:1 160290140:1 160449891:1 160672297:1 160964857:1 161631374:1 161665872:1 161770133:1 162119865:1 162251859:1 162947129:1 163759249:1 163779377:1 163787086:1 163913062:1 164041438:1 164092133:1 164602622:1 164756089:1 165025235:1 165422061:1 165883990:1 165923948:1 165941456:1 166188693:1 166735287:1 167203265:1 167408268:1 167607361:1 167966585:1 167991679:1 168361271:1 168493788:1 168565445:1 168673414:1 168786387:1 169674269:1 170469177:1 170594923:1 170872361:1 171533024:1 171915912:1 172368323:1 172397778:1 172717574:1 172732379:1 172949347:1 173189455:1 173321923:1 173452878:1 173550949:1 173554776:1 173679384:1 173910815:1 174073300:1 174103325:1 174629382:1 174858587:1 175202738:1 175443318:1 175585634:1 175996714:1 176068650:1 176364674:1 176474747:1 176932281:1 177196070:1 177250933:1 177570272:1 178445500:1 178868351:1 179027755:1 179369952:1 179723509:1 179808962:1 179880755:1 180169199:1 180197266:1 180397385:1 180450967:1 180966815:1 180983103:1 181702737:1 182058623:1 182320642:1 182460282:1 183123307:1 183293628:1 183816782:1 183817330:1 184104389:1 184359245:1 184658854:1 185172848:1 186067791:1 186228629:1 186229507:1 186420760:1 186518482:1 186615981:1 186808599:1 186925918:1 187139853:1 187177958:1 187375960:1 187694734:1 188279416:1 188508110:1 189507017:1 189765795:1 190045918:1 190316258:1 190398549:1 190656794:1 191060425:1 191540773:1 191831924:1 192045613:1 192059585:1 192245662:1 192300468:1 192475686:1 192512784:1 192555197:1 193408076:1 193570611:1 194024353:1 194316602:1 194439098:1 194562258:1 194598328:1 194928165:1 194992055:1 195462994:1 195547078:1 196298593:1 196323569:1 196365288:1 196407806:1 196573035:1 196783648:1 196911128:1 197208590:1 197466965:1 197481652:1 197607655:1 198650368:1 199028616:1 199172685:1 199292025:1 199308936:1 200561960:1 200596786:1 200938316:1 201242701:1 201247555:1 201758025:1 201887211:1 202019290:1 202060599:1 202128062:1 202354871:1 202775583:1 202926280:1 203567207:1 203806385:1 203862432:1 204006664:1 204117253:1 204340804:1 204486400:1 204869692:1 205393846:1 205826958:1 205892249:1 206372157:1 206390450:1 206544199:1 206693136:1 206715638:1 206749636:1 206844768:1 207021875:1 207072421:1 207277035:1 207536204:1 207545132:1 207931061:1 207976708:1 208560768:1 208684961:1 208732515:1 208800970:1 208999609:1 209395415:1 209574415:1 209592943:1 209622871:1 209772405:1 209936376:1 209997458:1 210013305:1 210333947:1 210363272:1 210409441:1 210966420:1 211382337:1 211415746:1 211440145:1 211558380:1 211734738:1 212656256:1 212780207:1 213721338:1 214018732:1 214132272:1 214321529:1 214479211:1 214812621:1 214858594:1 215509639:1 216093993:1 216557694:1 216716872:1 216938552:1 216969290:1 217027005:1 217256320:1 217282316:1 217316931:1 217838330:1 217845552:1 217936341:1 218307346:1 218850206:1 219183966:1 219247598:1 219402534:1 219747238:1 219763884:1 219778008:1 219919470:1 220001504:1 220042631:1 220407668:1 220419987:1 220896426:1 220980432:1 221095187:1 221156857:1 221476775:1 221637934:1 222183008:1 222350140:1 222582514:1 222959354:1 222979444:1 223067849:1 223215513:1 223261969:1 223919267:1 223954635:1 224050430:1 224642783:1 224691002:1 224911117:1 225030737:1 225064456:1 225227847:1 225376981:1 225459950:1 226496273:1 226779745:1 226848104:1 227568062:1 227629407:1 227670669:1 227854658:1 228101396:1 228172596:1 228450337:1 228974312:1 229197102:1 229689877:1 229947410:1 230256596:1 230259745:1 230409396:1 230762871:1 230862427:1 230867800:1 230916143:1 231169808:1 231191106:1 231399496:1 231585261:1 231585825:1 232089251:1 232129879:1 232133212:1 232151566:1 232288938:1 232383169:1 232585129:1 232750915:1 233279134:1 233828502:1 234635195:1 234651567:1 235161913:1 235458685:1 235472459:1 235546028:1 235571161:1 235680293:1 235697767:1 236438888:1 236512940:1 236588450:1 236916956:1 237130281:1 237386891:1 237798685:1 237829132:1 238760784:1 238973238:1 239011333:1 239121320:1 240484521:1 240714912:1 240718118:1 241047274:1 241057097:1 241231059:1 241348708:1 241360750:1 241533371:1 241648405:1 241774855:1 242298105:1 242627727:1 242677395:1 242790145:1 242867561:1 242888425:1 243292693:1 243341085:1 243423230:1 243738524:1 244254636:1 244275936:1 244552115:1 244723257:1 244860112:1 245302578:1 245715774:1 245926911:1 246186551:1 246273431:1 246385896:1 246456648:1 246493254:1 246758233:1 247112792:1 247225505:1 247357909:1 247424031:1 247488810:1 248092585:1 248125180:1 248657808:1 249226913:1 249317073:1 249342900:1 249598656:1 249755073:1 249865443:1 250049276:1 250465634:1 250750807:1 251090051:1 251162804:1 251188216:1 251280903:1 251699096:1 251755082:1 252019595:1 253123667:1 253633284:1 254157686:1 254303617:1 254309814:1 254418061:1 255286863:1 255392031:1 255824527:1 256013803:1 256022705:1 256182614:1 256198992:1 256266163:1 256268978:1 256305808:1 256482404:1 256906710:1 258218972:1 258523268:1 258547519:1 259169826:1 259535298:1 259566098:1 259582486:1 259631262:1 259649543:1 260237303:1 260527262:1 261485056:1 261578329:1 261605650:1 261785763:1 261972190:1 262237924:1 262770686:1 263213296:1 263989539:1 264033247:1 264313744:1 264324036:1 264629949:1 265046978:1 265212907:1 265896984:1 266508420:1 266731631:1 267529323:1 267733005:1 267800289:1 267986094:1 268089588:1 268569944:1 269349474:1 269569369:1 270174650:1 270235530:1 270397116:1 270635080:1 270767100:1 271022843:1 271740319:1 271830577:1 271856449:1 272014985:1 272406320:1 272713436:1 272949920:1 273408431:1 273868094:1 274037709:1 274270665:1 274348794:1 274545868:1 274796431:1 275304106:1 275559552:1 275952720:1 276273108:1 276424286:1 276754472:1 277286535:1 277450416:1 277519661:1 277621045:1 277687572:1 278152113:1 279131051:1 279578593:1 280397568:1 280433789:1 280610275:1 281174962:1 281406309:1 281428518:1 281800006:1 281991078:1 282014231:1 282193161:1 282905302:1 283041378:1 283135337:1 283252637:1 283470700:1 283730282:1 283751479:1 283836741:1 284056556:1 284108364:1 284395173:1 284519137:1 284836585:1 285228286:1 285390332:1 286093920:1 286975086:1 286997119:1 287099539:1 287283653:1 288715688:1 289320037:1 289974918:1 290074297:1 290350611:1 290947082:1 291168310:1 291512493:1 291930975:1 292007640:1 292257431:1 292422708:1 292489244:1 292658821:1 293369354:1 293374712:1 293518501:1 294743180:1 294751176:1 294796495:1 294965528:1 295155840:1 295451410:1 295557559:1 295688491:1 296163369:1 296169183:1 296218021:1 296374751:1 296494857:1 296571110:1 296661903:1 296771982:1 297121060:1 297334699:1 297339791:1 297715574:1 297895256:1 298311942:1 298326848:1 298507256:1 299158454:1 299468861:1 299947512:1 299950499:1 300331071:1 300472868:1 300943697:1 301356055:1 301450741:1 301857823:1 302163974:1 302198551:1 302515977:1 303900251:1 304341345:1 304614738:1 304972631:1 305125316:1 305736137:1 306546817:1 306901147:1 306992180:1 307861833:1 308016436:1 308220011:1 308226628:1 308550663:1 309066244:1 309469610:1 310211491:1 310306231:1 310563066:1 310854496:1 311019534:1 311346956:1 311623994:1 311949881:1 312344629:1 312373672:1 312587849:1 312936891:1 313085206:1 313227852:1 313240376:1 313270308:1 313496126:1 313895004:1 314134948:1 314218126:1 314413292:1 314556765:1 314739264:1 315017312:1 315099196:1 315267487:1 316158493:1 316255047:1 316339575:1 316801388:1 317031461:1 317824731:1 318347429:1 318410890:1 318741452:1 319193349:1 319342052:1 320976537:1 321052316:1 321400530:1 321580784:1 321886274:1 321888536:1 322374977:1 322402910:1 322454075:1 322917207:1 323389591:1 323748631:1 323771942:1 324054027:1 324217358:1 324384211:1 324630952:1 324749342:1 324884655:1 325121925:1 325547574:1 325681864:1 325905060:1 325908215:1 326402534:1 326571169:1 326574292:1 327083961:1 327530159:1 327545299:1 327803228:1 328039330:1 328417342:1 328475969:1 328526517:1 328901287:1 328982255:1 329350218:1 329752609:1 330224301:1 330382504:1 330445503:1 330527374:1 330887507:1 331216526:1 331305875:1 331502332:1 331825503:1 332086874:1 332303389:1 332563196:1 332621220:1 332792037:1 332904415:1 334013121:1 334437841:1 335281929:1 335366988:1 335984314:1 336283807:1 336972899:1 337511192:1 337970696:1 338633629:1 338819072:1 339037632:1 339168248:1 339848120:1 340062318:1 340210128:1 340456458:1 340957456:1 341157119:1 341309815:1 341423481:1 341438679:1 341637765:1 342883417:1 342961161:1 343106031:1 343192657:1 343221572:1 343276755:1 343789270:1 343798383:1 343841209:1 344665860:1 344708084:1 344761797:1 345539529:1 345677626:1 345876200:1 347001511:1 347054439:1 347624445:1 347645784:1 348164352:1 348326065:1 348690190:1 348896414:1 348995241:1 349241617:1 349370602:1 349382027:1 349795822:1 350316845:1 350512725:1 350663598:1 351936876:1 352544416:1 352591616:1 352811775:1 352982999:1 353084190:1 353108979:1 353742839:1 354276328:1 355764079:1 355793853:1 355963352:1 356533264:1 356778418:1 357168238:1 357337887:1 357603317:1 357662837:1 358175386:1 358189095:1 358312755:1 358844942:1 359771625:1 360091334:1 360845258:1 360959124:1 360994034:1 361149151:1 361172789:1 362108587:1 363144807:1 363174298:1 363200477:1 363240944:1 363481821:1 363503353:1 363684689:1 364422157:1 365121694:1 365142356:1 365572170:1 365826019:1 365890343:1 366824141:1 367152996:1 367793965:1 367897547:1 368429396:1 368446811:1 368721816:1 368878739:1 368892303:1 369124299:1 369789050:1 370165970:1 370167641:1 370331261:1 370445944:1 370970112:1 371077891:1 371178559:1 372276156:1 372328402:1 372402223:1 372575938:1 373135467:1 373138622:1 373689741:1 374390616:1 374558468:1 374925078:1 375623906:1 375922440:1 375960039:1 375966732:1 376193826:1 376242895:1 376317042:1 376320070:1 376593951:1 376701150:1 377435145:1 377784659:1 378155693:1 378325075:1 378437232:1 378539694:1 378663270:1 378842487:1 379732685:1 379916690:1 380184245:1 380205510:1 380350627:1 381040542:1 381149718:1 381390353:1 381641345:1 381913430:1 381965764:1 382774791:1 382842576:1 383305512:1 383403969:1 383622371:1 383919432:1 384167137:1 384391581:1 384916120:1 385281250:1 385368676:1 385435340:1 385540995:1 385790291:1 385868814:1 386380388:1 386514704:1 386590229:1 387667347:1 387721920:1 387756424:1 387885994:1 388928461:1 389027433:1 389553011:1 389811838:1 389895650:1 391159311:1 391437677:1 392125305:1 392339577:1 392528701:1 392725283:1 392834253:1 393497713:1 393690853:1 394203449:1 394462010:1 394467691:1 394501282:1 394631481:1 395435126:1 395616452:1 396180961:1 396669199:1 396719743:1 396852650:1 397212725:1 397238612:1 397427383:1 397978486:1 398235164:1 398627159:1 398875452:1 398978870:1 399917313:1 400621467:1 400647430:1 400755199:1 400954716:1 401560075:1 401701883:1 401968460:1 402002325:1 402016496:1 402167464:1 402445638:1 402528846:1 402605780:1 402884911:1 403044461:1 403198921:1 403356713:1 404810190:1 404995828:1 405297334:1 405465918:1 405638614:1 405787036:1 405794256:1 405923959:1 407562010:1 407609973:1 407805736:1 408004251:1 408306860:1 408357776:1 408989820:1 409865181:1 410391341:1 410399921:1 410437433:1 410550906:1 411227060:1 411380720:1 411805417:1 412434513:1 412509184:1 412697953:1 412768849:1 412969175:1 413227879:1 413650862:1 414772291:1 414835436:1 415397532:1 415478436:1 415662546:1 416180689:1 416342093:1 416514180:1 416829340:1 417011714:1 417533508:1 417545394:1 417688686:1 417780546:1 418532141:1 419435059:1 419663982:1 419670132:1 419715730:1 419775257:1 420203842:1 420333674:1 420687680:1 420951845:1 420986883:1 421079956:1 421455372:1 421822937:1 421887818:1 422829948:1 422949354:1 423214469:1 423722943:1 423733887:1 424368436:1 424658165:1 424696067:1 424828341:1 424874224:1 425323933:1 425376584:1 425906009:1 425938246:1 425984482:1 426194752:1 426604586:1 426681009:1 426760348:1 427069842:1 427139938:1 428161289:1 428283307:1 428354499:1 428717695:1 429276553:1 429765394:1 429774930:1 430423038:1 430523213:1 430568459:1 430693528:1 430748352:1 430852617:1 431353575:1 431463779:1 432119653:1 432293210:1 432398636:1 432543309:1 432648162:1 432692938:1 432744163:1 433219132:1 433324877:1 433777210:1 433854352:1 434024668:1 434050595:1 434282409:1 434865999:1 435357039:1 435625359:1 435637020:1 435644421:1 435708033:1 435813502:1 436238742:1 436466546:1 436591644:1 436759227:1 436764630:1 438086644:1 438146663:1 438518239:1 438912530:1 438926680:1 438966335:1 439054712:1 439882498:1 440146119:1 440498012:1 441325630:1 441385120:1 441734315:1 441954728:1 442073028:1 442253179:1 442678664:1 443846473:1 443999350:1 444229039:1 444306545:1 445345004:1 445537725:1 445652854:1 446485420:1 446536777:1 446907828:1 446945488:1 447033989:1 447191098:1 447310522:1 448463551:1 449382012:1 450134087:1 450485240:1 451048493:1 451524135:1 451876505:1 451975489:1 452310393:1 452430129:1 453008715:1 453011511:1 453045228:1 453440164:1 453466033:1 453558885:1 453635394:1 454100642:1 454373052:1 454758245:1 455275750:1 455285375:1 455470177:1 455692613:1 456121581:1 456202792:1 456326871:1 456495278:1 456743509:1 456769723:1 457341612:1 457603409:1 457630890:1 457727774:1 457920020:1 458139677:1 458846207:1 459084351:1 459109969:1 459124370:1 459217364:1 459526960:1 459621372:1 459753714:1 460539594:1 460543729:1 460548880:1 460579159:1 461029450:1 461415175:1 461539690:1 461547790:1 461752662:1 462216539:1 462708064:1 463024139:1 463394082:1 463535344:1 463934201:1 464034178:1 464202426:1 464355417:1 464967129:1 465215972:1 465455291:1 465476675:1 465660468:1 466128248:1 466167995:1 466219245:1 466379596:1 466392006:1 466772525:1 467221794:1 467240722:1 467491815:1 468403102:1 468628552:1 468648102:1 469311985:1 469482638:1 469812322:1 469837049:1 470189495:1 470398980:1 470975395:1 471433127:1 471493600:1 471794613:1 472268713:1 472356032:1 472787478:1 472788987:1 472962463:1 473481526:1 473852703:1 474041240:1 474195766:1 474558044:1 474579187:1 474746158:1 475132675:1 475341480:1 475450304:1 476074222:1 476406900:1 476529267:1 476708086:1 477097598:1 477451042:1 477929932:1 478210483:1 478375497:1 478553271:1 478615534:1 478689659:1 478841581:1 479115164:1 479956693:1 480143492:1 481567713:1 481834414:1 482340204:1 483087439:1 483117115:1 483275709:1 483316747:1 483963428:1 483973177:1 484459326:1 486280196:1 486581535:1 486775079:1 487005916:1 487175585:1 487248953:1 487636556:1 488183719:1 488422108:1 488423989:1 489114420:1 489169079:1 489229877:1 489455853:1 489686476:1 489695628:1 490126749:1 490349004:1 490741601:1 491662346:1 492192338:1 492303655:1 492996290:1 493250476:1 493267684:1 494101082:1 494477449:1 494954758:1 495540406:1 495750564:1 496554200:1 496563610:1 496627111:1 497005321:1 497051563:1 497055998:1 497795658:1 497991230:1 498004569:1 498171057:1 498245972:1 498596606:1 499125022:1 499170929:1 499537667:1 499560669:1 499802544:1 500063150:1 500072421:1 500404634:1 500933946:1 501274280:1 501406227:1 502020016:1 502736893:1 502759550:1 503015216:1 504002968:1 504058278:1 504591686:1 504662413:1 505112025:1 505232888:1 505529718:1 505767929:1 506195900:1 506234595:1 506758804:1 507027328:1 507085207:1 507323719:1 507553769:1 508127992:1 508357531:1 508509879:1 509604952:1 509621723:1 509787570:1 510031864:1 510115856:1 510263130:1 510289104:1 510296729:1 510468633:1 510637613:1 510760961:1 510768639:1 511451678:1 511525682:1 511792073:1 512617492:1 512708295:1 513251588:1 513370474:1 513387245:1 514561419:1 514776025:1 515194660:1 515336361:1 515638244:1 515786767:1 517066192:1 517405069:1 517421508:1 517498132:1 517595260:1 517639559:1 517906815:1 518023443:1 519212537:1 519438828:1 519530024:1 520114219:1 520170897:1 520301132:1 520599319:1 520978344:1 521011579:1 521471597:1 521632304:1 521819808:1 522047180:1 522623257:1 522888728:1 523671728:1 524726347:1 525069099:1 525802022:1 525871655:1 526235739:1 526584919:1 526781257:1 526938710:1 527177359:1 527278577:1 527672690:1 527677278:1 527752969:1 527831076:1 528672829:1 528710259:1 529034137:1 529223915:1 529654713:1 530170325:1 530617722:1 530697186:1 531055951:1 531143393:1 531376758:1 531455729:1 531458553:1 531584746:1 531749733:1 532120704:1 532618655:1 532752005:1 532810632:1 533313441:1 533474777:1 533933963:1 534462241:1 534923848:1 534983811:1 535468550:1 536068755:1 536260194:1 536378307:1 536498205:1 536549465:1 536797170:1 537353668:1 537591698:1 537988310:1 538846836:1 538963568:1 539233509:1 539587966:1 540273936:1 540332634:1 540538705:1 540854752:1 541123128:1 541262400:1 541811965:1 542526856:1 542632976:1 542890434:1 542987792:1 543213951:1 543707535:1 544250459:1 544401979:1 545247962:1 545273910:1 545366695:1 545724105:1 545726846:1 545816147:1 545885253:1 545927578:1 546265131:1 546623852:1 548242220:1 548311262:1 548353967:1 548593035:1 548848107:1 548867407:1 551760670:1 552579439:1 552653922:1 552959954:1 553079833:1 553107598:1 553457168:1 553516230:1 553578383:1 553772639:1 554153897:1 554713531:1 554715644:1 555003515:1 555011319:1 555571338:1 555914299:1 556837726:1 556928323:1 556941798:1 557197841:1 557830750:1 557998484:1 558386363:1 558729519:1 558772897:1 558864742:1 559243738:1 559361706:1 559413019:1 559487875:1 559694454:1 559882340:1 560154853:1 560618241:1 560636204:1 561442198:1 561933879:1 563657329:1 563709373:1 563770622:1 564029008:1 564913324:1 565285841:1 565485011:1 565780361:1 566084398:1 566196216:1 566546215:1 566752771:1 566766079:1 567199650:1 567241043:1 567630273:1 568015431:1 568225604:1 568242389:1 569504710:1 569910905:1 570094071:1 570289030:1 570539485:1 571046637:1 571219541:1 571317151:1 571526067:1 572215378:1 572466608:1 572543689:1 572967839:1 573179389:1 573300517:1 573604895:1 574186373:1 574430738:1 574498256:1 575042491:1 575756040:1 575945416:1 576301528:1 576609807:1 576887393:1 577014265:1 577079091:1 577454646:1 577549127:1 578782165:1 578891326:1 578950869:1 579747484:1 580027023:1 580440450:1 580791217:1 580960997:1 581373628:1 581554425:1 581559553:1 581586546:1 582120519:1 582863627:1 583887747:1 584151932:1 585118165:1 585190456:1 585225568:1 585226259:1 585251869:1 585351274:1 585886400:1 585904371:1 585962337:1 586024714:1 586303140:1 587332980:1 587574233:1 587733386:1 587750750:1 587863982:1 587896658:1 588188733:1 588210533:1 588383404:1 588450225:1 589196066:1 589786140:1 590072631:1 590236745:1 591206568:1 591255363:1 591391468:1 591650452:1 591831397:1 592018277:1 592345423:1 592932790:1 592952371:1 593778863:1 594405381:1 595068813:1 595182162:1 595968542:1 596016477:1 596121851:1 596145710:1 596340352:1 596360799:1 596615297:1 596795823:1 596885149:1 596979762:1 597134623:1 597137311:1 597159877:1 597334221:1 597779995:1 598026797:1 598111122:1 598269050:1 598461249:1 598671353:1 598707433:1 598998717:1 599168965:1 599192321:1 599266622:1 599372938:1 599523421:1 599642030:1 599919080:1 600323718:1 600654460:1 600661470:1 600787700:1 600800070:1 600910794:1 600959450:1 601652185:1 601738989:1 601848018:1 602015979:1 602045912:1 602120014:1 602480218:1 602600195:1 602805012:1 602843501:1 602939571:1 603330739:1 603470044:1 603621617:1 603990739:1 604727984:1 604743840:1 604810167:1 605441044:1 605685564:1 606001690:1 606032512:1 606753290:1 607442246:1 607614438:1 607784631:1 607837547:1 608518139:1 608928080:1 609396963:1 609457814:1 609535272:1 609682498:1 609685990:1 609710599:1 609759384:1 610305984:1 610872472:1 611305957:1 611346516:1 611944689:1 612068382:1 612088869:1 612221417:1 612602035:1 612912209:1 613320192:1 613561347:1 613629756:1 613938040:1 614138896:1 614528374:1 614685587:1 615001092:1 615116917:1 615436140:1 616032872:1 616072162:1 616323818:1 616935459:1 617098292:1 617114282:1 617473416:1 617607955:1 617815296:1 618322468:1 618665364:1 618676625:1 618700105:1 618905467:1 619009854:1 619310986:1 619332675:1 619754251:1 620205385:1 620343253:1 620393713:1 620512642:1 620663705:1 622018806:1 622315895:1 622416639:1 622709354:1 623143663:1 623145560:1 623377077:1 623525521:1 623617370:1 623688273:1 624255564:1 624532849:1 624885667:1 625110489:1 625355735:1 625438647:1 625948570:1 626096424:1 626531989:1 626714726:1 626942268:1 627418208:1 628163382:1 628187359:1 628930716:1 629694624:1 629742810:1 629852242:1 631131726:1 631762297:1 631945457:1 632078288:1 632206357:1 632232700:1 632248604:1 632259050:1 632370211:1 632894102:1 633246026:1 633402700:1 633591577:1 633645480:1 633915816:1 634014935:1 634567670:1 634676246:1 634832762:1 635623003:1 635676473:1 635694668:1 635905605:1 635928581:1 635999625:1 636092698:1 636158337:1 636592915:1 636942885:1 637150000:1 637723903:1 637841040:1 637898848:1 638037710:1 638055391:1 638136683:1 638167634:1 638545166:1 639187443:1 639551032:1 640433110:1 640683612:1 640734712:1 641547868:1 641622046:1 641649176:1 641934223:1 642088108:1 642312322:1 642369905:1 642379095:1 642918867:1 643205198:1 643556133:1 643809014:1 644153710:1 644546626:1 644835863:1 644841239:1 644906266:1 645360182:1 645887362:1 646056948:1 646210901:1 646392071:1 646456470:1 646673265:1 646776949:1 647270173:1 647271904:1 647395518:1 647615282:1 648299338:1 648357954:1 648534524:1 648846212:1 649053241:1 649447523:1 649469888:1 649770138:1 650107933:1 650532164:1 650617831:1 651464156:1 651490920:1 651523409:1 652355815:1 652412989:1 652843147:1 653030272:1 653382598:1 654219033:1 654503112:1 654927045:1 655006660:1 655266482:1 655584732:1 655777827:1 656061003:1 657186088:1 657238254:1 657299715:1 658016689:1 658106896:1 658743805:1 659251604:1 659359135:1 659478167:1 659580116:1 659669899:1 659746076:1 660307733:1 660437690:1 660925574:1 661081195:1 661168146:1 661309397:1 661754734:1 661793881:1 662024307:1 662274991:1 662425610:1 663253711:1 663303481:1 663435527:1 664353380:1 664503443:1 664655047:1 664827101:1 664870233:1 665018000:1 665073039:1 665389622:1 665818897:1 666061332:1 666597428:1 667603652:1 668570190:1 668996387:1 669098189:1 670330908:1 670409295:1 670497595:1 670563581:1 671044897:1 671146882:1 671763734:1 672323205:1 672417514:1 672837104:1 673047092:1 673695492:1 674804956:1 675211576:1 676381460:1 676555351:1 676945725:1 677259690:1 678105009:1 678547708:1 678894063:1 679338561:1 679478049:1 679961231:1 680102680:1 680127633:1 680408892:1 680836941:1 682470513:1 682604419:1 682699298:1 682704205:1 682779846:1 683138702:1 683592129:1 683873081:1 683992974:1 684639162:1 684871790:1 685267208:1 685426919:1 685678897:1 686181894:1 686435971:1 686868342:1 687594354:1 687624428:1 688015329:1 688069629:1 688388020:1 689077394:1 689429997:1 689514963:1 689976415:1 690198643:1 690323186:1 690327360:1 690485580:1 691506495:1 691546530:1 691796793:1 691883477:1 691907965:1 692110539:1 692145313:1 692177549:1 692328057:1 692421258:1 692821733:1 693255656:1 693339468:1 693394160:1 693467403:1 694362170:1 694734559:1 694849247:1 695867768:1 696177796:1 696319583:1 696618552:1 696928801:1 697307153:1 697681921:1 697696803:1 697871127:1 698585142:1 698629286:1 698723730:1 699182624:1 699243147:1 699551394:1 699768872:1 700723008:1 701397445:1 701696282:1 701793236:1 702182406:1 702839487:1 702874006:1 703514607:1 703699819:1 703847930:1 704092212:1 704321300:1 704406342:1 704430183:1 705116323:1 705452943:1 705462179:1 705679116:1 705683907:1 705756954:1 705782825:1 706121074:1 706308335:1 706518280:1 706621543:1 706657884:1 707433777:1 707610808:1 707978891:1 708443902:1 708463870:1 708775228:1 709237563:1 709277027:1 709317630:1 709433463:1 710063537:1 710637477:1 711497856:1 711644788:1 712555246:1 712955726:1 713524452:1 714091606:1 714235743:1 714247655:1 714291138:1 714842867:1 715168867:1 715661922:1 715673295:1 716098803:1 716134073:1 716217789:1 716839057:1 716921973:1 717442714:1 717517052:1 717682520:1 718729779:1 718913210:1 718988580:1 719022042:1 719288459:1 719632998:1 719909349:1 720004396:1 720100204:1 720657297:1 721297870:1 721640677:1 722280198:1 722373356:1 722762915:1 722957002:1 723187571:1 723194998:1 723498138:1 723649515:1 723893578:1 723941166:1 724101960:1 724412744:1 724571828:1 724799644:1 724970570:1 725602104:1 726146367:1 726352811:1 726448685:1 726478781:1 726749326:1 726973006:1 727120237:1 727236003:1 727366367:1 727429735:1 728043721:1 728291050:1 728669462:1 728839468:1 729022588:1 729104810:1 729194492:1 729274608:1 729345830:1 729845104:1 730512093:1 730819339:1 731065247:1 731481663:1 731699147:1 731752006:1 731933059:1 732438063:1 732606878:1 733012078:1 733099009:1 733183406:1 733212116:1 733218457:1 733671453:1 733764648:1 733804075:1 733835271:1 734365597:1 734815240:1 734957204:1 734979873:1 735088867:1 735353020:1 735557269:1 735708093:1 736145796:1 736612124:1 736748503:1 737184795:1 737370966:1 737438681:1 738125014:1 738335244:1 738764197:1 738856341:1 739196246:1 739210241:1 739354709:1 739760252:1 739997461:1 740331940:1 740624762:1 741378063:1 741571680:1 742249829:1 742304202:1 742313450:1 742427762:1 742498894:1 742565351:1 742569338:1 742894070:1 743848022:1 744001702:1 744198186:1 744384922:1 745258800:1 745558281:1 745611564:1 745683206:1 745977874:1 746411395:1 746680980:1 746713006:1 746954649:1 747109323:1 747126588:1 747755182:1 748111837:1 748353424:1 748387880:1 749293879:1 750457854:1 750739219:1 750748961:1 750943135:1 751258237:1 751384513:1 751845079:1 752044922:1 752736017:1 753263451:1 753479669:1 753526977:1 753817799:1 754064664:1 754381167:1 755379973:1 755387857:1 755691024:1 755890015:1 755927067:1 756121055:1 756137382:1 756614920:1 756684229:1 756902196:1 757115959:1 757401918:1 757492099:1 757505031:1 757769564:1 757778685:1 758000835:1 758050485:1 758292042:1 758968135:1 758978635:1 759081919:1 759109227:1 759121124:1 759325525:1 759418166:1 759608347:1 760158451:1 761125749:1 761454590:1 761467684:1 761703208:1 761719631:1 761916845:1 761943150:1 761952442:1 762184562:1 762398556:1 762846581:1 762897086:1 762953532:1 763483918:1 763540652:1 763623108:1 763695999:1 763961166:1 764023651:1 764335863:1 764424560:1 764507477:1 764588890:1 764704025:1 764917757:1 765199972:1 765327800:1 765420249:1 766132293:1 766335268:1 766367407:1 766466299:1 766594439:1 766922508:1 766957573:1 766994039:1 767183127:1 767282444:1 767468489:1 767500338:1 767611192:1 767815271:1 767946993:1 768203577:1 768533203:1 768635704:1 768722997:1 769052933:1 769117205:1 769798302:1 769817321:1 770215938:1 770258196:1 770451906:1 770548476:1 770899367:1 770923682:1 771047242:1 771785816:1 772175745:1 772191688:1 772247504:1 772341787:1 772519167:1 772560491:1 772873531:1 773048987:1 775008095:1 775543117:1 775728329:1 775960226:1 776051610:1 776274319:1 777134574:1 778135690:1 778466668:1 778485440:1 779312449:1 780239381:1 780619190:1 780712317:1 780895929:1 781420411:1 781473273:1 782007480:1 782292271:1 782960065:1 783002301:1 783536403:1 783809514:1 783946873:1 783981474:1 785068267:1 785187537:1 785377019:1 786044630:1 786685808:1 788560517:1 788576529:1 788714125:1 788852630:1 789100759:1 789207647:1 789442367:1 789556978:1 789690744:1 789759096:1 789981203:1 790229931:1 790450079:1 791418062:1 791665075:1 791998464:1 792034263:1 792252742:1 792271353:1 792497752:1 792774309:1 792816211:1 792883040:1 793025569:1 793418078:1 793618912:1 793680504:1 794087361:1 794269344:1 794401843:1 794668924:1 795518810:1 795691828:1 795778442:1 796030523:1 796185297:1 796649421:1 796876563:1 796935376:1 797220078:1 797472587:1 798836375:1 799548826:1 800012301:1 800029538:1 800048002:1 800217176:1 800957494:1 801278032:1 801399640:1 801442561:1 801667340:1 802362285:1 802497020:1 802811032:1 802845424:1 802966326:1 803562907:1 804043575:1 804347677:1 804712219:1 805187124:1 805414856:1 805910595:1 806157142:1 806496073:1 806928849:1 807225695:1 807410114:1 808914829:1 809108897:1 809384247:1 809781783:1 810324555:1 810357682:1 811217182:1 812026708:1 812412050:1 813200112:1 813590328:1 813616102:1 813620700:1 814390771:1 814691905:1 815827699:1 816228052:1 816578907:1 816768851:1 816828039:1 816966175:1 818259905:1 819216524:1 820262647:1 820708518:1 820890846:1 821196418:1 821262114:1 821584583:1 821677777:1 821771340:1 821790498:1 821875823:1 822249825:1 823586036:1 823779343:1 823792548:1 824031907:1 824762736:1 825142790:1 825772814:1 826712674:1 827188641:1 827202580:1 827747648:1 828217459:1 828247552:1 828342726:1 828477104:1 828670631:1 829027178:1 829070599:1 829416394:1 829459633:1 829503121:1 830235159:1 830258400:1 831164041:1 831334923:1 832190641:1 832890428:1 833069813:1 833357865:1 833358388:1 833980041:1 834377152:1 834383895:1 834695603:1 834934991:1 835030750:1 835216351:1 836021427:1 836766184:1 836923494:1 836944401:1 837301650:1 837515654:1 837927834:1 838063286:1 838072099:1 838404125:1 838555134:1 838742728:1 838926617:1 839769452:1 839860378:1 839934812:1 840293801:1 840859653:1 840883637:1 841767698:1 841838116:1 841904974:1 841926054:1 842421208:1 842538660:1 842949803:1 843125335:1 843473474:1 844415122:1 844934039:1 845699886:1 845990899:1 846082564:1 846127393:1 846203648:1 846258400:1 846260809:1 846341014:1 846386924:1 847614476:1 848032053:1 848033793:1 848182394:1 848397586:1 848421358:1 848448426:1 848463801:1 849127706:1 850110072:1 850557689:1 850972384:1 851041595:1 851068858:1 851199412:1 851372841:1 851588790:1 851677260:1 851856941:1 852117435:1 852296814:1 852317545:1 852676352:1 852877883:1 852884288:1 853190055:1 853394998:1 853414520:1 853662623:1 853917404:1 854385419:1 854763441:1 855070370:1 855202782:1 855523550:1 855824112:1 855971678:1 856095326:1 856501356:1 856526941:1 857619276:1 857786682:1 857788042:1 857906651:1 858173558:1 858370291:1 858609517:1 858686078:1 858689304:1 858798220:1 859271780:1 860203419:1 860431987:1 861235545:1 862171946:1 862244705:1 862281520:1 862415983:1 863830392:1 864348720:1 864432486:1 864577206:1 864677322:1 865020289:1 865044537:1 865152376:1 865303003:1 865729878:1 865956585:1 866144234:1 866438873:1 866690698:1 866991010:1 867123312:1 867824484:1 867896657:1 868430766:1 868439471:1 868489335:1 868594870:1 868828280:1 868856486:1 869871404:1 870001815:1 870236503:1 870714737:1 871079849:1 871601719:1 871670214:1 871701738:1 871713121:1 872183743:1 872462647:1 872477175:1 872633811:1 872659464:1 872954533:1 873625314:1 873891153:1 874287549:1 874811282:1 874935202:1 875021736:1 875396790:1 875475291:1 875662989:1 875765041:1 876081986:1 876366558:1 877040076:1 877982907:1 878942343:1 879121390:1 880055360:1 880094960:1 880115784:1 880251735:1 880442457:1 880501960:1 880562230:1 880680334:1 880754298:1 881887045:1 882431452:1 882979358:1 883130662:1 883283693:1 883283903:1 883428228:1 883519539:1 883873213:1 883970996:1 884120395:1 884301057:1 884362470:1 884797629:1 884958200:1 884990407:1 885039823:1 885204273:1 885264840:1 885365712:1 885394901:1 885702855:1 885713354:1 886480260:1 886968268:1 887526401:1 887848433:1 888241898:1 888525913:1 888567883:1 888743209:1 889817928:1 890108486:1 890331631:1 890448366:1 890880274:1 891408574:1 891682515:1 892188702:1 893026871:1 893307387:1 893438955:1 893652805:1 893734706:1 893782235:1 894176794:1 895245775:1 895249019:1 895408578:1 895502996:1 896449362:1 896920336:1 897450256:1 897660191:1 897674864:1 897742108:1 897757383:1 899133271:1 899945934:1 899951458:1 900606695:1 900640571:1 900756947:1 901118480:1 901728567:1 902052534:1 902520222:1 902649297:1 902742320:1 902845350:1 903270433:1 903455157:1 903644409:1 904505426:1 904825901:1 904856385:1 905194354:1 905319409:1 905573447:1 905842019:1 905861467:1 906113959:1 906366024:1 906533591:1 906751265:1 906919425:1 907622802:1 907976987:1 908254914:1 908356366:1 908840509:1 909436674:1 910057981:1 910184814:1 910359764:1 911321929:1 911420586:1 911425704:1 911815573:1 912261429:1 912579501:1 912942778:1 913051191:1 913439375:1 913695623:1 913697731:1 913727658:1 914163204:1 914425379:1 914453813:1 914588475:1 914905671:1 915060993:1 915193039:1 915340541:1 915830436:1 915982251:1 916158164:1 916935863:1 917285279:1 917300357:1 917671507:1 917819804:1 917970606:1 918481421:1 918719478:1 919532868:1 920395875:1 920730144:1 920984698:1 920993673:1 921748386:1 921817422:1 921941511:1 922538905:1 922591049:1 922865708:1 922889254:1 923952070:1 924295742:1 924370072:1 924422808:1 924877618:1 925118531:1 925152967:1 925636429:1 925812105:1 926108966:1 926318334:1 926739510:1 927010096:1 927428501:1 927597711:1 927701002:1 927751894:1 928100484:1 928331133:1 928479367:1 928866910:1 929429328:1 929452718:1 930032136:1 930070430:1 930296435:1 931195266:1 932404598:1 933145379:1 933368582:1 933504578:1 933628264:1 933898869:1 934374149:1 934537348:1 934557795:1 934837721:1 934852522:1 935331517:1 935492613:1 936128870:1 936218373:1 936311606:1 936425550:1 936460369:1 936624486:1 936750312:1 936845094:1 937025431:1 937328296:1 938225817:1 938405753:1 938617852:1 938629137:1 939859284:1 940070933:1 940196512:1 940297059:1 940442092:1 940608511:1 940962827:1 940974503:1 941142638:1 941175808:1 942161877:1 942165194:1 942230163:1 943159992:1 943317030:1 943374232:1 944119000:1 944346659:1 944547697:1 945420734:1 945442579:1 946079813:1 946171530:1 946440154:1 946706152:1 946816735:1 947068799:1 947167961:1 947334169:1 947703570:1 947762421:1 947924644:1 948212023:1 948212998:1 948744383:1 948855779:1 948937392:1 949575351:1 950107461:1 950288123:1 950329600:1 950620013:1 950860146:1 950977618:1 951067160:1 951298105:1 951417499:1 951684773:1 951810780:1 951920684:1 952189322:1 952264345:1 952397822:1 952480777:1 952517795:1 952739897:1 953224754:1 953811538:1 954156924:1 954200846:1 954533507:1 954658738:1 955082192:1 955435364:1 955681136:1 955920070:1 955964890:1 956395044:1 956538042:1 956600242:1 956764755:1 956805445:1 957154424:1 957218079:1 957376672:1 957642486:1 958272990:1 958324494:1 958447986:1 958472774:1 958747265:1 958995645:1 959158682:1 959444220:1 959640312:1 960173403:1 960621812:1 961251915:1 961936093:1 962167954:1 962185595:1 962239866:1 962871283:1 963246625:1 964129678:1 964195814:1 964749116:1 964963558:1 965074757:1 965645619:1 965780750:1 965912681:1 965922890:1 966368888:1 966900237:1 967402484:1 967984130:1 968315361:1 968648505:1 968998281:1 969009597:1 969308628:1 969543837:1 969615841:1 969684723:1 969889593:1 970047404:1 970262402:1 971111502:1 971258691:1 972162274:1 972783827:1 973463675:1 975145877:1 975273447:1 975626116:1 976088257:1 976108650:1 976167649:1 976406319:1 976474955:1 976643719:1 977561400:1 977900215:1 978431436:1 978792778:1 979097365:1 979547307:1 979600649:1 979680048:1 980088811:1 980515706:1 980789303:1 980928517:1 981113482:1 981988523:1 982632499:1 983467046:1 983536115:1 983548836:1 983680527:1 983683589:1 984247142:1 984277152:1 984737071:1 984741675:1 984824959:1 984903100:1 984960017:1 985324648:1 985697077:1 986331099:1 987011491:1 987103750:1 987978078:1 988036499:1 988232425:1 988496037:1 988507873:1 988563811:1 989066952:1 989527200:1 990103392:1 990230543:1 990423784:1 990504907:1 991044433:1 991502658:1 992004797:1 993000235:1 993021100:1 993446710:1 994795612:1 995350242:1 995879800:1 996121375:1 996145838:1 996404558:1 996603233:1 996623652:1 997811106:1 998079524:1 998102583:1 998300803:1 998320172:1 999160371:1 999322020:1 999780713:1 999852801:1 1000312124:1 1000647515:1 1001960213:1 1001986515:1 1002054588:1 1002113555:1 1002172128:1 1002452687:1 1002487170:1 1002534482:1 1002916649:1 1003035801:1 1003146363:1 1003155615:1 1003231666:1 1003267818:1 1003630102:1 1003648828:1 1004144576:1 1004385483:1 1004675572:1 1005581126:1 1005735707:1 1006004678:1 1006027449:1 1006057225:1 1006115041:1 1006300184:1 1006435451:1 1006477730:1 1006886977:1 1006930531:1 1007568615:1 1007633608:1 1007944827:1 1008021396:1 1008424488:1 1008469641:1 1008570761:1 1008575395:1 1008643352:1 1009177829:1 1009501964:1 1009973085:1 1010048661:1 1010116414:1 1010350639:1 1010389709:1 1010562764:1 1011368070:1 1011439536:1 1012302522:1 1012829515:1 1013551269:1 1013553655:1 1013721105:1 1014600059:1 1015425571:1 1015479641:1 1015483783:1 1015905691:1 1016001851:1 1016015200:1 1016599864:1 1016620745:1 1017218503:1 1019181643:1 1020126531:1 1020218020:1 1020555864:1 1020577761:1 1020825203:1 1021067982:1 1021226308:1 1022478207:1 1022549880:1 1022711694:1 1023054701:1 1023391704:1 1023395700:1 1023619708:1 1024017014:1 1024187658:1 1024239882:1 1024411806:1 1024495355:1 1024540903:1 1024551431:1 1024791486:1 1024988243:1 1025085020:1 1025288239:1 1025312897:1 1025345048:1 1025581837:1 1026052545:1 1026672719:1 1026779885:1 1026905681:1 1027469918:1 1027584921:1 1028625137:1 1028727938:1 1029174272:1 1029961343:1 1030007232:1 1030042271:1 1030142738:1 1030529354:1 1030588506:1 1030750718:1 1030874777:1 1030930936:1 1030961335:1 1031226888:1 1031326700:1 1031673560:1 1031829425:1 1032080124:1 1032088058:1 1032238900:1 1032392288:1 1033252407:1 1033677089:1 1034056004:1 1034736991:1 1034772041:1 1034937244:1 1035088286:1 1035483150:1 1035652566:1 1035831851:1 1035920498:1 1036006970:1 1036655395:1 1036665080:1 1036895709:1 1036935476:1 1037169648:1 1037331352:1 1037636737:1 1038174464:1 1038353811:1 1039084119:1 1039962994:1 1040254136:1 1040605240:1 1040669290:1 1041023411:1 1041213142:1 1041645528:1 1041649122:1 1041920837:1 1042070655:1 1042203703:1 1042235791:1 1042584422:1 1043813726:1 1043814017:1 1044502564:1 1044605711:1 1044607774:1 1044826536:1 1045499479:1 1045624777:1 1045817449:1 1046810551:1 1047210900:1 1047881016:1 1048471129:1 1048504453:1 1049313297:1 1049996326:1 1050343318:1 1050723516:1 1051109507:1 1051289993:1 1051426605:1 1051539027:1 1052020634:1 1052554416:1 1052751774:1 1052871427:1 1052986470:1 1053646949:1 1054851844:1 1054851929:1 1054889819:1 1056520491:1 1057554921:1 1057844596:1 1057894731:1 1057976259:1 1058092278:1 1058114865:1 1058248195:1 1058442374:1 1058814662:1 1059087929:1 1059595032:1 1059795906:1 1059858823:1 1060033897:1 1060815241:1 1061244558:1 1061428830:1 1061882257:1 1062530241:1 1062698495:1 1062755934:1 1062786687:1 1063278233:1 1064437060:1 1064860579:1 1065037379:1 1065289064:1 1065733170:1 1066306747:1 1066662229:1 1066726796:1 1066879919:1 1067654888:1 1067926714:1 1068106625:1 1068567803:1 1068707764:1 1068771151:1 1068982057:1 1069434393:1 1070014328:1 1070057620:1 1070361607:1 1070363120:1 1070443792:1 1070514795:1 1070914770:1 1071904250:1 1072177203:1 1072832049:1 1073023000:1 1073029194:1 1073160377:1 1073246529:1 1073350367:1 1074003690:1 1074160294:1 1074334814:1 1074835378:1 1075097407:1 1075542427:1 1075850715:1 1076055523:1 1076647140:1 1076712383:1 1076909649:1 1077304475:1 1077790932:1 1078302943:1 1078644041:1 1078844762:1 1078877605:1 1079124082:1 1079230627:1 1079293844:1 1079690868:1 1079792068:1 1080134015:1 1080340028:1 1080923122:1 1081069372:1 1081477371:1 1081617639:1 1081677794:1 1082081220:1 1082952671:1 1083042845:1 1083264650:1 1083452213:1 1083483639:1 1083787229:1 1084146611:1 1084332150:1 1084340481:1 1085040324:1 1085193958:1 1085255894:1 1085609710:1 1085680589:1 1085786498:1 1085857098:1 1086019891:1 1086137895:1 1086205751:1 1086231087:1 1088319981:1 1088552516:1 1088815415:1 1088816778:1 1089010886:1 1089364016:1 1089613793:1 1090377575:1 1090512858:1 1090748275:1 1090842994:1 1090862735:1 1090864159:1 1091206566:1 1091219304:1 1091293189:1 1091532970:1 1091533459:1 1091632726:1 1091970000:1 1092123564:1 1092268816:1 1092985321:1 1093694759:1 1093697253:1 1093843217:1 1094011382:1 1094227070:1 1094583172:1 1094859356:1 1095328113:1 1095372913:1 1095707626:1 1096015901:1 1096153961:1 1096237286:1 1096870021:1 1096933096:1 1096994837:1 1097151874:1 1097294856:1 1097653201:1 1097735059:1 1098449333:1 1098811452:1 1099239501:1 1099317599:1 1099332751:1 1099516974:1 1099582061:1 1100001427:1 1100083732:1 1100261678:1 1100637337:1 1100646089:1 1100896552:1 1101067281:1 1101149814:1 1101576061:1 1101592658:1 1102001353:1 1102243047:1 1102407582:1 1102531630:1 1102699146:1 1103032191:1 1103362939:1 1103855807:1 1103925326:1 1104008877:1 1104015889:1 1104348807:1 1105055794:1 1105191240:1 1105667593:1 1105726032:1 1105752646:1 1106191997:1 1106291905:1 1106317644:1 1106561360:1 1106938484:1 1107123810:1 1107268361:1 1108176826:1 1108420170:1 1108460335:1 1108460489:1 1108582354:1 1108833110:1 1108874704:1 1108936746:1 1109218767:1 1109224096:1 1109372028:1 1109474854:1 1109611623:1 1109828640:1 1110734090:1 1110981028:1 1111006398:1 1111082707:1 1111256510:1 1111525804:1 1112125352:1 1112308827:1 1112332942:1 1112884158:1 1112948168:1 1113128127:1 1113901821:1 1113975092:1 1114603927:1 1114682680:1 1114699166:1 1114854153:1 1114880593:1 1115062027:1 1115188467:1 1115412821:1 1115772038:1 1115914592:1 1116629678:1 1117002824:1 1117258238:1 1117286318:1 1117444343:1 1117587789:1 1117595812:1 1118005267:1 1118182424:1 1118265736:1 1118477129:1 1118729533:1 1119003654:1 1120012199:1 1120184578:1 1120507787:1 1120793488:1 1120912795:1 1121151215:1 1121279195:1 1121312404:1 1121403421:1 1121491249:1 1121958738:1 1122282381:1 1122736137:1 1123069909:1 1123609978:1 1124031378:1 1124155355:1 1124298852:1 1125328690:1 1125828532:1 1125863099:1 1125901330:1 1125962493:1 1126147180:1 1126234244:1 1126667053:1 1126819825:1 1127069243:1 1127218805:1 1127238714:1 1127484074:1 1127599023:1 1127669221:1 1127796181:1 1128127741:1 1128340794:1 1128521484:1 1128646589:1 1129194034:1 1130003486:1 1130488532:1 1131030746:1 1131282081:1 1131537835:1 1131555700:1 1131600491:1 1131872430:1 1132243086:1 1132310877:1 1132401137:1 1132813521:1 1132970177:1 1133063296:1 1133303522:1 1133325310:1 1133678466:1 1133781303:1 1133869111:1 1133974034:1 1134729676:1 1134870967:1 1135614457:1 1135764500:1 1136140237:1 1136521508:1 1136556714:1 1137025498:1 1137345457:1 1137512000:1 1137738591:1 1137824053:1 1138014380:1 1138229952:1 1138271005:1 1138411729:1 1138627584:1 1138985187:1 1139536366:1 1139670791:1 1139678519:1 1140914269:1 1140920327:1 1141445302:1 1141701514:1 1142011184:1 1142286638:1 1142349542:1 1142501239:1 1143568213:1 1143933228:1 1144098685:1 1144124151:1 1144392331:1 1144407192:1 1144702230:1 1144745632:1 1145765820:1 1145860301:1 1146240385:1 1146388069:1 1146464833:1 1146885090:1 1147316711:1 1147501235:1 1147941317:1 1147959810:1 1148227487:1 1148269766:1 1148304018:1 1148923084:1 1148923340:1 1149253429:1 1149494217:1 1149655594:1 1149922066:1 1150026270:1 1150071496:1 1150204986:1 1150221060:1 1150429247:1 1150647960:1 1151129129:1 1151513655:1 1151533193:1 1151588404:1 1151622432:1 1151733834:1 1151796035:1 1152120779:1 1152235359:1 1152767527:1 1152928644:1 1153019052:1 1153273100:1 1153451942:1 1153835075:1 1153926757:1 1154244056:1 1154257409:1 1154717228:1 1154727800:1 1155009042:1 1155430850:1 1155475294:1 1155708686:1 1155986373:1 1156020247:1 1156575795:1 1156881858:1 1157002921:1 1157657437:1 1158006533:1 1158545237:1 1159082573:1 1159117899:1 1159134852:1 1159442306:1 1159513536:1 1159688862:1 1159763461:1 1159824710:1 1159950909:1 1160154145:1 1160499516:1 1160679829:1 1161117283:1 1161325650:1 1161458733:1 1161491385:1 1161762254:1 1161798018:1 1162494522:1 1162687163:1 1163396621:1 1163460043:1 1163465961:1 1163542323:1 1163640487:1 1163877437:1 1163893606:1 1163957216:1 1164616633:1 1164928994:1 1165273418:1 1165284242:1 1165507652:1 1165538604:1 1166252084:1 1166453807:1 1166521467:1 1166558031:1 1166560273:1 1166822392:1 1166824138:1 1167172676:1 1167383789:1 1167859204:1 1168091011:1 1168125035:1 1168285633:1 1169453657:1 1169578990:1 1169911158:1 1172316596:1 1173096133:1 1173468939:1 1173669434:1 1173768041:1 1173923471:1 1173972997:1 1174410039:1 1175488617:1 1175528826:1 1175564138:1 1175768062:1 1175900067:1 1176435837:1 1176614203:1 1176890821:1 1177189894:1 1177233452:1 1177561439:1 1177697769:1 1178056190:1 1178162754:1 1178512788:1 1178639396:1 1179070414:1 1179183588:1 1179375247:1 1179713897:1 1179835894:1 1179999147:1 1180093617:1 1180293497:1 1181239352:1 1181454247:1 1181550154:1 1181954247:1 1182608539:1 1182774237:1 1183221311:1 1183624143:1 1184181077:1 1184304292:1 1184696848:1 1185258393:1 1185297250:1 1185300812:1 1186145146:1 1186231227:1 1186471918:1 1186747695:1 1187407638:1 1187593172:1 1188344855:1 1188677207:1 1189259383:1 1189377927:1 1189444081:1 1189713304:1 1189848391:1 1190181735:1 1190418417:1 1191027065:1 1191875073:1 1191934952:1 1192005475:1 1192190086:1 1192523369:1 1193080702:1 1193390769:1 1193558873:1 1193561980:1 1193882790:1 1194885089:1 1195034604:1 1195499463:1 1195668773:1 1196001173:1 1196170271:1 1196697115:1 1196814730:1 1197789895:1 1197990538:1 1198561880:1 1199057856:1 1199099115:1 1199264975:1 1199425174:1 1199584182:1 1199743341:1 1200041826:1 1200245096:1 1200250525:1 1200393755:1 1200400408:1 1200401129:1 1200553724:1 1200633805:1 1200764980:1 1200785162:1 1201246606:1 1201808980:1 1202297033:1 1202358576:1 1202683657:1 1203238983:1 1203610892:1 1204541769:1 1204786131:1 1205730669:1 1205999433:1 1206001611:1 1206254979:1 1206679850:1 1206753162:1 1206857073:1 1207839958:1 1208747507:1 1208945636:1 1208988638:1 1209081527:1 1209297599:1 1209950993:1 1210500935:1 1210600497:1 1211084005:1 1211341737:1 1211359672:1 1212071898:1 1212451342:1 1212535903:1 1212962237:1 1212965827:1 1213368317:1 1213716814:1 1213978117:1 1214963563:1 1215011977:1 1215034479:1 1216115037:1 1216234291:1 1216396584:1 1216653365:1 1217334983:1 1217878272:1 1217923038:1 1218101852:1 1218150053:1 1218219449:1 1218249392:1 1218355909:1 1218915628:1 1219490455:1 1219626064:1 1219667300:1 1219761585:1 1219784725:1 1219847212:1 1220041880:1 1220354936:1 1220539095:1 1220582945:1 1220825355:1 1220864981:1 1221560017:1 1221759428:1 1222603650:1 1223184522:1 1223209127:1 1223862616:1 1224223411:1 1224256473:1 1224429810:1 1224557558:1 1225096943:1 1225564222:1 1225664341:1 1225674899:1 1225767356:1 1225930435:1 1226253067:1 1226623785:1 1226745846:1 1226768867:1 1226803751:1 1227119916:1 1227471140:1 1227804198:1 1228185782:1 1228306027:1 1229030608:1 1229118035:1 1229693062:1 1230121558:1 1230360502:1 1230486682:1 1230727211:1 1231078599:1 1231162669:1 1232290576:1 1232371571:1 1233026496:1 1233271473:1 1233961549:1 1234676797:1 1235104375:1 1235106158:1 1235299138:1 1235386242:1 1235423639:1 1235470011:1 1235522301:1 1235679816:1 1236017177:1 1236194298:1 1236386589:1 1236648492:1 1237036851:1 1237337539:1 1237531625:1 1237684297:1 1238011574:1 1238775364:1 1238800020:1 1239182524:1 1239347494:1 1239442802:1 1239969854:1 1240033842:1 1240421464:1 1240566925:1 1240737413:1 1240779306:1 1240868562:1 1241448946:1 1241674677:1 1241991157:1 1242143924:1 1242280976:1 1242585536:1 1242717844:1 1242764745:1 1243018778:1 1243315131:1 1243482699:1 1243715687:1 1243816349:1 1243825526:1 1244195123:1 1244413592:1 1244914116:1 1245361990:1 1245559925:1 1245775164:1 1245847744:1 1247043480:1 1247232809:1 1247583991:1 1247694785:1 1247815705:1 1247933416:1 1248219844:1 1248283156:1 1248322651:1 1248437748:1 1248755422:1 1248816302:1 1248893646:1 1249292741:1 1249662104:1 1250120891:1 1250135277:1 1250182558:1 1250213111:1 1250627295:1 1251296150:1 1251372043:1 1251422631:1 1251440483:1 1251485088:1 1251668763:1 1251791411:1 1252306268:1 1252506929:1 1253117322:1 1253587648:1 1253653425:1 1253730853:1 1253937159:1 1254251162:1 1254738418:1 1254814266:1 1254927851:1 1255711734:1 1256152771:1 1256293465:1 1256443649:1 1256672765:1 1256834535:1 1257103887:1 1257389617:1 1257469697:1 1257477878:1 1257523980:1 1257722418:1 1258144960:1 1258389440:1 1259251266:1 1259554377:1 1259561220:1 1259693750:1 1260019880:1 1260081280:1 1260347635:1 1260598519:1 1260634161:1 1260918678:1 1261244996:1 1262161830:1 1262686681:1 1262795064:1 1263004065:1 1263623844:1 1263776334:1 1264106543:1 1264320641:1 1264391315:1 1264425410:1 1265263608:1 1265578030:1 1265603790:1 1265621559:1 1265640370:1 1265732366:1 1265750344:1 1266189944:1 1266498731:1 1266838469:1 1267011025:1 1267210067:1 1267212793:1 1267238073:1 1267414400:1 1267773174:1 1269183378:1 1269462596:1 1269845877:1 1272064433:1 1272124369:1 1272261232:1 1272987581:1 1274423559:1 1274656981:1 1274800931:1 1275180780:1 1275218440:1 1275358426:1 1275441362:1 1275448045:1 1275558645:1 1275810054:1 1275836282:1 1277038911:1 1277385987:1 1277565782:1 1277899680:1 1278245331:1 1278902240:1 1278921227:1 1278992602:1 1279112777:1 1279304755:1 1279544570:1 1279581144:1 1279631082:1 1279857542:1 1279877956:1 1280763478:1 1281523443:1 1281606789:1 1281827077:1 1282203209:1 1282462012:1 1283188045:1 1283860734:1 1284113981:1 1284187183:1 1284403550:1 1284447454:1 1284572178:1 1284769675:1 1284903820:1 1285150525:1 1285583414:1 1285702094:1 1285801878:1 1287283937:1 1287317840:1 1287710853:1 1288044560:1 1288059629:1 1288181166:1 1288340719:1 1288684329:1 1288697579:1 1288703834:1 1289275301:1 1289339462:1 1289458812:1 1289627651:1 1289683635:1 1289862394:1 1289891807:1 1290476502:1 1290577353:1 1291059147:1 1291582828:1 1291616551:1 1291969435:1 1292030797:1 1292082091:1 1292247360:1 1292539042:1 1292989312:1 1293517413:1 1293703520:1 1294425828:1 1295647527:1 1296107356:1 1296172482:1 1296457764:1 1296699246:1 1296968966:1 1297071284:1 1297378348:1 1297990209:1 1298270366:1 1298607894:1 1299905175:1 1300239435:1 1301155590:1 1301466130:1 1301492968:1 1301547365:1 1302046713:1 1302084677:1 1302611177:1 1302709147:1 1302825067:1 1303224608:1 1303255207:1 1303960117:1 1304220679:1 1304435973:1 1305192119:1 1305442991:1 1305671099:1 1305842542:1 1306008580:1 1306099156:1 1306195198:1 1306868954:1 1307281558:1 1307505144:1 1307598486:1 1307658985:1 1307913839:1 1308185238:1 1308388519:1 1309314928:1 1309633897:1 1309999687:1 1310585857:1 1310589191:1 1311153846:1 1311273790:1 1311656364:1 1311737068:1 1311744335:1 1312014171:1 1312021298:1 1312144945:1 1312204974:1 1312311570:1 1312390316:1 1312662026:1 1312986487:1 1313886420:1 1314047976:1 1314713748:1 1314779853:1 1314939542:1 1315940202:1 1316772495:1 1316840936:1 1317329995:1 1317357778:1 1317576220:1 1318193613:1 1318799344:1 1319467348:1 1319518698:1 1320341459:1 1320882322:1 1321031018:1 1321125605:1 1321514050:1 1321799119:1 1321862039:1 1322021546:1 1322146021:1 1323162042:1 1323464243:1 1324043987:1 1324415383:1 1324473634:1 1324583700:1 1324870980:1 1325072322:1 1325166068:1 1325411792:1 1325441830:1 1325561038:1 1326174929:1 1326555475:1 1326726938:1 1327835942:1 1327933090:1 1328065581:1 1328543806:1 1328621484:1 1329256509:1 1329704463:1 1329810535:1 1330011092:1 1330403550:1 1330722912:1 1331409254:1 1332386633:1 1332568638:1 1332574609:1 1332643631:1 1332753892:1 1333024631:1 1335011565:1 1335144011:1 1335338973:1 1335564561:1 1335604790:1 1335719119:1 1336720052:1 1337113545:1 1337261858:1 1337876178:1 1338056689:1 1338186627:1 1338463118:1 1338913178:1 1339288870:1 1339399074:1 1340274794:1 1340466880:1 1340475867:1 1340515389:1 1340603495:1 1340928276:1 1341236945:1 1341499250:1 1341643021:1 1341736856:1 1341949377:1 1342660918:1 1342705323:1 1344028723:1 1344141752:1 1344331866:1 1344657766:1 1344782443:1 1344936328:1 1345082373:1 1345591577:1 1345770821:1 1345939674:1 1346235584:1 1346276036:1 1346928405:1 1347053911:1 1347086276:1 1347196773:1 1347268740:1 1347748024:1 1348041788:1 1348257546:1 1348350587:1 1348571774:1 1348892894:1 1348918833:1 1349191552:1 1349396644:1 1349454130:1 1350092410:1 1350188103:1 1350645066:1 1350662387:1 1350674530:1 1350784401:1 1351052688:1 1351196830:1 1351199942:1 1351293018:1 1351634548:1 1351979452:1 1352512179:1 1352666157:1 1353177726:1 1353542779:1 1353754615:1 1353794180:1 1353855919:1 1353965673:1 1354085401:1 1354480776:1 1355010542:1 1355073700:1 1355404624:1 1355499589:1 1355618134:1 1355658522:1 1355963664:1 1357288296:1 1357500798:1 1357672774:1 1357939413:1 1358566957:1 1358602378:1 1358670673:1 1358880102:1 1358945049:1 1359350291:1 1359735487:1 1359957747:1 1359998254:1 1360019340:1 1360272142:1 1360295457:1 1360593472:1 1360638304:1 1360667275:1 1361833875:1 1362201410:1 1362606331:1 1362819701:1 1363175161:1 1363529937:1 1363571107:1 1363721172:1 1364036588:1 1364055284:1 1364357241:1 1364362512:1 1365095770:1 1365101880:1 1365595596:1 1366508774:1 1366521447:1 1366766189:1 1367209395:1 1368098036:1 1368622439:1 1369193340:1 1369305355:1 1370266277:1 1370332146:1 1370446413:1 1370546677:1 1370591336:1 1371024790:1 1371294087:1 1371758372:1 1372096941:1 1372669371:1 1373320205:1 1373706589:1 1373985807:1 1374591302:1 1374851755:1 1374936074:1 1375048126:1 1375056141:1 1375113610:1 1375114684:1 1377447536:1 1378057442:1 1378412608:1 1378725126:1 1378796964:1 1379089879:1 1379205962:1 1379302953:1 1379392235:1 1380110575:1 1380131674:1 1380182266:1 1380298855:1 1380503566:1 1380583231:1 1380624435:1 1381100107:1 1381227837:1 1381428349:1 1381539796:1 1381630634:1 1381652534:1 1381817575:1 1382024430:1 1382220211:1 1382543139:1 1382943370:1 1383296524:1 1383311939:1 1383914842:1 1384522138:1 1384564146:1 1385173179:1 1385432884:1 1386546712:1 1386970824:1 1386994152:1 1387313715:1 1387323418:1 1387442275:1 1387771127:1 1388184827:1 1388293026:1 1388617695:1 1388681409:1 1388914853:1 1388927299:1 1388985276:1 1389414041:1 1389888584:1 1390362071:1 1391182400:1 1391799399:1 1391894633:1 1392197891:1 1392247103:1 1392460115:1 1392621698:1 1392621941:1 1393507497:1 1393718022:1 1393812466:1 1394069076:1 1394082347:1 1394138901:1 1394317837:1 1396657262:1 1396793871:1 1397228374:1 1397243536:1 1397761199:1 1397897188:1 1398424072:1 1398426605:1 1398792867:1 1399051525:1 1399061936:1 1399283147:1 1399333771:1 1399442706:1 1399642568:1 1400010189:1 1401055474:1 1401077262:1 1401225242:1 1401460375:1 1401460690:1 1401732974:1 1401940730:1 1401999350:1 1402866937:1 1403486220:1 1403518804:1 1403740930:1 1404104920:1 1404278679:1 1404428410:1 1404666823:1 1405183866:1 1405506991:1 1405766994:1 1405775094:1 1406030393:1 1406141352:1 1406341976:1 1406834267:1 1406841563:1 1406981509:1 1407012455:1 1407213819:1 1407549156:1 1407648298:1 1407758993:1 1408029974:1 1408038482:1 1408208976:1 1408681323:1 1408716416:1 1409555428:1 1409636438:1 1409914143:1 1410465965:1 1410596678:1 1410676602:1 1411440119:1 1411668186:1 1411699605:1 1411791994:1 1411795946:1 1411977986:1 1412248139:1 1412257346:1 1412349114:1 1412384855:1 1412390094:1 1412682641:1 1412685409:1 1413483377:1 1413800887:1 1413837830:1 1414025883:1 1415010020:1 1415019201:1 1415215176:1 1415349476:1 1415453888:1 1415604120:1 1416141081:1 1416588660:1 1416632040:1 1416650757:1 1416896312:1 1416985239:1 1417284104:1 1417419737:1 1417669383:1 1417821939:1 1418102661:1 1419143629:1 1419219459:1 1419708252:1 1419731996:1 1420078588:1 1420124147:1 1420453519:1 1420558108:1 1421130887:1 1422446050:1 1422800815:1 1422805485:1 1423145392:1 1423284795:1 1423558459:1 1423561682:1 1424010626:1 1424534304:1 1425282507:1 1425456089:1 1426066391:1 1426100976:1 1426426431:1 1426555940:1 1426595667:1 1426639507:1 1426747435:1 1426834559:1 1427110084:1 1427553614:1 1427559642:1 1427790272:1 1427930769:1 1428205682:1 1428561173:1 1429176059:1 1429228683:1 1429312598:1 1429488774:1 1429996895:1 1430050017:1 1430261041:1 1430329108:1 1430984449:1 1431273798:1 1431604132:1 1432091952:1 1432151596:1 1432465115:1 1432644436:1 1433051151:1 1433174756:1 1433318670:1 1433910570:1 1434322818:1 1434680042:1 1435344357:1 1435433161:1 1435448805:1 1435568293:1 1435757904:1 1435910548:1 1435922956:1 1436025774:1 1436358794:1 1436400519:1 1436456488:1 1436785123:1 1437596957:1 1438598200:1 1438802070:1 1438994740:1 1439277077:1 1439492179:1 1440242375:1 1440540831:1 1441483980:1 1441666751:1 1441740191:1 1441923452:1 1442037134:1 1442501847:1 1442824282:1 1442991625:1 1443298500:1 1443661341:1 1443691323:1 1443968277:1 1443987237:1 1444604279:1 1444727534:1 1444773742:1 1445053419:1 1445057638:1 1445121255:1 1445172002:1 1445234905:1 1445373252:1 1445636989:1 1445742811:1 1446060825:1 1446437942:1 1446646692:1 1447027490:1 1447819415:1 1448007712:1 1448436844:1 1448606583:1 1448843573:1 1449859543:1 1449909830:1 1450227187:1 1450428237:1 1450974675:1 1451407705:1 1452339639:1 1452512279:1 1452980881:1 1453198492:1 1453892205:1 1453958522:1 1454163094:1 1454416865:1 1454429098:1 1454492352:1 1454577761:1 1454651694:1 1455004931:1 1455130710:1 1455472644:1 1455932960:1 1455943187:1 1456328579:1 1456735796:1 1457125139:1 1457203353:1 1457458476:1 1457627020:1 1457637218:1 1457666526:1 1457907719:1 1458484119:1 1459295619:1 1459433457:1 1459528982:1 1459859414:1 1460496237:1 1460623623:1 1460955997:1 1461126528:1 1461335934:1 1461473727:1 1461473822:1 1462289657:1 1463326528:1 1463406041:1 1463450210:1 1464058933:1 1464663699:1 1464886621:1 1464909591:1 1464915010:1 1464934287:1 1465124948:1 1465700696:1 1466384717:1 1467188341:1 1467949524:1 1468019540:1 1468071062:1 1468084810:1 1468230383:1 1468773956:1 1469495328:1 1469962064:1 1470025362:1 1470984637:1 1471187864:1 1471743379:1 1471886750:1 1471997941:1 1472315057:1 1472321847:1 1472342013:1 1472479516:1 1472534521:1 1472622985:1 1473547537:1 1473929149:1 1474847354:1 1475114620:1 1475122025:1 1475295921:1 1475659167:1 1475844989:1 1476558044:1 1477467238:1 1477574759:1 1478033852:1 1478146583:1 1478535210:1 1478538861:1 1479268150:1 1479501578:1 1479631303:1 1479856324:1 1479972609:1 1480312593:1 1480571532:1 1480816887:1 1481318044:1 1481513136:1 1481748778:1 1481917861:1 1482697645:1 1482843843:1 1482967752:1 1483169270:1 1483326407:1 1483387925:1 1483679791:1 1483860218:1 1484015207:1 1484198473:1 1484364857:1 1484517039:1 1484573480:1 1485067182:1 1485182804:1 1485585870:1 1485729086:1 1486193386:1 1486581037:1 1486627940:1 1486996253:1 1487578774:1 1487731842:1 1487850413:1 1487920985:1 1488265666:1 1488570576:1 1489475241:1 1489806280:1 1489817241:1 1489899732:1 1489959516:1 1490743145:1 1491598561:1 1491733616:1 1491738505:1 1492008085:1 1492187848:1 1492402100:1 1492664915:1 1492902107:1 1492997336:1 1493169573:1 1493233139:1 1494285361:1 1494426809:1 1494761895:1 1494979483:1 1494988852:1 1496024508:1 1497009164:1 1498264597:1 1498269904:1 1498361669:1 1499058186:1 1499267192:1 1499519506:1 1499526555:1 1499900169:1 1499938263:1 1500324337:1 1500675128:1 1500988280:1 1501169975:1 1501379067:1 1502398491:1 1502492627:1 1502608333:1 1503419383:1 1503630649:1 1504314297:1 1504473839:1 1504574846:1 1505672448:1 1505710824:1 1505747244:1 1505952524:1 1506125723:1 1506428508:1 1506486225:1 1506512084:1 1506651971:1 1506722684:1 1506907867:1 1507664326:1 1507674968:1 1507768807:1 1507878545:1 1507952691:1 1508075354:1 1508692706:1 1508879512:1 1510437187:1 1510578190:1 1510775372:1 1510794109:1 1510824198:1 1511186742:1 1511889423:1 1512216062:1 1512321894:1 1512386243:1 1512571663:1 1512739915:1 1512848207:1 1513112824:1 1513628359:1 1514030794:1 1514417836:1 1514698290:1 1515116650:1 1515259606:1 1515313846:1 1515415250:1 1515514066:1 1515523699:1 1515970965:1 1516292166:1 1516373045:1 1517046614:1 1517083617:1 1517115890:1 1517363298:1 1517440103:1 1517721544:1 1517760494:1 1518104636:1 1518126042:1 1518602831:1 1518922652:1 1519206583:1 1519281516:1 1519328674:1 1519973534:1 1520051981:1 1520276540:1 1520777077:1 1521276416:1 1521439768:1 1522095898:1 1522180919:1 1523146801:1 1523237381:1 1523806118:1 1524015923:1 1524321291:1 1524944797:1 1525189865:1 1525733125:1 1526402201:1 1526454810:1 1526499840:1 1526547200:1 1526724441:1 1527165468:1 1527310388:1 1527446674:1 1528066631:1 1529194365:1 1529341776:1 1529615416:1 1529695774:1 1529739526:1 1529786130:1 1530018025:1 1530385186:1 1530717623:1 1531848147:1 1532361364:1 1532623944:1 1532968132:1 1533047723:1 1533062970:1 1533144521:1 1533328920:1 1534361144:1 1534513581:1 1534594036:1 1535409734:1 1536466207:1 1536537336:1 1536581464:1 1536862373:1 1537185972:1 1537504495:1 1537840984:1 1538142354:1 1539121345:1 1539205241:1 1539269612:1 1540722031:1 1541349792:1 1541425592:1 1541700920:1 1542149372:1 1542482649:1 1542651657:1 1542871766:1 1542917303:1 1542925144:1 1543091839:1 1543492582:1 1543525732:1 1543785960:1 1544235936:1 1544465292:1 1544495008:1 1544701976:1 1545248397:1 1545491322:1 1545934032:1 1546173883:1 1546246011:1 1546414000:1 1546429340:1 1546748992:1 1546827885:1 1546970574:1 1547231012:1 1547838579:1 1547919088:1 1548015592:1 1548439408:1 1549822103:1 1549983240:1 1550389910:1 1550488752:1 1550621763:1 1551102633:1 1551476244:1 1551539175:1 1551903174:1 1552141663:1 1552271247:1 1553413949:1 1553467381:1 1553914653:1 1554200383:1 1554363426:1 1554639104:1 1555994385:1 1556078619:1 1556668636:1 1556786023:1 1558018473:1 1558055439:1 1558312648:1 1558440285:1 1558630731:1 1559322323:1 1559541683:1 1559548464:1 1559750002:1 1560124655:1 1560199490:1 1560690937:1 1560855050:1 1561212564:1 1561387402:1 1561417031:1 1561529519:1 1561802076:1 1561924198:1 1562045187:1 1562211706:1 1562221058:1 1562467282:1 1562605255:1 1562704898:1 1562859096:1 1563107251:1 1563136878:1 1563501849:1 1563573932:1 1563622411:1 1563699430:1 1564345135:1 1564476508:1 1564680235:1 1564738483:1 1565024212:1 1565828359:1 1566270811:1 1567262401:1 1567551854:1 1567969146:1 1568088207:1 1568119077:1 1568240424:1 1568481617:1 1568922779:1 1569085149:1 1569385573:1 1569570008:1 1569856325:1 1569899198:1 1570249672:1 1570297843:1 1570510590:1 1570781843:1 1571463350:1 1571527159:1 1571750790:1 1572332196:1 1572372566:1 1572408796:1 1572518079:1 1572726787:1 1572777922:1 1572788767:1 1573141258:1 1573703628:1 1574179135:1 1574619617:1 1575115659:1 1575126061:1 1575384028:1 1575431178:1 1575694459:1 1575722699:1 1575865764:1 1575917514:1 1576077508:1 1576087346:1 1576103893:1 1576368504:1 1576441731:1 1577459061:1 1577777523:1 1578193806:1 1578396734:1 1578539797:1 1578599147:1 1579405737:1 1579758080:1 1580192411:1 1580369594:1 1580500077:1 1580532913:1 1580897371:1 1581741491:1 1582301712:1 1582419900:1 1582497575:1 1582658980:1 1583975142:1 1584088215:1 1584180692:1 1584210611:1 1584569107:1 1584670541:1 1584937956:1 1584987463:1 1584999824:1 1585282231:1 1585355757:1 1585627303:1 1586022932:1 1586574051:1 1586611044:1 1586836089:1 1586918676:1 1587693195:1 1587856415:1 1588036670:1 1588153344:1 1588243345:1 1588392342:1 1588459931:1 1588844608:1 1589035585:1 1589139337:1 1589795065:1 1589814585:1 1590145287:1 1590828417:1 1590953835:1 1591079682:1 1591310238:1 1592028508:1 1592711545:1 1592776204:1 1593011125:1 1593028139:1 1593346654:1 1593507597:1 1593640181:1 1594461992:1 1594814956:1 1594840200:1 1595327355:1 1595406866:1 1596247882:1 1596374597:1 1596540686:1 1596867361:1 1596878063:1 1597026880:1 1597286596:1 1597312179:1 1597465610:1 1597913062:1 1598029543:1 1598083055:1 1598504195:1 1598888289:1 1598895141:1 1599612338:1 1599627970:1 1599706574:1 1600309434:1 1600364184:1 1600487243:1 1600694009:1 1600797616:1 1601411835:1 1601456319:1 1601492345:1 1601527559:1 1601704944:1 1601707263:1 1602287613:1 1602767196:1 1603227622:1 1603690643:1 1604229933:1 1604541623:1 1604563905:1 1604602653:1 1604824794:1 1605158278:1 1605276481:1 1605607969:1 1607583774:1 1608062364:1 1608103472:1 1608164763:1 1608330422:1 1608647057:1 1608886824:1 1609082323:1 1609563549:1 1609908537:1 1610213334:1 1610335149:1 1610565003:1 1610755118:1 1610963129:1 1611760274:1 1611861770:1 1612148687:1 1612279036:1 1612785892:1 1613194810:1 1613368549:1 1613426579:1 1613559820:1 1614018069:1 1614575568:1 1615701916:1 1616292181:1 1616303852:1 1616698314:1 1616907925:1 1617166133:1 1617195635:1 1617221370:1 1617223542:1 1617723650:1 1617876307:1 1618085371:1 1618281592:1 1618550008:1 1619385733:1 1619949741:1 1620231198:1 1620516537:1 1620944362:1 1621697602:1 1621759273:1 1621767782:1 1621885622:1 1622147740:1 1622149139:1 1622167277:1 1622249342:1 1623045094:1 1623261739:1 1623683224:1 1623894050:1 1624020628:1 1624041337:1 1624090382:1 1624563294:1 1624848137:1 1625239355:1 1625537112:1 1626568032:1 1626837368:1 1627058562:1 1627649085:1 1628318170:1 1628416044:1 1628641207:1 1628842340:1 1628903079:1 1628934191:1 1629055705:1 1629572981:1 1629929119:1 1630295581:1 1630428524:1 1630901878:1 1631018193:1 1631264056:1 1631370380:1 1631377978:1 1631748925:1 1631755553:1 1632036318:1 1632056220:1 1632179009:1 1632345762:1 1632413923:1 1632638807:1 1633024166:1 1633308569:1 1633354519:1 1633820308:1 1633822702:1 1634065490:1 1634311081:1 1634770279:1 1635014585:1 1635437082:1 1635658439:1 1636405637:1 1636487165:1 1636828915:1 1637465378:1 1638661515:1 1639100369:1 1639514811:1 1639570914:1 1639791200:1 1640640769:1 1640723730:1 1640745820:1 1640868420:1 1641069620:1 1641331565:1 1641484511:1 1642031907:1 1642464416:1 1642506961:1 1642621768:1 1642760201:1 1643144993:1 1643374703:1 1643690650:1 1643759978:1 1643990743:1 1645027492:1 1645223403:1 1645287866:1 1645362999:1 1645435294:1 1645721043:1 1646050606:1 1646168077:1 1646553396:1 1646760740:1 1646977485:1 1647022063:1 1647445748:1 1647549208:1 1647811240:1 1648550118:1 1648638404:1 1649291421:1 1650840937:1 1651554113:1 1651851049:1 1651900440:1 1652512859:1 1653666168:1 1654102452:1 1654376574:1 1654384069:1 1654387714:1 1654652188:1 1654856411:1 1654864351:1 1655056314:1 1656847466:1 1656971865:1 1656993217:1 1657084595:1 1657428640:1 1657826153:1 1658050603:1 1658325428:1 1658931395:1 1659393111:1 1659396966:1 1659602869:1 1659933267:1 1660006113:1 1660310672:1 1660361897:1 1660619569:1 1660827955:1 1660920828:1 1661860404:1 1662657138:1 1663228388:1 1663366328:1 1663438479:1 1664275636:1 1664422233:1 1664610448:1 1664730365:1 1665182406:1 1665321298:1 1665582085:1 1665679026:1 1666704158:1 1667276926:1 1667452866:1 1667544318:1 1667777104:1 1668073815:1 1668210060:1 1668663065:1 1669158542:1 1669789917:1 1669861900:1 1669896711:1 1670072798:1 1670486867:1 1670695485:1 1671006377:1 1671291181:1 1671489657:1 1671580500:1 1671963737:1 1672048640:1 1672390793:1 1672487100:1 1673451279:1 1673466119:1 1673577499:1 1674038538:1 1674186050:1 1674409202:1 1674757576:1 1674891635:1 1675162242:1 1675168207:1 1675399167:1 1675552101:1 1676179230:1 1677035156:1 1677167974:1 1677836748:1 1678060802:1 1678073546:1 1678429093:1 1678666984:1 1679341731:1 1679702144:1 1679826827:1 1679987068:1 1680072556:1 1680380735:1 1680542180:1 1680657900:1 1681199935:1 1681321068:1 1681357246:1 1681635664:1 1682742403:1 1682771592:1 1683068355:1 1683355209:1 1683432312:1 1684641487:1 1684651022:1 1684992500:1 1685308064:1 1685316539:1 1685690731:1 1686255868:1 1686893711:1 1686946948:1 1687651321:1 1687658579:1 1687791216:1 1688105346:1 1688501788:1 1688793121:1 1689030536:1 1689883298:1 1690619982:1 1691204967:1 1691234796:1 1691558159:1 1691592164:1 1691627191:1 1691741978:1 1691794156:1 1692013429:1 1692392783:1 1692400956:1 1692427397:1 1693564379:1 1693577625:1 1694104011:1 1694540065:1 1694566357:1 1695423642:1 1695543273:1 1695672875:1 1695748655:1 1695904534:1 1696113798:1 1696132547:1 1696183972:1 1696305348:1 1696577979:1 1696580799:1 1696957792:1 1697345673:1 1697385431:1 1697843181:1 1698022871:1 1698583814:1 1698727223:1 1699402635:1 1699513851:1 1699671798:1 1699738128:1 1700184487:1 1700310405:1 1700774957:1 1701047310:1 1701065838:1 1701419977:1 1701816498:1 1702238795:1 1702443040:1 1702645530:1 1702717410:1 1702851113:1 1703237739:1 1703382187:1 1703510840:1 1705209849:1 1706505338:1 1707397458:1 1707814305:1 1707822365:1 1709044360:1 1709077793:1 1709109667:1 1709184903:1 1709296541:1 1709327939:1 1709900399:1 1709975080:1 1710318365:1 1710505493:1 1710651002:1 1710663226:1 1710675179:1 1710941743:1 1711117696:1 1711293000:1 1712492958:1 1712536127:1 1712654440:1 1712754177:1 1713144849:1 1713201683:1 1713319366:1 1713866480:1 1714375336:1 1714483452:1 1715205528:1 1715336206:1 1715488882:1 1715550156:1 1715643996:1 1715722393:1 1716009009:1 1716153109:1 1716196305:1 1716393653:1 1716529689:1 1716598873:1 1716966402:1 1717004737:1 1717291528:1 1717707867:1 1717970795:1 1718223369:1 1718612106:1 1718651895:1 1718753914:1 1719294917:1 1720132982:1 1720140243:1 1720337713:1 1720359036:1 1720634496:1 1720917675:1 1720936350:1 1721033910:1 1721393449:1 1721434511:1 1721872913:1 1721959199:1 1722167820:1 1722467532:1 1722488384:1 1722838898:1 1722880548:1 1723116507:1 1723116883:1 1723334649:1 1723436381:1 1723446860:1 1724224754:1 1724341593:1 1724793489:1 1725107734:1 1725124647:1 1725538712:1 1725576149:1 1725703706:1 1726064531:1 1726182062:1 1726984244:1 1727128895:1 1728035181:1 1728229777:1 1728447776:1 1728990888:1 1729635834:1 1729660163:1 1729877266:1 1729986090:1 1730158177:1 1730162901:1 1730405829:1 1730418597:1 1730992608:1 1731525864:1 1731714658:1 1732299572:1 1732554555:1 1733167503:1 1733430093:1 1733506041:1 1733686907:1 1733967136:1 1734644117:1 1734677830:1 1735205417:1 1735359057:1 1735825321:1 1735906717:1 1735978074:1 1735984635:1 1736026717:1 1736136424:1 1736615254:1 1736705976:1 1736718643:1 1738132942:1 1738594573:1 1738621023:1 1738708145:1 1738985835:1 1739111200:1 1739153579:1 1739557662:1 1739693634:1 1740011859:1 1740110352:1 1740369270:1 1740381565:1 1740969615:1 1741287791:1 1741700450:1 1742182314:1 1742328349:1 1742461419:1 1742470153:1 1742632058:1 1743080477:1 1743217504:1 1743428953:1 1744337075:1 1744450804:1 1744743933:1 1744820807:1 1744918486:1 1745043755:1 1745343077:1 1745560393:1 1745681908:1 1745912560:1 1746056223:1 1746280220:1 1746335355:1 1746777680:1 1747014842:1 1747264965:1 1747365286:1 1747385058:1 1747815219:1 1748043126:1 1748301981:1 1748952546:1 1748999733:1 1749004923:1 1749034393:1 1749596237:1 1749906334:1 1750147862:1 1750335240:1 1750464825:1 1751005900:1 1751734481:1 1751808276:1 1751879697:1 1752022236:1 1752334843:1 1753069584:1 1753375371:1 1754301430:1 1754708740:1 1754834087:1 1755293935:1 1755355604:1 1755480851:1 1755701531:1 1755873677:1 1756009263:1 1756196236:1 1756324970:1 1756807199:1 1758234378:1 1759118616:1 1759364267:1 1759398309:1 1759508564:1 1760298494:1 1760792366:1 1760867007:1 1761140097:1 1761318641:1 1761374906:1 1761445651:1 1761597332:1 1761845531:1 1761938898:1 1762091947:1 1762098053:1 1762108799:1 1762353502:1 1762434658:1 1762515376:1 1762694442:1 1763070196:1 1763917686:1 1764449541:1 1764542111:1 1764859837:1 1764887433:1 1765279634:1 1765483409:1 1765563881:1 1765682962:1 1765751228:1 1765815004:1 1766412221:1 1767085042:1 1767424258:1 1767492408:1 1767513114:1 1768504104:1 1768842874:1 1768997859:1 1769312328:1 1769499741:1 1769842808:1 1769856880:1 1770185108:1 1770477568:1 1771221686:1 1771226952:1 1771344364:1 1771439459:1 1771522257:1 1771722341:1 1771961077:1 1772156880:1 1772203528:1 1772481576:1 1772551844:1 1772898028:1 1773086417:1 1773351420:1 1773835053:1 1774057102:1 1774099716:1 1774486761:1 1774721775:1 1775045154:1 1775268527:1 1775315504:1 1776009851:1 1776272030:1 1776675191:1 1776905762:1 1776943497:1 1777545935:1 1777886930:1 1777970918:1 1778047472:1 1778308675:1 1778842501:1 1778917174:1 1779074973:1 1779326367:1 1779329205:1 1779624257:1 1779751301:1 1780040444:1 1780354592:1 1780476868:1 1780645600:1 1780695351:1 1780897933:1 1780933976:1 1780970747:1 1781316543:1 1781327624:1 1781548376:1 1781658044:1 1781768120:1 1781832766:1 1782179789:1 1782206554:1 1782627338:1 1782815475:1 1783165079:1 1783259365:1 1783739734:1 1784346767:1 1784386197:1 1785044345:1 1785597607:1 1785689449:1 1786267644:1 1786583971:1 1786688357:1 1786903539:1 1787231233:1 1787517439:1 1787594194:1 1787781148:1 1787837770:1 1788032438:1 1788118062:1 1788886575:1 1789637836:1 1789863399:1 1790191513:1 1790411558:1 1790530966:1 1791060661:1 1791138286:1 1791221455:1 1791451011:1 1791789755:1 1791990868:1 1792355965:1 1792431173:1 1792597175:1 1792744251:1 1793416901:1 1794186711:1 1794188262:1 1794496178:1 1794571688:1 1794989308:1 1796119598:1 1796245406:1 1796597332:1 1796666103:1 1797652035:1 1797727651:1 1797876681:1 1798344689:1 1798454011:1 1798700347:1 1799171421:1 1799348448:1 1799406661:1 1799459365:1 1799539255:1 1800267623:1 1800285892:1 1800530497:1 1800542550:1 1800643819:1 1800669064:1 1800744178:1 1800762567:1 1801062770:1 1801104839:1 1801183674:1 1801311866:1 1801572899:1 1801748949:1 1801945449:1 1802072521:1 1802209386:1 1802403845:1 1802425327:1 1802541537:1 1803218434:1 1803239240:1 1803561338:1 1803670679:1 1804018240:1 1804647068:1 1804822285:1 1805381817:1 1805612197:1 1806076343:1 1806743535:1 1807240160:1 1807275157:1 1807421998:1 1807432352:1 1807441771:1 1807837209:1 1807999249:1 1808403148:1 1808486018:1 1808767950:1 1809580773:1 1809581792:1 1809849146:1 1810048540:1 1810256463:1 1810413696:1 1810419441:1 1810747544:1 1811285545:1 1812149557:1 1812753359:1 1812791250:1 1812830662:1 1813010323:1 1813063304:1 1813136063:1 1813823143:1 1814296042:1 1814680272:1 1814887706:1 1815280902:1 1815497806:1 1815524352:1 1815818226:1 1815921058:1 1816573157:1 1816792337:1 1816874123:1 1817948250:1 1818253225:1 1818576534:1 1819266149:1 1819313163:1 1819607905:1 1819829694:1 1820112406:1 1820570533:1 1820667668:1 1820983564:1 1821398640:1 1822366857:1 1822623284:1 1823588140:1 1823844881:1 1824000495:1 1824396091:1 1825031553:1 1825117826:1 1825154869:1 1825425385:1 1825449377:1 1825725102:1 1825847855:1 1826099621:1 1827333374:1 1827379769:1 1827487621:1 1827684227:1 1827937428:1 1828068885:1 1828247025:1 1828390475:1 1828928010:1 1829529930:1 1829839782:1 1829894181:1 1829929599:1 1829954208:1 1829982252:1 1830023802:1 1830111529:1 1830315827:1 1830615335:1 1830689401:1 1830892421:1 1830920196:1 1831080898:1 1831198539:1 1831339182:1 1831358816:1 1831685251:1 1831805069:1 1831868021:1 1832116263:1 1832652991:1 1832824474:1 1833206700:1 1833639131:1 1834145621:1 1834178025:1 1834209032:1 1834453193:1 1834991805:1 1835053735:1 1835175117:1 1835213430:1 1835508889:1 1835521490:1 1835558194:1 1835591148:1 1835707277:1 1835820673:1 1836602702:1 1836820908:1 1836870922:1 1837127762:1 1837658819:1 1837677395:1 1837685689:1 1837787255:1 1838251861:1 1838613881:1 1838726316:1 1838921069:1 1839022920:1 1839124972:1 1839337272:1 1839484268:1 1839608297:1 1841503405:1 1841577669:1 1841743569:1 1841825004:1 1842097750:1 1842152069:1 1842536080:1 1842665425:1 1843547744:1 1845276380:1 1845520203:1 1845640383:1 1845739649:1 1846465462:1 1846509137:1 1846967797:1 1848103419:1 1848963632:1 1849107003:1 1850055258:1 1850530455:1 1850543674:1 1850555803:1 1850671145:1 1851355501:1 1852175658:1 1852490052:1 1852593740:1 1853454748:1 1854943069:1 1855170762:1 1855264807:1 1855398994:1 1855448567:1 1855583959:1 1856630963:1 1856709612:1 1856981546:1 1857104429:1 1857130612:1 1857258847:1 1857441939:1 1857668845:1 1858293440:1 1858481230:1 1858710143:1 1858866344:1 1858961629:1 1859193949:1 1859754856:1 1859945187:1 1860125033:1 1860224875:1 1860465142:1 1861118546:1 1861409338:1 1861464817:1 1861852632:1 1862568728:1 1862940369:1 1863141838:1 1863511397:1 1863705206:1 1864893296:1 1865566783:1 1865785095:1 1865803761:1 1866542126:1 1866722354:1 1866784447:1 1866863947:1 1867052507:1 1867367296:1 1867990901:1 1868186881:1 1869033463:1 1870360603:1 1870862583:1 1871043281:1 1871287683:1 1871521277:1 1872358736:1 1872437775:1 1872831759:1 1873100079:1 1873154146:1 1873495157:1 1874190381:1 1874541400:1 1874634043:1 1874815603:1 1874890530:1 1874996861:1 1875081020:1 1875263380:1 1875405798:1 1875554546:1 1875588394:1 1875600709:1 1875710047:1 1875839493:1 1876359506:1 1876361261:1 1876990680:1 1876998048:1 1877650715:1 1877751727:1 1878193623:1 1878433266:1 1878434141:1 1878675887:1 1879629501:1 1879682897:1 1879736005:1 1879828981:1 1880090911:1 1880128680:1 1880369230:1 1881040421:1 1881147368:1 1881148489:1 1881554037:1 1882649487:1 1882736259:1 1882836613:1 1883001618:1 1883164908:1 1883175080:1 1883626646:1 1883705513:1 1883776468:1 1884664389:1 1884975410:1 1885155158:1 1885568931:1 1885598886:1 1886118181:1 1886592414:1 1886610768:1 1887039412:1 1887537511:1 1887598412:1 1887896658:1 1888038739:1 1888367212:1 1889282883:1 1889360508:1 1889699103:1 1889740792:1 1890082167:1 1890549224:1 1890846368:1 1890944524:1 1891412609:1 1892199619:1 1892253843:1 1892520046:1 1892688947:1 1892720709:1 1892755832:1 1892891762:1 1893141389:1 1893204545:1 1893876585:1 1894465336:1 1894499759:1 1894727448:1 1894953897:1 1895107110:1 1895527470:1 1895545649:1 1895610356:1 1895812149:1 1896062806:1 1896103773:1 1896276199:1 1896369010:1 1897687640:1 1898331529:1 1898506268:1 1898883119:1 1899052994:1 1899118889:1 1899160859:1 1899326389:1 1899735596:1 1899736990:1 1900081348:1 1900870828:1 1902329326:1 1902702898:1 1902822862:1 1903404620:1 1904427103:1 1904656912:1 1905165336:1 1905513203:1 1905550869:1 1905551687:1 1905687879:1 1905766978:1 1906321968:1 1907033983:1 1907812594:1 1909520527:1 1909732180:1 1909776525:1 1909987487:1 1910242855:1 1910491444:1 1910727072:1 1911050645:1 1911082704:1 1911397927:1 1911426973:1 1911688175:1 1911852169:1 1912132342:1 1912194676:1 1913263407:1 1913274041:1 1913364455:1 1913588711:1 1913673892:1 1914141785:1 1914526433:1 1914634215:1 1914746755:1 1914806412:1 1915257787:1 1915739619:1 1915844603:1 1917536156:1 1917626627:1 1917656775:1 1917708914:1 1917784483:1 1918270734:1 1918577117:1 1918669968:1 1919020473:1 1919050439:1 1919408397:1 1919638852:1 1919659872:1 1920119789:1 1920333464:1 1920370459:1 1920911577:1 1920966680:1 1921121294:1 1921222964:1 1921399714:1 1921982193:1 1922049727:1 1922395572:1 1922642543:1 1923372341:1 1923458227:1 1924404787:1 1924590123:1 1924640404:1 1924699308:1 1925310362:1 1925833050:1 1926508607:1 1927466910:1 1927517419:1 1928013640:1 1928093615:1 1928268144:1 1928646809:1 1928767897:1 1928818238:1 1928924216:1 1929608727:1 1929670557:1 1929913907:1 1929971833:1 1930452258:1 1930544436:1 1930546019:1 1930588947:1 1930725249:1 1930913409:1 1930923204:1 1931362510:1 1931430696:1 1931472872:1 1931881271:1 1932141612:1 1932292856:1 1932982115:1 1932997094:1 1933566180:1 1933695306:1 1934518457:1 1934668796:1 1935124477:1 1935307334:1 1935424736:1 1935632544:1 1935743706:1 1936503743:1 1936911446:1 1937086954:1 1937446705:1 1937557803:1 1937647301:1 1938152089:1 1938390783:1 1938423735:1 1938471301:1 1938665793:1 1939197100:1 1939631293:1 1939696395:1 1940254687:1 1940484803:1 1940695569:1 1940791162:1 1940872648:1 1940897767:1 1941065665:1 1941309698:1 1941315165:1 1942035473:1 1942493976:1 1943124637:1 1943137120:1 1943622676:1 1943808503:1 1943853921:1 1943953046:1 1944528697:1 1945003576:1 1945147473:1 1945602290:1 1945884237:1 1946679282:1 1946778573:1 1946935972:1 1947731247:1 1947735612:1 1947906311:1 1947907526:1 1947975253:1 1948211523:1 1949261485:1 1949417831:1 1949677735:1 1949826722:1 1949895642:1 1950053564:1 1950346012:1 1950640523:1 1950672248:1 1950760679:1 1951041190:1 1951357563:1 1951403510:1 1951617143:1 1952095254:1 1952484912:1 1952930419:1 1953193682:1 1953272581:1 1953686412:1 1953772885:1 1954653690:1 1955036003:1 1955148451:1 1955301021:1 1955734837:1 1956669894:1 1956866244:1 1957300846:1 1957308391:1 1957392560:1 1957840554:1 1958562979:1 1959013264:1 1959535095:1 1960470215:1 1960606488:1 1960728263:1 1960760600:1 1961079380:1 1961376354:1 1961656525:1 1961851959:1 1961906113:1 1962306536:1 1963120492:1 1963183566:1 1963510723:1 1963734169:1 1963812288:1 1963896430:1 1964328908:1 1964375316:1 1964980926:1 1965090270:1 1965473468:1 1965966348:1 1966022821:1 1966027049:1 1966172722:1 1966715928:1 1966926198:1 1966958384:1 1966990181:1 1967025188:1 1967063938:1 1967086031:1 1967168136:1 1967415959:1 1967990217:1 1968456134:1 1968851533:1 1969235152:1 1969289096:1 1969650284:1 1969882050:1 1969918163:1 1969929806:1 1970001389:1 1970056176:1 1970059063:1 1970456259:1 1970663754:1 1971276329:1 1972062942:1 1972070856:1 1972105102:1 1972792114:1 1973082822:1 1973747928:1 1973750233:1 1973751007:1 1973753355:1 1973926414:1 1974340907:1 1974699590:1 1975195269:1 1975383054:1 1975604277:1 1975737556:1 1976190998:1 1976241339:1 1976335762:1 1976578103:1 1976692722:1 1976921867:1 1976934247:1 1977353790:1 1977747932:1 1977827329:1 1977963439:1 1978012591:1 1978254895:1 1978300406:1 1978579291:1 1978829576:1 1978907134:1 1979134111:1 1979538806:1 1980367888:1 1980504586:1 1980531938:1 1980579751:1 1980947802:1 1981097987:1 1982191114:1 1982294256:1 1982343595:1 1982515717:1 1982734608:1 1982773552:1 1982809482:1 1982955376:1 1983230378:1 1983422755:1 1984031031:1 1984753848:1 1984759635:1 1984777947:1 1985873681:1 1986214514:1 1986277868:1 1986321935:1 1986483404:1 1987409985:1 1987775778:1 1987919539:1 1988180433:1 1988662200:1 1988884100:1 1988942439:1 1989071539:1 1989073011:1 1989125233:1 1989194881:1 1989900047:1 1990329940:1 1990769618:1 1991098336:1 1991173247:1 1991474346:1 1992458328:1 1992516663:1 1992722731:1 1992776246:1 1993129629:1 1993140680:1 1993363376:1 1993494268:1 1993687930:1 1994198912:1 1994215440:1 1994399038:1 1995091941:1 1995553207:1 1995567680:1 1995618775:1 1995856984:1 1996164330:1 1996289592:1 1996910420:1 1997192553:1 1997670801:1 1997920743:1 1998065775:1 1998445739:1 1998591603:1 1998680381:1 1999139009:1 1999165999:1 1999182182:1 1999196131:1 1999308005:1 1999613647:1 1999914799:1 2000181339:1 2000472949:1 2000858335:1 2000863595:1 2001073930:1 2001161637:1 2001177318:1 2002218774:1 2002271487:1 2002554484:1 2002583221:1 2003143214:1 2003361935:1 2003484452:1 2003517838:1 2004159822:1 2004263672:1 2004923897:1 2004924736:1 2005108626:1 2005276791:1 2005610835:1 2005805064:1 2005807959:1 2006517948:1 2006974304:1 2007038694:1 2007152728:1 2007289460:1 2007473848:1 2007515340:1 2007777533:1 2008016777:1 2008018389:1 2008602170:1 2008692813:1 2008705736:1 2008762943:1 2008929226:1 2009119219:1 2009203662:1 2009429020:1 2009450641:1 2010146964:1 2010694084:1 2011636532:1 2011732362:1 2011740322:1 2012566806:1 2012994022:1 2013677572:1 2013820007:1 2014710331:1 2014922783:1 2015074503:1 2015140894:1 2015909978:1 2015972725:1 2016075474:1 2016498622:1 2016841345:1 2016932668:1 2017041430:1 2017201617:1 2017330710:1 2017498167:1 2017510041:1 2017558066:1 2018037103:1 2018193591:1 2018520595:1 2018736289:1 2019592235:1 2020517075:1 2020669155:1 2020948934:1 2020957697:1 2021052466:1 2021541946:1 2021569747:1 2021638351:1 2021773682:1 2021892429:1 2022071966:1 2022394468:1 2022476598:1 2023095111:1 2023195226:1 2023215794:1 2023788236:1 2023919847:1 2024083740:1 2024241349:1 2024388994:1 2024558474:1 2024634656:1 2025427374:1 2025894656:1 2026929791:1 2027143188:1 2027613314:1 2027961007:1 2029119507:1 2029121827:1 2029260508:1 2029354532:1 2029819335:1 2030776553:1 2030789717:1 2031053614:1 2031062304:1 2031186621:1 2031259053:1 2031283812:1 2031988155:1 2032179635:1 2032402508:1 2032540433:1 2033210676:1 2033613692:1 2033897864:1 2034026576:1 2034628770:1 2034661743:1 2034922134:1 2035086327:1 2035400948:1 2035615818:1 2035856932:1 2036203996:1 2036254431:1 2036312164:1 2036460836:1 2036566286:1 2036673056:1 2036900068:1 2037218174:1 2037764189:1 2038324632:1 2038335695:1 2038432584:1 2038849173:1 2039166913:1 2039425310:1 2039624422:1 2039900089:1 2040492221:1 2040523798:1 2041027868:1 2042294061:1 2042395307:1 2042694971:1 2042864838:1 2042922392:1 2043160645:1 2043224699:1 2043263064:1 2044354985:1 2044739244:1 2044832170:1 2044975215:1 2045013257:1 2045026107:1 2045183308:1 2045229924:1 2045437144:1 2045730292:1 2045810782:1 2045936868:1 2046141429:1 2046594689:1 2046596454:1 2046735688:1 2047020339:1 2047053032:1 2047177743:1 2047742170:1 2048134083:1 2048221390:1 2048461531:1 2048491233:1 2048604940:1 2048766634:1 2048892512:1 2049007338:1 2049008236:1 2049259961:1 2049302846:1 2050022567:1 2050613745:1 2050621751:1 2050844338:1 2051155964:1 2051196802:1 2051241173:1 2051305784:1 2051477967:1 2052436848:1 2052803300:1 2052937223:1 2053075477:1 2053424999:1 2053470552:1 2053617327:1 2053814517:1 2053913868:1 2054237675:1 2054322227:1 2054612281:1 2054996386:1 2055039031:1 2055360796:1 2055550683:1 2055934756:1 2056288669:1 2056654986:1 2057210526:1 2058173095:1 2058299760:1 2058359200:1 2058482247:1 2058791976:1 2059782556:1 2061598486:1 2061715141:1 2061918284:1 2062021139:1 2062071892:1 2062110972:1 2062475251:1 2062639072:1 2062683759:1 2062725557:1 2063047819:1 2063193787:1 2063239473:1 2063353973:1 2063535115:1 2063593678:1 2063719292:1 2063748810:1 2064086471:1 2064886481:1 2065241237:1 2065349450:1 2065351120:1 2065475156:1 2065843808:1 2066131524:1 2066856555:1 2067188324:1 2068199877:1 2068264481:1 2068384260:1 2068701771:1 2068932866:1 2069083011:1 2069164068:1 2070068273:1 2070538769:1 2070653207:1 2070995566:1 2071137467:1 2071300888:1 2071652157:1 2072070543:1 2072176066:1 2072258193:1 2072349560:1 2072597340:1 2073002962:1 2073665582:1 2073846903:1 2073966310:1 2074523830:1 2074527303:1 2074932673:1 2075083639:1 2075259283:1 2075978238:1 2076305638:1 2076511450:1 2076739523:1 2077146759:1 2077223721:1 2077541925:1 2077545541:1 2077596250:1 2077630915:1 2078216685:1 2078488305:1 2079081555:1 2079115948:1 2079948751:1 2080010708:1 2080078087:1 2080134673:1 2080382175:1 2080391871:1 2080518041:1 2080830934:1 2081267742:1 2081366301:1 2081628546:1 2081655337:1 2082573936:1 2082614259:1 2082964934:1 2083049034:1 2083817267:1 2083974150:1 2084303556:1 2084360861:1 2084843823:1 2085124240:1 2085348458:1 2086500758:1 2086568185:1 2086654684:1 2087366523:1 2087478638:1 2087893665:1 2088015332:1 2088414563:1 2088531900:1 2088813149:1 2088825913:1 2088913828:1 2088996817:1 2089134727:1 2089753346:1 2090202381:1 2090369061:1 2090780373:1 2090783939:1 2090903283:1 2090926556:1 2091115934:1 2091728445:1 2092551237:1 2092572358:1 2093139027:1 2093375816:1 2093679625:1 2093688907:1 2094518016:1 2094778926:1 2095320945:1 2095686845:1 2095779958:1 2096009161:1 2096300860:1 2096995391:1 2098019989:1 2098241207:1 2098399223:1 2098548092:1 2098677362:1 2098864004:1 2098864432:1 2099731001:1 2099864053:1 2100069740:1 2100514101:1 2100549191:1 2100658057:1 2100934782:1 2101750473:1 2101972386:1 2102366601:1 2102648762:1 2102918165:1 2103724695:1 2104352614:1 2104496600:1 2104944275:1 2105516984:1 2105571417:1 2105594604:1 2105735536:1 2105787012:1 2106146815:1 2106485218:1 2106514114:1 2106584130:1 2106598240:1 2106708247:1 2106917764:1 2107036328:1 2107311694:1 2108771010:1 2108780781:1 2108847393:1 2109474369:1 2109534962:1 2110166445:1 2110412355:1 2110547581:1 2111132517:1 2111167735:1 2111401938:1 2111480405:1 2112775604:1 2112985264:1 2113023541:1 2113072468:1 2113464074:1 2113686952:1 2114365719:1 2114943052:1 2114972413:1 2115039526:1 2115246197:1 2115892951:1 2115971490:1 2116170493:1 2116417761:1 2116935461:1 2117248298:1 2118705245:1 2118814973:1 2118988846:1 2119030085:1 2119137727:1 2119192846:1 2119233006:1 2119256266:1 2119304358:1 2119753384:1 2119978894:1 2121869711:1 2122486667:1 2122680444:1 2122910367:1 2123480539:1 2124288179:1 2124877669:1 2125554060:1 2125789061:1 2125881543:1 2125894470:1 2126271532:1 2126411483:1 2126593519:1 2126732136:1 2126843107:1 2126979087:1 2126994236:1 2127345065:1 2127347185:1 2127562337:1 2127648262:1 2127740319:1 2127936968:1 2128651282:1 2128745853:1 2128850594:1 2129926197:1 2129982433:1 2129992874:1 2130433670:1 2130514541:1 2130589144:1 2130685926:1 2130930228:1 2131053753:1 2131204487:1 2131214628:1 2131547946:1 2131672925:1 2131729520:1 2131969816:1 2132482213:1 2133015279:1 2133719885:1 2134306651:1 2134387161:1 2134638482:1 2135087309:1 2135995984:1 2136867758:1 2136945699:1 2136994935:1 2137060344:1 2137247516:1 2137705675:1 2137723520:1 2138033611:1 2138567916:1 2138948460:1 2139109163:1 2139515466:1 2139585869:1 2139785390:1 2140143547:1 2140422007:1 2140900560:1 2141304832:1 2141953728:1 2142122450:1 2142145920:1 2142375971:1 2142406263:1 2142711241:1 2143151389:1 2143462596:1 2143938464:1 2144356268:1 2144856513:1 2146419943:1 2146588364:1 2147033325:1 2147206043:1 -2147450631:1 -2147322411:1 -2147254696:1 -2147084075:1 -2146440358:1 -2146325214:1 -2146105280:1 -2145620253:1 -2145611086:1 -2145243499:1 -2145234168:1 -2145206514:1 -2144945245:1 -2144689676:1 -2143982798:1 -2143851674:1 -2143663652:1 -2143248221:1 -2143114440:1 -2142671409:1 -2142584958:1 -2142317654:1 -2142063035:1 -2142010849:1 -2141165996:1 -2140848422:1 -2140647267:1 -2140510773:1 -2140360011:1 -2140331878:1 -2140320368:1 -2139657608:1 -2139550639:1 -2138997078:1 -2137759774:1 -2137707545:1 -2137572765:1 -2137245875:1 -2136783562:1 -2136712375:1 -2136490174:1 -2136478355:1 -2136455098:1 -2134672119:1 -2134463105:1 -2133857941:1 -2133710920:1 -2133060885:1 -2132571989:1 -2132283278:1 -2132205085:1 -2132106153:1 -2131774234:1 -2131643960:1 -2131388665:1 -2130979173:1 -2130943952:1 -2130177454:1 -2129817590:1 -2129723655:1 -2129643754:1 -2129559200:1 -2129437533:1 -2129343807:1 -2129312870:1 -2128899758:1 -2128485533:1 -2128384357:1 -2128108038:1 -2127163139:1 -2127065133:1 -2126998456:1 -2126830862:1 -2126760932:1 -2126448293:1 -2126299808:1 -2126217640:1 -2126187159:1 -2126114558:1 -2125850219:1 -2125042768:1 -2124653213:1 -2124174777:1 -2124051682:1 -2123339811:1 -2123325573:1 -2123208707:1 -2123107894:1 -2122978386:1 -2122940108:1 -2122450648:1 -2122313265:1 -2122051618:1 -2121886124:1 -2121542474:1 -2121462069:1 -2121349897:1 -2121232735:1 -2120125401:1 -2120118910:1 -2119739764:1 -2119729700:1 -2119723629:1 -2119643637:1 -2119640397:1 -2119195229:1 -2118804946:1 -2118787995:1 -2118597405:1 -2118344580:1 -2118153809:1 -2118069396:1 -2117368114:1 -2117329047:1 -2116826086:1 -2116015295:1 -2115481141:1 -2115253967:1 -2115182749:1 -2115036574:1 -2114739261:1 -2114718894:1 -2114469964:1 -2114434299:1 -2114265438:1 -2113517196:1 -2113287588:1 -2112987965:1 -2112910063:1 -2112900241:1 -2112526929:1 -2112176724:1 -2111852215:1 -2109939946:1 -2109851008:1 -2109317146:1 -2108856089:1 -2108684116:1 -2108134872:1 -2107572593:1 -2107319478:1 -2107296170:1 -2106886109:1 -2106871301:1 -2106611789:1 -2106578867:1 -2106418018:1 -2106356212:1 -2105618926:1 -2105071372:1 -2104961537:1 -2104871231:1 -2104049546:1 -2103978584:1 -2103766814:1 -2103128397:1 -2102961954:1 -2102771872:1 -2102700727:1 -2102642078:1 -2102322289:1 -2102221370:1 -2102024944:1 -2100959153:1 -2100641148:1 -2100271012:1 -2099869398:1 -2099720759:1 -2098390319:1 -2098278395:1 -2098238742:1 -2097777161:1 -2097299616:1 -2096881711:1 -2096815482:1 -2096614392:1 -2096581651:1 -2096523692:1 -2096473493:1 -2096115953:1 -2095755769:1 -2095373332:1 -2094933602:1 -2094840142:1 -2094563912:1 -2094536619:1 -2093951198:1 -2093948564:1 -2093835039:1 -2093562076:1 -2093245609:1 -2093004002:1 -2092902579:1 -2092600859:1 -2092297178:1 -2092078940:1 -2091671213:1 -2091438455:1 -2091352302:1 -2091213700:1 -2091088510:1 -2091001547:1 -2090694300:1 -2090633592:1 -2090562901:1 -2090416448:1 -2090241399:1 -2089688067:1 -2089326274:1 -2088897921:1 -2088507683:1 -2088496053:1 -2088134324:1 -2088114280:1 -2087303922:1 -2087005287:1 -2086587553:1 -2086165660:1 -2086135967:1 -2086022722:1 -2085997985:1 -2085755959:1 -2085524033:1 -2085065140:1 -2084590478:1 -2084532423:1 -2083632455:1 -2083182414:1 -2082756161:1 -2082122918:1 -2081966293:1 -2081937326:1 -2081703575:1 -2081540662:1 -2081461076:1 -2081434953:1 -2081168973:1 -2080844278:1 -2080493777:1 -2080443429:1 -2080394787:1 -2080134521:1 -2079917177:1 -2079636934:1 -2079431641:1 -2079417363:1 -2079364238:1 -2079108920:1 -2078985022:1 -2078709123:1 -2078279966:1 -2078151828:1 -2077987847:1 -2077887311:1 -2077505818:1 -2077309052:1 -2077058781:1 -2076691349:1 -2076176945:1 -2076158407:1 -2075643641:1 -2075431648:1 -2075027660:1 -2074757434:1 -2074707193:1 -2074068774:1 -2074065153:1 -2073652417:1 -2073202586:1 -2073116359:1 -2073101819:1 -2072815502:1 -2072753418:1 -2072698373:1 -2072641815:1 -2071759004:1 -2071599732:1 -2071274180:1 -2071189266:1 -2071019230:1 -2070982861:1 -2070601424:1 -2070551490:1 -2070249514:1 -2070006270:1 -2069953655:1 -2069753382:1 -2069375249:1 -2069003594:1 -2068846633:1 -2068797482:1 -2068720072:1 -2068690405:1 -2068688364:1 -2068147904:1 -2068074698:1 -2067967901:1 -2067872608:1 -2067785254:1 -2067610391:1 -2067590450:1 -2067123095:1 -2066953985:1 -2066936112:1 -2066613639:1 -2066448398:1 -2066093744:1 -2065952610:1 -2065913337:1 -2065537047:1 -2065485602:1 -2065185717:1 -2065126844:1 -2064883446:1 -2064768880:1 -2064430152:1 -2064362708:1 -2064170942:1 -2063869650:1 -2063824303:1 -2063008413:1 -2062649190:1 -2062017435:1 -2061817521:1 -2061768649:1 -2061733249:1 -2061305244:1 -2061179168:1 -2061074678:1 -2060483947:1 -2060250286:1 -2060074594:1 -2059843573:1 -2059545845:1 -2059134761:1 -2059033517:1 -2058201295:1 -2057700795:1 -2057616094:1 -2057545046:1 -2057437348:1 -2057376048:1 -2057359987:1 -2057121664:1 -2057074163:1 -2057018039:1 -2056995684:1 -2056431737:1 -2056227213:1 -2056086733:1 -2055794416:1 -2055493848:1 -2055453992:1 -2055422819:1 -2055240891:1 -2055211309:1 -2055143345:1 -2055118828:1 -2054251662:1 -2053906171:1 -2053833169:1 -2053269643:1 -2052465639:1 -2051828810:1 -2051799653:1 -2051467835:1 -2050944080:1 -2050433850:1 -2050271399:1 -2050222067:1 -2049989093:1 -2049988844:1 -2048832048:1 -2048729434:1 -2048575851:1 -2048193037:1 -2047884991:1 -2047380646:1 -2047315082:1 -2047215317:1 -2047188978:1 -2046738833:1 -2046548160:1 -2046364178:1 -2046156507:1 -2046113271:1 -2045697689:1 -2045575720:1 -2045475986:1 -2044851939:1 -2044848174:1 -2044224225:1 -2044212515:1 -2043991625:1 -2043664521:1 -2043084663:1 -2042801874:1 -2042780659:1 -2042664689:1 -2042615937:1 -2042358498:1 -2042039414:1 -2041953429:1 -2041877809:1 -2041592718:1 -2041438724:1 -2041189869:1 -2040845319:1 -2040198435:1 -2039858033:1 -2039607879:1 -2039537552:1 -2037650787:1 -2037364387:1 -2037099915:1 -2036880425:1 -2036736828:1 -2036471703:1 -2036421833:1 -2036312586:1 -2036227463:1 -2036224007:1 -2036214085:1 -2036177408:1 -2035709498:1 -2035433418:1 -2035052477:1 -2034801601:1 -2034773316:1 -2034191181:1 -2033753199:1 -2033695757:1 -2033399610:1 -2032349622:1 -2031981341:1 -2031913123:1 -2031901673:1 -2031641063:1 -2030884935:1 -2029783456:1 -2029331138:1 -2028715020:1 -2028547427:1 -2028536262:1 -2028456991:1 -2028393654:1 -2028313787:1 -2028230978:1 -2027973775:1 -2027951624:1 -2027773159:1 -2026620010:1 -2026197975:1 -2026039981:1 -2026032535:1 -2026006775:1 -2025558840:1 -2025119660:1 -2024798120:1 -2024788466:1 -2024381228:1 -2023536270:1 -2023413684:1 -2023262727:1 -2022980888:1 -2022738427:1 -2021824158:1 -2021633756:1 -2021203861:1 -2021058077:1 -2020722463:1 -2019808932:1 -2019424248:1 