svm_type c_svc
kernel_type linear
nr_class 2
total_sv 307
rho 0.891108
label -1 1
nr_sv 115 192
SV
1.392960391950186e-05 9:1 13:1 22:1 23:1 38:1 41:1 43:1 47:1 48:1 51:1 56:1 57:1 71:1 75:1 84:1 90:1 98:1 103:1 110:1 114:1 121:1 124:1 130:1 138:1 139:1 141:1 145:1 146:1 147:1 153:1 160:1 164:1 168:1 184:1 185:1 191:1 194:1 203:1 208:1 226:1 230:1 234:1 256:1 261:1 269:1 291:1 297:1 307:1 313:1 315:1 322:1 331:1 343:1 345:1 353:1 356:1 365:1 383:1 392:1 394:1 405:1 417:1 426:1 434:1 440:1 447:1 450:1 463:1 505:1 508:1 510:1 515:1 521:1 522:1 531:1 546:1 557:1 559:1 567:1 583:1 594:1 598:1 602:1 605:1 614:1 619:1 626:1 629:1 638:1 640:1 657:1 658:1 664:1 671:1 673:1 674:1 677:1 678:1 682:1 685:1 695:1 700:1 703:1 709:1 728:1 743:1 749:1 755:1 770:1 775:1 789:1 792:1 793:1 794:1 797:1 800:1 804:1 806:1 810:1 815:1 816:1 817:1 818:1 834:1 838:1 843:1 866:1 873:1 874:1 875:1 878:1 879:1 881:1 885:1 890:1 893:1 895:1 908:1 911:1 912:1 913:1 926:1 929:1 934:1 938:1 948:1 953:1 958:1 959:1 969:1 973:1 975:1 986:1 989:1 990:1 994:1 1003:1 1008:1 1014:1 1029:1 1032:1 1033:1 1044:1 1045:1 1057:1 1063:1 1064:1 1077:1 1083:1 1094:1 1096:1 1100:1 1102:1 1105:1 1112:1 1122:1 1129:1 1142:1 1150:1 1156:1 1167:1 1169:1 1173:1 1174:1 1186:1 1197:1 1219:1 1220:1 1224:1 1225:1 1236:1 1248:1 1250:1 1256:1 1262:1 1267:1 1280:1 1282:1 1283:1 1286:1 1287:1 1290:1 1296:1 1297:1 1304:1 1306:1 1325:1 1332:1 1340:1 1346:1 1347:1 1350:1 1353:1 1357:1 1360:1 1362:1 1366:1 1377:1 1389:1 1394:1 1413:1 1415:1 1441:1 1444:1 1448:1 1454:1 1465:1 1474:1 1477:1 1481:1 1498:1 1514:1 1515:1 1521:1 1529:1 1533:1 1539:1 1542:1 1547:1 1552:1 1563:1 1565:1 1590:1 1600:1 1607:1 1609:1 1610:1 1620:1 1621:1 1632:1 1638:1 1642:1 1648:1 1649:1 1669:1 1674:1 1677:1 1678:1 1684:1 1687:1 1691:1 1698:1 1699:1 1701:1 1709:1 1710:1 1714:1 1716:1 1732:1 1733:1 1736:1 1741:1 1745:1 1758:1 1789:1 1801:1 1808:1 1814:1 1823:1 1829:1 1831:1 1840:1 1850:1 1857:1 1861:1 1864:1 1868:1 1870:1 1871:1 1883:1 1889:1 1892:1 1899:1 1901:1 1910:1 1920:1 1936:1 1938:1 1951:1 1953:1 1957:1 1963:1 1969:1 1978:1 1994:1 2001:1 2006:1 2019:1 2032:1 2039:1 2042:1 2053:1 2055:1 2086:1 2100:1 2105:1 2108:1 2114:1 2130:1 2133:1 2137:1 2138:1 2140:1 2167:1 2173:1 2175:1 2176:1 2178:1 2181:1 2182:1 2184:1 2187:1 2189:1 2197:1 2198:1 2201:1 2202:1 2207:1 2209:1 2210:1 2225:1 2227:1 2231:1 2232:1 2238:1 2239:1 2240:1 2243:1 2253:1 2254:1 2256:1 2267:1 2272:1 2295:1 2299:1 2300:1 2304:1 2310:1 2313:1 2316:1 2320:1 2325:1 2331:1 2339:1 2343:1 2344:1 2347:1 2358:1 2362:1 2363:1 2364:1 2378:1 2387:1 2392:1 2398:1 2405:1 2413:1 2417:1 2422:1 2439:1 2441:1 2446:1 2459:1 2460:1 2463:1 2465:1 2471:1 2477:1 2478:1 2479:1 2483:1 2484:1 2486:1 2490:1 2493:1 2503:1 2508:1 2517:1 2520:1 2523:1 2524:1 2526:1 2528:1 2539:1 2545:1 2549:1 2552:1 2560:1 2565:1 2567:1 2581:1 2584:1 2596:1 2600:1 2601:1 2604:1 2607:1 2620:1 2627:1 2628:1 2633:1 2635:1 2636:1 2656:1 2662:1 2672:1 2677:1 2683:1 2684:1 2690:1 2693:1 2694:1 2698:1 2707:1 2718:1 2721:1 2724:1 2725:1 2728:1 2734:1 2740:1 2748:1 2751:1 2757:1 2763:1 2765:1 2775:1 2778:1 2791:1 2821:1 2822:1 2832:1 2846:1 2853:1 2858:1 2864:1 2878:1 2898:1 2912:1 2935:1 2950:1 2954:1 2956:1 2965:1 2978:1 2984:1 2991:1 2995:1 3016:1 3017:1 3029:1 3038:1 3040:1 3042:1 3043:1 3048:1 3051:1 3065:1 3066:1 3068:1 3075:1 3080:1 3081:1 3090:1 3091:1 3100:1 3114:1 3119:1 3128:1 3144:1 3152:1 3154:1 3163:1 3166:1 3167:1 3173:1 3191:1 3193:1 3196:1 3209:1 3214:1 3219:1 3221:1 3228:1 3229:1 3232:1 3238:1 3239:1 3247:1 3251:1 3257:1 3270:1 3277:1 3284:1 3287:1 3289:1 3305:1 3307:1 3314:1 3336:1 3346:1 3349:1 3371:1 3383:1 3385:1 3390:1 3397:1 3401:1 3402:1 3406:1 3407:1 3410:1 3418:1 3421:1 3423:1 3427:1 3429:1 3439:1 3444:1 3450:1 3457:1 3460:1 3467:1 3468:1 3473:1 3474:1 3478:1 3481:1 3482:1 3484:1 3494:1 3503:1 3505:1 3511:1 3514:1 3524:1 3529:1 3533:1 3538:1 3541:1 3545:1 3553:1 3556:1 3560:1 3565:1 3567:1 3573:1 3574:1 3581:1 3586:1 3594:1 3600:1 3601:1 3606:1 3615:1 3619:1 3624:1 3628:1 3635:1 3636:1 3646:1 3647:1 3649:1 3652:1 3657:1 3675:1 3677:1 3681:1 3700:1 3706:1 3714:1 3723:1 3724:1 3732:1 3733:1 3737:1 3740:1 3742:1 3743:1 3768:1 3769:1 3772:1 3776:1 3778:1 3792:1 3794:1 3795:1 3799:1 3801:1 3803:1 3808:1 3811:1 3816:1 3819:1 3822:1 3823:1 3834:1 3837:1 3863:1 3878:1 3886:1 3889:1 3896:1 3897:1 3898:1 3907:1 3909:1 3917:1 3926:1 3928:1 3933:1 3934:1 3936:1 3939:1 3940:1 3947:1 3951:1 3954:1 3963:1 3971:1 3973:1 3974:1 3975:1 3993:1 3995:1 4005:1 4018:1 4025:1 4028:1 4039:1 4042:1 4050:1 4052:1 4055:1 4061:1 4065:1 4078:1 4084:1 4091:1 4095:1 4098:1 4099:1 4100:1 4101:1 4104:1 4108:1 4113:1 4127:1 4131:1 4138:1 4145:1 4148:1 4154:1 4161:1 4185:1 4196:1 4200:1 4207:1 4211:1 4215:1 4219:1 4231:1 4236:1 4239:1 4245:1 4258:1 4262:1 4263:1 4270:1 4274:1 4277:1 4280:1 4282:1 4287:1 4291:1 4297:1 4308:1 4310:1 4325:1 4343:1 4364:1 4369:1 4388:1 4389:1 4393:1 4404:1 4405:1 4407:1 4411:1 4426:1 4429:1 4446:1 4450:1 4454:1 4457:1 4463:1 4470:1 4476:1 4491:1 4492:1 4497:1 4502:1 4503:1 4504:1 4520:1 4523:1 4527:1 4532:1 4534:1 4538:1 4540:1 4547:1 4566:1 4571:1 4574:1 4576:1 4597:1 4609:1 4610:1 4613:1 4614:1 4615:1 4617:1 4621:1 4625:1 4633:1 4635:1 4640:1 4641:1 4649:1 4654:1 4668:1 4673:1 4679:1 4683:1 4685:1 4691:1 4692:1 4695:1 4707:1 4713:1 4720:1 4731:1 4733:1 4735:1 4740:1 4745:1 4746:1 4761:1 4769:1 4774:1 4780:1 4781:1 4791:1 4793:1 4818:1 4820:1 4822:1 4824:1 4826:1 4829:1 4839:1 4857:1 4859:1 4864:1 4866:1 4867:1 4869:1 4873:1 4877:1 4878:1 4884:1 4885:1 4891:1 4892:1 4894:1 4898:1 4907:1 4923:1 4926:1 4944:1 4945:1 4946:1 4975:1 4987:1 5000:1 5001:1 5009:1 5011:1 5021:1 5027:1 5044:1 5047:1 5049:1 5054:1 5057:1 5060:1 5068:1 5075:1 5081:1 5090:1 5091:1 5092:1 5103:1 5108:1 5114:1 5118:1 5122:1 5137:1 5164:1 5171:1 5172:1 5176:1 5202:1 5204:1 5210:1 5212:1 5231:1 5243:1 5246:1 5250:1 5257:1 5261:1 5265:1 5271:1 5284:1 5287:1 5291:1 5292:1 5299:1 5303:1 5304:1 5309:1 5312:1 5315:1 5321:1 5344:1 5360:1 5364:1 5366:1 5368:1 5369:1 5372:1 5391:1 5407:1 5410:1 5423:1 5432:1 5437:1 5440:1 5458:1 5461:1 5462:1 5468:1 5470:1 5474:1 5482:1 5499:1 5506:1 5510:1 5516:1 5518:1 5522:1 5523:1 5524:1 5537:1 5538:1 5548:1 5562:1 5564:1 5573:1 5577:1 5585:1 5586:1 5589:1 5590:1 5592:1 5605:1 5614:1 5622:1 5633:1 5644:1 5646:1 5651:1 5659:1 5669:1 5679:1 5693:1 5699:1 5700:1 5701:1 5714:1 5718:1 5719:1 5722:1 5723:1 5740:1 5746:1 5747:1 5752:1 5753:1 5754:1 5764:1 5766:1 5776:1 5778:1 5780:1 5792:1 5796:1 5798:1 5801:1 5818:1 5834:1 5837:1 5844:1 5859:1 5874:1 5878:1 5879:1 5892:1 5893:1 5894:1 5915:1 5918:1 5921:1 5925:1 5937:1 5938:1 5945:1 5947:1 5948:1 5956:1 5968:1 5972:1 5991:1 5996:1 5998:1 6008:1 6012:1 6027:1 6028:1 6033:1 6035:1 6041:1 6049:1 6053:1 6059:1 6060:1 6067:1 6069:1 6071:1 6081:1 6083:1 6084:1 6096:1 6107:1 6115:1 6119:1 6124:1 6128:1 6139:1 6147:1 6154:1 6169:1 6170:1 6174:1 6177:1 6181:1 6183:1 6187:1 6190:1 6205:1 6208:1 6211:1 6217:1 6222:1 6225:1 6234:1 6235:1 6241:1 6242:1 6247:1 6260:1 6266:1 6267:1 6273:1 6276:1 6277:1 6283:1 6284:1 6295:1 6301:1 6324:1 6329:1 6337:1 6348:1 6358:1 6363:1 6386:1 6400:1 6401:1 6406:1 6408:1 6413:1 6414:1 6415:1 6418:1 6419:1 6429:1 6442:1 6445:1 6446:1 6462:1 6473:1 6478:1 6479:1 6480:1 6491:1 6501:1 6506:1 6510:1 6515:1 6519:1 6531:1 6533:1 6540:1 6541:1 6542:1 6543:1 6544:1 6557:1 6561:1 6566:1 6569:1 6577:1 6578:1 6580:1 6582:1 6587:1 6590:1 6599:1 6606:1 6617:1 6636:1 6642:1 6644:1 6652:1 6655:1 6657:1 6661:1 6662:1 6670:1 6671:1 6672:1 6673:1 6682:1 6686:1 6698:1 6705:1 6709:1 6710:1 6718:1 6719:1 6720:1 6726:1 6743:1 6744:1 6750:1 6770:1 6773:1 6774:1 6808:1 6818:1 6823:1 6832:1 6852:1 6853:1 6857:1 6868:1 6878:1 6889:1 6901:1 6903:1 6907:1 6909:1 6925:1 6937:1 6940:1 6949:1 6972:1 6973:1 6979:1 6985:1 6986:1 6992:1 7009:1 7010:1 7011:1 7016:1 7025:1 7035:1 7048:1 7051:1 7052:1 7053:1 7060:1 7061:1 7066:1 7067:1 7070:1 7072:1 7073:1 7074:1 7088:1 7091:1 7092:1 7094:1 7108:1 7115:1 7118:1 7127:1 7141:1 7157:1 7160:1 7161:1 7166:1 7169:1 7173:1 7178:1 7182:1 7190:1 7193:1 7196:1 7200:1 7219:1 7222:1 7229:1 7233:1 7242:1 7245:1 7246:1 7249:1 7259:1 7265:1 7270:1 7278:1 7279:1 7281:1 7288:1 7289:1 7290:1 7305:1 7313:1 7316:1 7318:1 7321:1 7322:1 7328:1 7341:1 7353:1 7361:1 7364:1 7370:1 7378:1 7387:1 7390:1 7401:1 7407:1 7411:1 7416:1 7422:1 7424:1 7428:1 7433:1 7434:1 7438:1 7439:1 7452:1 7458:1 7460:1 7470:1 7474:1 7476:1 7479:1 7482:1 7492:1 7493:1 7495:1 7497:1 7499:1 7503:1 7521:1 7537:1 7539:1 7542:1 7552:1 7565:1 7575:1 7578:1 7590:1 7610:1 7611:1 7615:1 7620:1 7622:1 7623:1 7624:1 7629:1 7632:1 7633:1 7642:1 7647:1 7652:1 7654:1 7660:1 7663:1 7666:1 7670:1 7681:1 7688:1 7695:1 7706:1 7707:1 7710:1 7711:1 7712:1 7719:1 7721:1 7728:1 7731:1 7735:1 7737:1 7748:1 7768:1 7771:1 7781:1 7782:1 7797:1 7801:1 7810:1 7816:1 7821:1 7838:1 7847:1 7859:1 7860:1 7863:1 7899:1 7901:1 7902:1 7906:1 7910:1 7914:1 7929:1 7935:1 7938:1 7944:1 7945:1 7946:1 7953:1 7954:1 7958:1 7964:1 7970:1 7976:1 7979:1 7986:1 7993:1 8000:1 8001:1 8006:1 8016:1 8017:1 8019:1 8033:1 8036:1 8043:1 8055:1 8059:1 8064:1 8067:1 8069:1 8072:1 8088:1 8099:1 8102:1 8103:1 8110:1 8127:1 8141:1 8144:1 8147:1 8148:1 8149:1 8150:1 8151:1 8160:1 8170:1 8172:1 8176:1 8177:1 8184:1 8190:1 8200:1 8201:1 8208:1 8210:1 8228:1 8230:1 8233:1 8238:1 8240:1 8241:1 8246:1 8249:1 8250:1 8252:1 8256:1 8265:1 8274:1 8295:1 8296:1 8299:1 8310:1 8322:1 8327:1 8334:1 8344:1 8354:1 8357:1 8358:1 8371:1 8372:1 8386:1 8388:1 8394:1 8396:1 8406:1 8407:1 8421:1 8424:1 8433:1 8435:1 8445:1 8451:1 8457:1 8458:1 8466:1 8468:1 8476:1 8486:1 8492:1 8493:1 8494:1 8496:1 8504:1 8505:1 8537:1 8545:1 8554:1 8555:1 8567:1 8569:1 8571:1 8579:1 8582:1 8585:1 8591:1 8602:1 8605:1 8606:1 8609:1 8610:1 8622:1 8625:1 8642:1 8650:1 8656:1 8662:1 8664:1 8673:1 8688:1 8689:1 8697:1 8715:1 8718:1 8726:1 8732:1 8742:1 8744:1 8757:1 8769:1 8775:1 8779:1 8785:1 8786:1 8791:1 8796:1 8797:1 8809:1 8820:1 8821:1 8829:1 8830:1 8833:1 8834:1 8838:1 8842:1 8844:1 8850:1 8861:1 8868:1 8889:1 8892:1 8899:1 8902:1 8905:1 8909:1 8912:1 8914:1 8918:1 8921:1 8924:1 8928:1 8930:1 8939:1 8954:1 8956:1 8959:1 8963:1 8968:1 8971:1 8973:1 8980:1 8989:1 8993:1 9003:1 9015:1 9021:1 9023:1 9036:1 9043:1 9045:1 9054:1 9055:1 9057:1 9063:1 9065:1 9069:1 9070:1 9076:1 9081:1 9084:1 9087:1 9091:1 9096:1 9108:1 9118:1 9119:1 9124:1 9125:1 9131:1 9133:1 9137:1 9138:1 9145:1 9148:1 9150:1 9151:1 9165:1 9167:1 9168:1 9174:1 9175:1 9179:1 9182:1 9187:1 9197:1 9201:1 9204:1 9214:1 9216:1 9218:1 9222:1 9223:1 9228:1 9229:1 9236:1 9254:1 9260:1 9262:1 9277:1 9285:1 9287:1 9289:1 9292:1 9294:1 9296:1 9302:1 9308:1 9310:1 9314:1 9322:1 9331:1 9336:1 9342:1 9345:1 9353:1 9354:1 9360:1 9362:1 9363:1 9366:1 9373:1 9385:1 9386:1 9393:1 9400:1 9405:1 9408:1 9409:1 9411:1 9413:1 9419:1 9420:1 9423:1 9436:1 9440:1 9443:1 9444:1 9454:1 9455:1 9473:1 9477:1 9478:1 9479:1 9485:1 9487:1 9490:1 9494:1 9499:1 9503:1 9533:1 9550:1 9551:1 9555:1 9585:1 9595:1 9598:1 9603:1 9604:1 9605:1 9615:1 9616:1 9624:1 9653:1 9655:1 9663:1 9669:1 9676:1 9677:1 9684:1 9690:1 9694:1 9697:1 9700:1 9703:1 9715:1 9716:1 9720:1 9726:1 9736:1 9758:1 9762:1 9768:1 9781:1 9783:1 9784:1 9793:1 9819:1 9820:1 9827:1 9839:1 9841:1 9852:1 9855:1 9863:1 9864:1 9868:1 9890:1 9901:1 9908:1 9923:1 9924:1 9934:1 9938:1 9939:1 9947:1 9953:1 9961:1 9972:1 9975:1 9986:1 9992:1 9997:1 10000:1 10001:1 10009:1 10010:1 10015:1 10017:1 10025:1 10037:1 10043:1 10050:1 10057:1 10068:1 10070:1 10072:1 10080:1 10081:1 10092:1 10097:1 10111:1 10113:1 10117:1 10120:1 10130:1 10136:1 10139:1 10142:1 10149:1 10150:1 10152:1 10156:1 10162:1 10177:1 10179:1 10191:1 10194:1 10209:1 10215:1 10217:1 10225:1 10244:1 10246:1 10267:1 10270:1 10272:1 10274:1 10278:1 10279:1 10289:1 10291:1 10318:1 10331:1 10340:1 10360:1 10362:1 10370:1 10374:1 10389:1 10402:1 10428:1 10435:1 10436:1 10442:1 10445:1 10450:1 10467:1 10469:1 10471:1 10478:1 10481:1 10503:1 10507:1 10510:1 10525:1 10564:1 10585:1 10586:1 10590:1 10597:1 10604:1 10615:1 10618:1 10631:1 10634:1 10635:1 10656:1 10657:1 10661:1 10662:1 10669:1 10679:1 10700:1 10704:1 10706:1 10715:1 10729:1 10732:1 10733:1 10734:1 10742:1 10748:1 10750:1 10753:1 10770:1 10771:1 10772:1 10791:1 10794:1 10799:1 10810:1 10813:1 10815:1 10820:1 10828:1 10831:1 10834:1 10840:1 10846:1 10847:1 10858:1 10869:1 10876:1 10878:1 10883:1 10894:1 10898:1 10902:1 10908:1 10912:1 10926:1 10930:1 10932:1 10960:1 10972:1 10975:1 10990:1 11012:1 11013:1 11038:1 11041:1 11042:1 11045:1 11046:1 11049:1 11062:1 11074:1 11083:1 11093:1 11099:1 11102:1 11104:1 11116:1 11122:1 11141:1 11167:1 11171:1 11184:1 11185:1 11192:1 11208:1 11218:1 11219:1 11225:1 11235:1 11239:1 11241:1 11244:1 11254:1 11267:1 11281:1 11282:1 11286:1 11297:1 11301:1 11305:1 11312:1 11315:1 11316:1 11318:1 11321:1 11323:1 11326:1 11337:1 11341:1 11345:1 11347:1 11355:1 11367:1 11369:1 11370:1 11396:1 11397:1 11398:1 11408:1 11409:1 11415:1 11416:1 11418:1 11420:1 11425:1 11426:1 11430:1 11433:1 11434:1 11447:1 11448:1 11453:1 11456:1 11472:1 11474:1 11478:1 11504:1 11508:1 11513:1 11516:1 11521:1 11523:1 11529:1 11533:1 11535:1 11540:1 11545:1 11553:1 11554:1 11556:1 11557:1 11558:1 11560:1 11572:1 11574:1 11580:1 11584:1 11593:1 11612:1 11617:1 11623:1 11624:1 11659:1 11660:1 11662:1 11663:1 11665:1 11668:1 11673:1 11674:1 11678:1 11693:1 11715:1 11720:1 11721:1 11736:1 11751:1 11752:1 11759:1 11762:1 11770:1 11775:1 11790:1 11791:1 11796:1 11798:1 11802:1 11815:1 11818:1 11819:1 11828:1 11829:1 11830:1 11836:1 11838:1 11842:1 11850:1 11851:1 11863:1 11874:1 11877:1 11882:1 11889:1 11916:1 11919:1 11920:1 11921:1 11926:1 11927:1 11942:1 11947:1 11954:1 11956:1 11957:1 11965:1 11967:1 11968:1 11971:1 11978:1 11982:1 11995:1 12004:1 12012:1 12015:1 12017:1 12018:1 12020:1 12021:1 12028:1 12043:1 12051:1 12061:1 12081:1 12084:1 12088:1 12095:1 12100:1 12102:1 12126:1 12132:1 12142:1 12146:1 12147:1 12167:1 12187:1 12210:1 12215:1 12219:1 12223:1 12225:1 12230:1 12231:1 12234:1 12245:1 12246:1 12254:1 12258:1 12259:1 12272:1 12276:1 12286:1 12294:1 12298:1 12308:1 12314:1 12318:1 12326:1 12339:1 12345:1 12348:1 12349:1 12352:1 12370:1 12378:1 12389:1 12391:1 12404:1 12416:1 12421:1 12426:1 12428:1 12429:1 12435:1 12453:1 12454:1 12460:1 12466:1 12467:1 12472:1 12486:1 12502:1 12503:1 12515:1 12520:1 12522:1 12526:1 12529:1 12532:1 12539:1 12543:1 12552:1 12579:1 12594:1 12604:1 12619:1 12629:1 12636:1 12640:1 12664:1 12667:1 12682:1 12687:1 12689:1 12691:1 12704:1 12714:1 12716:1 12720:1 12721:1 12726:1 12729:1 12735:1 12743:1 12755:1 12756:1 12768:1 12769:1 12770:1 12771:1 12779:1 12783:1 12788:1 12800:1 12802:1 12803:1 12833:1 12837:1 12839:1 12845:1 12852:1 12853:1 12856:1 12857:1 12864:1 12868:1 12875:1 12879:1 12883:1 12886:1 12897:1 12899:1 12911:1 12919:1 12926:1 12929:1 12936:1 12938:1 12939:1 12941:1 12943:1 12946:1 12950:1 12961:1 12963:1 12966:1 12970:1 12975:1 12978:1 12986:1 12988:1 12989:1 12999:1 13013:1 13030:1 13032:1 13033:1 13043:1 13046:1 13059:1 13071:1 13072:1 13074:1 13076:1 13082:1 13087:1 13091:1 13097:1 13101:1 13102:1 13110:1 13113:1 13114:1 13119:1 13124:1 13125:1 13127:1 13129:1 13132:1 13134:1 13135:1 13137:1 13147:1 13151:1 13152:1 13156:1 13162:1 13168:1 13173:1 13177:1 13192:1 13197:1 13198:1 13201:1 13206:1 13211:1 13220:1 13231:1 13236:1 13243:1 13246:1 13254:1 13267:1 13276:1 13282:1 13287:1 13296:1 13302:1 13310:1 13325:1 13328:1 13329:1 13337:1 13342:1 13348:1 13350:1 13356:1 13362:1 13370:1 13374:1 13375:1 13380:1 13392:1 13396:1 13398:1 13399:1 13413:1 13417:1 13420:1 13421:1 13426:1 13429:1 13430:1 13436:1 13438:1 13442:1 13449:1 13467:1 13468:1 13477:1 13482:1 13489:1 13490:1 13499:1 13503:1 13514:1 13532:1 13534:1 13539:1 13544:1 13553:1 13556:1 13563:1 13570:1 13579:1 13604:1 13607:1 13608:1 13622:1 13626:1 13631:1 13632:1 13633:1 13645:1 13648:1 13649:1 13662:1 13663:1 13686:1 13690:1 13691:1 13694:1 13698:1 13699:1 13702:1 13703:1 13705:1 13707:1 13708:1 13714:1 13718:1 13729:1 13733:1 13738:1 13740:1 13744:1 13746:1 13754:1 13756:1 13762:1 13770:1 13774:1 13779:1 13791:1 13792:1 13804:1 13807:1 13809:1 13814:1 13825:1 13833:1 13841:1 13845:1 13856:1 13862:1 13866:1 13871:1 13882:1 13892:1 13895:1 13898:1 13902:1 13909:1 13921:1 13927:1 13929:1 13930:1 13938:1 13943:1 13948:1 13949:1 13953:1 13964:1 13965:1 13979:1 13993:1 13995:1 14001:1 14007:1 14013:1 14023:1 14028:1 14040:1 14042:1 14056:1 14062:1 14072:1 14081:1 14086:1 14087:1 14090:1 14109:1 14112:1 14117:1 14123:1 14136:1 14146:1 14171:1 14180:1 14187:1 14192:1 14194:1 14195:1 14196:1 14197:1 14212:1 14213:1 14216:1 14217:1 14243:1 14244:1 14255:1 14259:1 14260:1 14262:1 14263:1 14264:1 14267:1 14275:1 14279:1 14293:1 14295:1 14301:1 14318:1 14324:1 14338:1 14344:1 14352:1 14374:1 14379:1 14400:1 14408:1 14410:1 14414:1 14416:1 14417:1 14419:1 14423:1 14427:1 14446:1 14459:1 14463:1 14469:1 14472:1 14476:1 14478:1 14485:1 14488:1 14491:1 14492:1 14495:1 14498:1 14506:1 14512:1 14515:1 14521:1 14525:1 14527:1 14533:1 14534:1 14541:1 14543:1 14544:1 14553:1 14555:1 14563:1 14567:1 14575:1 14600:1 14609:1 14611:1 14613:1 14616:1 14623:1 14638:1 14651:1 14659:1 14661:1 14664:1 14666:1 14667:1 14676:1 14682:1 14694:1 14705:1 14724:1 14728:1 14730:1 14746:1 14749:1 14752:1 14758:1 14763:1 14779:1 14780:1 14803:1 14807:1 14820:1 14824:1 14827:1 14836:1 14838:1 14841:1 14851:1 14852:1 14872:1 14874:1 14878:1 14883:1 14891:1 14894:1 14900:1 14904:1 14906:1 14917:1 14919:1 14920:1 14922:1 14933:1 14935:1 14944:1 14945:1 14947:1 14949:1 14953:1 14963:1 14971:1 14974:1 14976:1 14978:1 14998:1 15007:1 15008:1 15010:1 15011:1 15016:1 15020:1 15030:1 15034:1 15042:1 15045:1 15047:1 15059:1 15077:1 15080:1 15081:1 15082:1 15083:1 15085:1 15087:1 15089:1 15093:1 15101:1 15102:1 15107:1 15109:1 15115:1 15116:1 15122:1 15128:1 15130:1 15132:1 15133:1 15135:1 15138:1 15143:1 15147:1 15151:1 15153:1 15158:1 15166:1 15167:1 15170:1 15176:1 15184:1 15186:1 15188:1 15197:1 15207:1 15209:1 15214:1 15221:1 15225:1 15228:1 15235:1 15236:1 15239:1 15249:1 15256:1 15258:1 15260:1 15267:1 15269:1 15296:1 15298:1 15304:1 15311:1 15314:1 15316:1 15320:1 15341:1 15348:1 15349:1 15354:1 15360:1 15362:1 15372:1 15373:1 15378:1 15379:1 15383:1 15384:1 15387:1 15410:1 15426:1 15435:1 15440:1 15442:1 15444:1 15445:1 15451:1 15466:1 15467:1 15468:1 15471:1 15486:1 15490:1 15492:1 15493:1 15498:1 15500:1 15503:1 15505:1 15509:1 15511:1 15520:1 15523:1 15525:1 15526:1 15539:1 15541:1 15544:1 15552:1 15577:1 15588:1 15607:1 15617:1 15636:1 15652:1 15656:1 15682:1 15685:1 15687:1 15689:1 15695:1 15698:1 15699:1 15712:1 15722:1 15730:1 15731:1 15744:1 15755:1 15764:1 15770:1 15772:1 15775:1 15786:1 15802:1 15803:1 15816:1 15821:1 15823:1 15824:1 15826:1 15831:1 15836:1 15838:1 15845:1 15849:1 15851:1 15852:1 15859:1 15867:1 15889:1 15891:1 15901:1 15908:1 15923:1 15928:1 15937:1 15949:1 15950:1 15962:1 15965:1 15973:1 15982:1 15985:1 15994:1 15999:1 16012:1 16022:1 16033:1 16036:1 16051:1 16056:1 16060:1 16061:1 16063:1 16064:1 16069:1 16070:1 16071:1 16076:1 16079:1 16082:1 16084:1 16089:1 16099:1 16102:1 16108:1 16121:1 16122:1 16124:1 16125:1 16133:1 16134:1 16139:1 16145:1 16147:1 16157:1 16162:1 16171:1 16172:1 16180:1 16184:1 16191:1 16194:1 16200:1 16205:1 16216:1 16227:1 16239:1 16242:1 16250:1 16254:1 16257:1 16261:1 16279:1 16284:1 16293:1 16299:1 16309:1 16325:1 16326:1 16327:1 16333:1 16355:1 16381:1 16384:1 16392:1 16399:1 16406:1 16408:1 16435:1 16440:1 16449:1 16450:1 16455:1 16460:1 16461:1 16462:1 16463:1 16464:1 16494:1 16495:1 16498:1 16506:1 16516:1 16517:1 16539:1 16542:1 16547:1 16549:1 16558:1 16565:1 16567:1 16569:1 16575:1 16582:1 16588:1 16589:1 16598:1 16605:1 16612:1 16618:1 16622:1 16648:1 16651:1 16652:1 16657:1 16660:1 16663:1 16666:1 16670:1 16671:1 16673:1 16688:1 16699:1 16703:1 16712:1 16726:1 16729:1 16735:1 16737:1 16754:1 16760:1 16762:1 16771:1 16775:1 16785:1 16793:1 16801:1 16803:1 16817:1 16827:1 16842:1 16847:1 16853:1 16854:1 16856:1 16876:1 16886:1 16891:1 16892:1 16898:1 16903:1 16906:1 16908:1 16911:1 16915:1 16927:1 16931:1 16948:1 16949:1 16957:1 16961:1 16971:1 16980:1 17000:1 17004:1 17007:1 17010:1 17018:1 17019:1 17027:1 17030:1 17033:1 17037:1 17043:1 17058:1 17063:1 17071:1 17074:1 17089:1 17096:1 17099:1 17108:1 17110:1 17111:1 17120:1 17128:1 17141:1 17144:1 17145:1 17152:1 17156:1 17170:1 17172:1 17184:1 17194:1 17203:1 17214:1 17219:1 17220:1 17224:1 17237:1 17240:1 17242:1 17251:1 17262:1 17269:1 17276:1 17285:1 17291:1 17296:1 17297:1 17301:1 17304:1 17306:1 17307:1 17309:1 17315:1 17325:1 17327:1 17330:1 17339:1 17347:1 17350:1 17361:1 17371:1 17373:1 17377:1 17384:1 17400:1 17404:1 17407:1 17408:1 17424:1 17427:1 17435:1 17440:1 17449:1 17451:1 17466:1 17476:1 17477:1 17478:1 17482:1 17484:1 17489:1 17498:1 17507:1 17510:1 17520:1 17525:1 17537:1 17541:1 17547:1 17548:1 17553:1 17559:1 17568:1 17575:1 17579:1 17596:1 17608:1 17611:1 17612:1 17621:1 17624:1 17625:1 17630:1 17638:1 17643:1 17649:1 17659:1 17660:1 17663:1 17673:1 17680:1 17681:1 17683:1 17691:1 17692:1 17698:1 17708:1 17712:1 17723:1 17734:1 17736:1 17752:1 17754:1 17758:1 17759:1 17767:1 17776:1 17777:1 17781:1 17788:1 17790:1 17794:1 17795:1 17804:1 17805:1 17828:1 17834:1 17839:1 17841:1 17842:1 17846:1 17856:1 17859:1 17870:1 17875:1 17876:1 17878:1 17879:1 17883:1 17884:1 17887:1 17894:1 17895:1 17900:1 17908:1 17914:1 17915:1 17922:1 17923:1 17930:1 17940:1 17941:1 17946:1 17950:1 17959:1 17962:1 17969:1 17981:1 17983:1 17984:1 17988:1 17991:1 17992:1 17995:1 17997:1 17998:1 17999:1 18002:1 18006:1 18010:1 18013:1 18015:1 18016:1 18028:1 18036:1 18039:1 18045:1 18046:1 18050:1 18064:1 18084:1 18085:1 18089:1 18098:1 18103:1 18105:1 18107:1 18108:1 18115:1 18134:1 18136:1 18141:1 18161:1 18172:1 18173:1 18174:1 18191:1 18193:1 18204:1 18208:1 18215:1 18234:1 18239:1 18240:1 18246:1 18263:1 18270:1 18285:1 18286:1 18288:1 18292:1 18294:1 18296:1 18297:1 18307:1 18313:1 18325:1 18330:1 18347:1 18350:1 18362:1 18365:1 18369:1 18371:1 18377:1 18379:1 18380:1 18397:1 18399:1 18401:1 18421:1 18431:1 18435:1 18436:1 18440:1 18446:1 18450:1 18455:1 18462:1 18465:1 18483:1 18487:1 18508:1 18515:1 18516:1 18530:1 18531:1 18533:1 18535:1 18540:1 18544:1 18549:1 18562:1 18564:1 18565:1 18569:1 18585:1 18590:1 18607:1 18613:1 18621:1 18624:1 18631:1 18632:1 18634:1 18654:1 18657:1 18659:1 18660:1 18666:1 18673:1 18677:1 18680:1 18683:1 18693:1 18695:1 18698:1 18699:1 18719:1 18721:1 18738:1 18772:1 18787:1 18792:1 18795:1 18799:1 18802:1 18810:1 18836:1 18839:1 18842:1 18849:1 18858:1 18867:1 18871:1 18878:1 18892:1 18896:1 18901:1 18911:1 18919:1 18931:1 18932:1 18938:1 18942:1 18946:1 18950:1 18960:1 18963:1 18967:1 18968:1 18983:1 18984:1 18986:1 18987:1 18990:1 18994:1 18996:1 19010:1 19015:1 19018:1 19023:1 19040:1 19055:1 19068:1 19087:1 19088:1 19096:1 19101:1 19106:1 19131:1 19135:1 19136:1 19146:1 19150:1 19157:1 19168:1 19180:1 19185:1 19193:1 19207:1 19209:1 19212:1 19217:1 19223:1 19230:1 19245:1 19250:1 19251:1 19252:1 19254:1 19258:1 19261:1 19263:1 19271:1 19277:1 19278:1 19283:1 19292:1 19294:1 19296:1 19312:1 19313:1 19321:1 19323:1 19330:1 19335:1 19340:1 19349:1 19352:1 19356:1 19364:1 19372:1 19381:1 19384:1 19391:1 19398:1 19427:1 19429:1 19438:1 19444:1 19451:1 19456:1 19463:1 19475:1 19481:1 19482:1 19486:1 19492:1 19493:1 19499:1 19511:1 19512:1 19513:1 19517:1 19518:1 19521:1 19522:1 19528:1 19533:1 19538:1 19547:1 19549:1 19559:1 19567:1 19568:1 19570:1 19578:1 19584:1 19588:1 19590:1 19591:1 19602:1 19603:1 19617:1 19622:1 19639:1 19643:1 19669:1 19674:1 19686:1 19688:1 19710:1 19721:1 19724:1 19729:1 19750:1 19757:1 19758:1 19769:1 19772:1 19786:1 19789:1 19792:1 19794:1 19796:1 19810:1 19818:1 19820:1 19843:1 19845:1 19849:1 19851:1 19852:1 19872:1 19879:1 19891:1 19893:1 19894:1 19897:1 19904:1 19907:1 19913:1 19915:1 19916:1 19933:1 19946:1 19948:1 19956:1 19959:1 19961:1 19963:1 19966:1 19972:1 19975:1 19976:1 19982:1 19983:1 19989:1 19995:1 19997:1 20011:1 20023:1 20034:1 20045:1 20049:1 20055:1 20061:1 20062:1 20079:1 20081:1 20083:1 20086:1 20088:1 20089:1 20091:1 20099:1 20111:1 20112:1 20139:1 20145:1 20151:1 20152:1 20154:1 20170:1 20185:1 20190:1 20192:1 20198:1 20200:1 20203:1 20206:1 20211:1 20212:1 20218:1 20232:1 20245:1 20248:1 20263:1 20265:1 20269:1 20277:1 20281:1 20282:1 20288:1 20293:1 20300:1 20313:1 20314:1 20322:1 20323:1 20326:1 20329:1 20338:1 20342:1 20343:1 20344:1 20346:1 20350:1 20368:1 20382:1 20386:1 20387:1 20389:1 20391:1 20392:1 20400:1 20407:1 20419:1 20420:1 20421:1 20424:1 20434:1 20437:1 20444:1 20449:1 20454:1 20458:1 20469:1 20471:1 20472:1 20476:1 20478:1 20482:1 20491:1 20492:1 20495:1 20516:1 20520:1 20521:1 20523:1 20532:1 20536:1 20537:1 20542:1 20557:1 20560:1 20563:1 20566:1 20575:1 20579:1 20588:1 20610:1 20611:1 20612:1 20614:1 20615:1 20625:1 20633:1 20639:1 20655:1 20662:1 20670:1 20671:1 20679:1 20684:1 20695:1 20697:1 20698:1 20703:1 20721:1 20726:1 20733:1 20736:1 20742:1 20743:1 20749:1 20750:1 20757:1 20764:1 20768:1 20779:1 20789:1 20792:1 20796:1 20799:1 20800:1 20809:1 20811:1 20824:1 20830:1 20831:1 20832:1 20833:1 20835:1 20845:1 20856:1 20867:1 20868:1 20905:1 20908:1 20931:1 20940:1 20959:1 20960:1 20968:1 20975:1 20985:1 20987:1 21004:1 21005:1 21011:1 21021:1 21024:1 21029:1 21034:1 21043:1 21047:1 21051:1 21052:1 21055:1 21057:1 21059:1 21083:1 21090:1 21097:1 21098:1 21128:1 21129:1 21132:1 21143:1 21144:1 21145:1 21153:1 21154:1 21157:1 21158:1 21167:1 21184:1 21186:1 21188:1 21194:1 21195:1 21200:1 21205:1 21207:1 21235:1 21253:1 21258:1 21262:1 21264:1 21265:1 21275:1 21277:1 21286:1 21296:1 21303:1 21305:1 21308:1 21315:1 21329:1 21330:1 21336:1 21343:1 21350:1 21377:1 21401:1 21409:1 21412:1 21414:1 21417:1 21426:1 21427:1 21431:1 21434:1 21438:1 21444:1 21445:1 21452:1 21456:1 21462:1 21463:1 21472:1 21473:1 21477:1 21483:1 21485:1 21492:1 21494:1 21495:1 21503:1 21513:1 21519:1 21520:1 21525:1 21527:1 21533:1 21542:1 21549:1 21550:1 21558:1 21569:1 21573:1 21577:1 21578:1 21586:1 21591:1 21602:1 21603:1 21604:1 21611:1 21614:1 21615:1 21617:1 21629:1 21631:1 21632:1 21633:1 21649:1 21653:1 21656:1 21660:1 21661:1 21664:1 21670:1 21673:1 21675:1 21677:1 21692:1 21694:1 21708:1 21713:1 21742:1 21745:1 21747:1 21748:1 21750:1 21753:1 21755:1 21760:1 21765:1 21776:1 21781:1 21783:1 21784:1 21786:1 21793:1 21794:1 21797:1 21802:1 21805:1 21807:1 21808:1 21814:1 21816:1 21817:1 21829:1 21834:1 21835:1 21843:1 21853:1 21858:1 21866:1 21871:1 21873:1 21875:1 21876:1 21885:1 21894:1 21896:1 21906:1 21915:1 21920:1 21923:1 21929:1 21939:1 21959:1 21963:1 21965:1 21966:1 21980:1 21985:1 21989:1 22007:1 22008:1 22012:1 22014:1 22015:1 22018:1 22024:1 22026:1 22033:1 22043:1 22054:1 22057:1 22058:1 22061:1 22079:1 22082:1 22089:1 22093:1 22097:1 22105:1 22106:1 22108:1 22123:1 22124:1 22125:1 22143:1 22147:1 22152:1 22154:1 22155:1 22162:1 22170:1 22184:1 22205:1 22213:1 22216:1 22218:1 22221:1 22243:1 22244:1 22251:1 22254:1 22255:1 22262:1 22265:1 22275:1 22276:1 22277:1 22285:1 22286:1 22287:1 22308:1 22313:1 22326:1 22327:1 22333:1 22334:1 22340:1 22348:1 22359:1 22360:1 22365:1 22381:1 22383:1 22394:1 22404:1 22410:1 22417:1 22420:1 22424:1 22449:1 22459:1 22462:1 22469:1 22471:1 22473:1 22486:1 22500:1 22508:1 22511:1 22517:1 22519:1 22523:1 22524:1 22531:1 22534:1 22535:1 22537:1 22540:1 22546:1 22550:1 22555:1 22561:1 22570:1 22578:1 22582:1 22583:1 22591:1 22593:1 22612:1 22616:1 22620:1 22622:1 22632:1 22635:1 22637:1 22654:1 22669:1 22671:1 22673:1 22674:1 22675:1 22677:1 22683:1 22688:1 22700:1 22705:1 22706:1 22714:1 22747:1 22748:1 22750:1 22760:1 22763:1 22766:1 22775:1 22776:1 22783:1 22785:1 22789:1 22792:1 22795:1 22796:1 22799:1 22803:1 22810:1 22811:1 22812:1 22818:1 22819:1 22827:1 22831:1 22832:1 22858:1 22861:1 22862:1 22865:1 22869:1 22874:1 22875:1 22884:1 22890:1 22898:1 22907:1 22910:1 22913:1 22915:1 22923:1 22928:1 22930:1 22937:1 22938:1 22943:1 22944:1 22950:1 22974:1 22979:1 22983:1 22992:1 22994:1 23002:1 23008:1 23019:1 23030:1 23036:1 23038:1 23044:1 23045:1 23052:1 23055:1 23058:1 23059:1 23061:1 23063:1 23066:1 23069:1 23071:1 23081:1 23091:1 23093:1 23096:1 23097:1 23099:1 23112:1 23113:1 23114:1 23125:1 23139:1 23140:1 23143:1 23148:1 23149:1 23151:1 23153:1 23171:1 23176:1 23185:1 23190:1 23201:1 23214:1 23225:1 23236:1 23252:1 23253:1 23254:1 23273:1 23277:1 23279:1 23284:1 23292:1 23299:1 23300:1 23305:1 23307:1 23311:1 23325:1 23328:1 23329:1 23351:1 23354:1 23364:1 23368:1 23369:1 23372:1 23390:1 23391:1 23435:1 23437:1 23438:1 23440:1 23452:1 23461:1 23467:1 23468:1 23474:1 23475:1 23477:1 23479:1 23483:1 23502:1 23509:1 23510:1 23512:1 23513:1 23517:1 23525:1 23527:1 23528:1 23535:1 23536:1 23553:1 23556:1 23564:1 23567:1 23568:1 23577:1 23589:1 23606:1 23609:1 23624:1 23628:1 23649:1 23650:1 23651:1 23664:1 23665:1 23669:1 23675:1 23679:1 23694:1 23703:1 23708:1 23709:1 23718:1 23723:1 23727:1 23730:1 23741:1 23742:1 23749:1 23754:1 23756:1 23757:1 23770:1 23772:1 23781:1 23782:1 23786:1 23792:1 23807:1 23814:1 23817:1 23823:1 23824:1 23828:1 23829:1 23834:1 23836:1 23849:1 23856:1 23860:1 23865:1 23873:1 23876:1 23878:1 23880:1 23882:1 23885:1 23895:1 23897:1 23904:1 23908:1 23910:1 23922:1 23929:1 23931:1 23934:1 23937:1 23941:1 23942:1 23953:1 23966:1 23972:1 23977:1 23983:1 23988:1 23995:1 24000:1 24010:1 24016:1 24024:1 24033:1 24040:1 24043:1 24046:1 24054:1 24060:1 24063:1 24065:1 24076:1 24088:1 24095:1 24097:1 24100:1 24105:1 24134:1 24137:1 24139:1 24145:1 24154:1 24156:1 24174:1 24175:1 24177:1 24178:1 24192:1 24199:1 24201:1 24211:1 24212:1 24219:1 24238:1 24241:1 24242:1 24245:1 24253:1 24268:1 24278:1 24281:1 24284:1 24293:1 24303:1 24316:1 24317:1 24320:1 24346:1 24356:1 24373:1 24374:1 24390:1 24402:1 24407:1 24421:1 24438:1 24443:1 24468:1 24475:1 24482:1 24493:1 24496:1 24498:1 24508:1 24511:1 24514:1 24518:1 24526:1 24533:1 24535:1 24548:1 24563:1 24565:1 24578:1 24579:1 24588:1 24600:1 24608:1 24615:1 24620:1 24621:1 24636:1 24642:1 24647:1 24649:1 24651:1 24661:1 24667:1 24685:1 24701:1 24707:1 24714:1 24719:1 24720:1 24728:1 24734:1 24738:1 24745:1 24761:1 24762:1 24764:1 24773:1 24784:1 24789:1 24796:1 24798:1 24803:1 24804:1 24810:1 24812:1 24813:1 24817:1 24823:1 24824:1 24846:1 24851:1 24852:1 24866:1 24872:1 24873:1 24877:1 24879:1 24881:1 24882:1 24888:1 24891:1 24892:1 24904:1 24912:1 24914:1 24918:1 24926:1 24927:1 24928:1 24929:1 24932:1 24945:1 24953:1 24960:1 24964:1 24972:1 24977:1 24986:1 24990:1 24999:1 25018:1 25022:1 25023:1 25024:1 25040:1 25046:1 25055:1 25064:1 25071:1 25079:1 25080:1 25090:1 25092:1 25104:1 25105:1 25107:1 25110:1 25112:1 25128:1 25146:1 25147:1 25152:1 25158:1 25163:1 25166:1 25167:1 25174:1 25181:1 25182:1 25183:1 25188:1 25190:1 25195:1 25196:1 25197:1 25200:1 25207:1 25216:1 25220:1 25222:1 25228:1 25229:1 25239:1 25247:1 25248:1 25267:1 25284:1 25288:1 25294:1 25297:1 25301:1 25304:1 25306:1 25318:1 25336:1 25339:1 25341:1 25342:1 25347:1 25361:1 25366:1 25369:1 25377:1 25385:1 25386:1 25393:1 25394:1 25401:1 25405:1 25407:1 25410:1 25411:1 25413:1 25420:1 25429:1 25433:1 25444:1 25464:1 25465:1 25466:1 25481:1 25486:1 25494:1 25496:1 25498:1 25512:1 25517:1 25520:1 25526:1 25542:1 25543:1 25544:1 25549:1 25572:1 25576:1 25587:1 25601:1 25602:1 25608:1 25611:1 25620:1 25624:1 25631:1 25634:1 25640:1 25647:1 25651:1 25657:1 25660:1 25663:1 25668:1 25670:1 25672:1 25673:1 25678:1 25680:1 25682:1 25684:1 25718:1 25721:1 25725:1 25735:1 25751:1 25762:1 25764:1 25773:1 25776:1 25777:1 25780:1 25783:1 25786:1 25793:1 25796:1 25798:1 25800:1 25808:1 25817:1 25821:1 25824:1 25830:1 25851:1 25863:1 25874:1 25885:1 25891:1 25896:1 25899:1 25904:1 25911:1 25923:1 25924:1 25929:1 25934:1 25939:1 25940:1 25944:1 25947:1 25948:1 25956:1 25966:1 25967:1 25968:1 25978:1 25984:1 25985:1 25991:1 25996:1 26006:1 26008:1 26014:1 26015:1 26022:1 26023:1 26044:1 26048:1 26056:1 26086:1 26095:1 26102:1 26103:1 26105:1 26112:1 26120:1 26124:1 26131:1 26139:1 26149:1 26163:1 26164:1 26168:1 26178:1 26186:1 26193:1 26201:1 26203:1 26208:1 26222:1 26231:1 26239:1 26247:1 26250:1 26254:1 26257:1 26260:1 26265:1 26268:1 26272:1 26274:1 26278:1 26281:1 26292:1 26305:1 26321:1 26338:1 26349:1 26350:1 26353:1 26362:1 26363:1 26368:1 26369:1 26373:1 26379:1 26380:1 26382:1 26384:1 26398:1 26415:1 26423:1 26425:1 26428:1 26434:1 26439:1 26443:1 26444:1 26450:1 26452:1 26458:1 26476:1 26480:1 26496:1 26506:1 26527:1 26528:1 26531:1 26535:1 26537:1 26539:1 26544:1 26547:1 26567:1 26578:1 26585:1 26586:1 26593:1 26595:1 26599:1 26603:1 26612:1 26621:1 26622:1 26624:1 26626:1 26634:1 26640:1 26645:1 26652:1 26669:1 26681:1 26687:1 26693:1 26694:1 26695:1 26701:1 26706:1 26715:1 26720:1 26742:1 26758:1 26764:1 26771:1 26778:1 26796:1 26798:1 26799:1 26802:1 26818:1 26823:1 26824:1 26825:1 26826:1 26832:1 26848:1 26849:1 26856:1 26873:1 26876:1 26882:1 26897:1 26903:1 26906:1 26923:1 26946:1 26951:1 26952:1 26964:1 26967:1 26968:1 26969:1 26973:1 26980:1 26984:1 26985:1 26991:1 26999:1 27002:1 27014:1 27030:1 27031:1 27037:1 27045:1 27056:1 27065:1 27076:1 27088:1 27089:1 27090:1 27095:1 27106:1 27108:1 27112:1 27123:1 27128:1 27133:1 27137:1 27140:1 27141:1 27162:1 27163:1 27166:1 27167:1 27170:1 27171:1 27179:1 27189:1 27190:1 27194:1 27205:1 27206:1 27233:1 27236:1 27253:1 27255:1 27260:1 27272:1 27273:1 27276:1 27288:1 27294:1 27295:1 27296:1 27305:1 27312:1 27314:1 27315:1 27326:1 27332:1 27338:1 27339:1 27343:1 27349:1 27363:1 27365:1 27369:1 27382:1 27384:1 27386:1 27389:1 27391:1 27394:1 27405:1 27415:1 27423:1 27425:1 27429:1 27441:1 27457:1 27464:1 27468:1 27469:1 27475:1 27480:1 27486:1 27489:1 27491:1 27498:1 27510:1 27519:1 27520:1 27526:1 27527:1 27540:1 27546:1 27550:1 27560:1 27564:1 27565:1 27580:1 27581:1 27582:1 27585:1 27592:1 27598:1 27599:1 27609:1 27614:1 27617:1 27619:1 27624:1 27649:1 27651:1 27660:1 27673:1 27705:1 27706:1 27707:1 27720:1 27722:1 27725:1 27737:1 27741:1 27746:1 27753:1 27756:1 27757:1 27774:1 27776:1 27779:1 27782:1 27785:1 27786:1 27792:1 27802:1 27803:1 27809:1 27818:1 27821:1 27839:1 27840:1 27845:1 27855:1 27860:1 27865:1 27878:1 27880:1 27881:1 27882:1 27890:1 27895:1 27911:1 27912:1 27919:1 27924:1 27931:1 27932:1 27933:1 27942:1 27964:1 27966:1 27968:1 27971:1 27972:1 27980:1 27990:1 27993:1 27994:1 27997:1 28006:1 28009:1 28012:1 28014:1 28016:1 28020:1 28023:1 28028:1 28029:1 28032:1 28036:1 28068:1 28087:1 28094:1 28097:1 28100:1 28101:1 28105:1 28110:1 28112:1 28114:1 28116:1 28119:1 28122:1 28126:1 28130:1 28132:1 28142:1 28143:1 28161:1 28162:1 28167:1 28173:1 28187:1 28192:1 28197:1 28203:1 28213:1 28218:1 28228:1 28229:1 28238:1 28240:1 28258:1 28260:1 28267:1 28272:1 28277:1 28278:1 28286:1 28288:1 28298:1 28300:1 28303:1 28308:1 28309:1 28310:1 28312:1 28323:1 28324:1 28333:1 28340:1 28343:1 28350:1 28361:1 28363:1 28365:1 28373:1 28375:1 28376:1 28377:1 28381:1 28395:1 28396:1 28398:1 28401:1 28424:1 28425:1 28426:1 28438:1 28441:1 28446:1 28447:1 28459:1 28460:1 28462:1 28467:1 28468:1 28471:1 28472:1 28475:1 28482:1 28485:1 28492:1 28499:1 28501:1 28503:1 28515:1 28521:1 28527:1 28538:1 28542:1 28549:1 28556:1 28563:1 28570:1 28571:1 28574:1 28583:1 28606:1 28623:1 28625:1 28631:1 28653:1 28655:1 28666:1 28671:1 28673:1 28683:1 28686:1 28687:1 28696:1 28703:1 28706:1 28708:1 28710:1 28712:1 28715:1 28727:1 28730:1 28749:1 28752:1 28760:1 28765:1 28766:1 28775:1 28787:1 28788:1 28795:1 28796:1 28803:1 28805:1 28815:1 28817:1 28820:1 28823:1 28829:1 28834:1 28840:1 28845:1 28850:1 28852:1 28854:1 28859:1 28860:1 28861:1 28868:1 28871:1 28884:1 28887:1 28901:1 28906:1 28916:1 28924:1 28929:1 28936:1 28946:1 28962:1 28971:1 28975:1 28986:1 28991:1 28996:1 29015:1 29021:1 29031:1 29038:1 29044:1 29057:1 29059:1 29076:1 29101:1 29102:1 29115:1 29124:1 29126:1 29127:1 29129:1 29143:1 29145:1 29147:1 29157:1 29160:1 29161:1 29163:1 29174:1 29179:1 29192:1 29199:1 29203:1 29209:1 29210:1 29212:1 29216:1 29217:1 29221:1 29224:1 29245:1 29258:1 29281:1 29282:1 29293:1 29307:1 29317:1 29320:1 29339:1 29340:1 29352:1 29353:1 29358:1 29359:1 29360:1 29363:1 29368:1 29372:1 29378:1 29379:1 29387:1 29397:1 29399:1 29415:1 29421:1 29422:1 29423:1 29431:1 29439:1 29444:1 29452:1 29462:1 29464:1 29479:1 29489:1 29503:1 29514:1 29519:1 29520:1 29530:1 29533:1 29548:1 29571:1 29578:1 29585:1 29600:1 29607:1 29614:1 29620:1 29624:1 29627:1 29629:1 29640:1 29648:1 29654:1 29658:1 29662:1 29675:1 29678:1 29731:1 29750:1 29757:1 29758:1 29764:1 29772:1 29774:1 29786:1 29792:1 29797:1 29799:1 29800:1 29801:1 29805:1 29813:1 29833:1 29836:1 29842:1 29881:1 29883:1 29886:1 29890:1 29893:1 29904:1 29914:1 29945:1 29948:1 29957:1 29960:1 29963:1 29965:1 29966:1 29972:1 29975:1 29994:1 29995:1 30006:1 30010:1 30017:1 30022:1 30029:1 30033:1 30038:1 30042:1 30063:1 30069:1 30073:1 30089:1 30091:1 30092:1 30095:1 30099:1 30104:1 30108:1 30112:1 30116:1 30125:1 30129:1 30131:1 30136:1 30142:1 30151:1 30153:1 30163:1 30164:1 30186:1 30189:1 30206:1 30210:1 30216:1 30222:1 30243:1 30245:1 30261:1 30266:1 30269:1 30273:1 30278:1 30304:1 30314:1 30316:1 30320:1 30321:1 30334:1 30341:1 30358:1 30362:1 30365:1 30378:1 30381:1 30399:1 30404:1 30410:1 30413:1 30423:1 30440:1 30442:1 30457:1 30460:1 30468:1 30478:1 30479:1 30480:1 30486:1 30498:1 30502:1 30508:1 30511:1 30523:1 30524:1 30527:1 30535:1 30542:1 30545:1 30547:1 30549:1 30550:1 30555:1 30556:1 30562:1 30578:1 30580:1 30589:1 30590:1 30595:1 30597:1 30614:1 30619:1 30620:1 30621:1 30623:1 30624:1 30627:1 30629:1 30630:1 30635:1 30636:1 30639:1 30640:1 30641:1 30647:1 30651:1 30655:1 30664:1 30670:1 30672:1 30675:1 30682:1 30690:1 30707:1 30709:1 30710:1 30720:1 30721:1 30726:1 30728:1 30742:1 30746:1 30750:1 30755:1 30758:1 30779:1 30781:1 30784:1 30787:1 30804:1 30810:1 30814:1 30827:1 30831:1 30838:1 30852:1 30861:1 30862:1 30864:1 30868:1 30873:1 30883:1 30884:1 30896:1 30897:1 30908:1 30911:1 30914:1 30921:1 30922:1 30924:1 30929:1 30931:1 30938:1 30943:1 30960:1 30965:1 30966:1 30968:1 30969:1 30974:1 30977:1 30986:1 30987:1 30991:1 30996:1 30998:1 31009:1 31010:1 31011:1 31013:1 31014:1 31016:1 31028:1 31038:1 31044:1 31047:1 31055:1 31061:1 31067:1 31079:1 31081:1 31085:1 31100:1 31101:1 31106:1 31108:1 31111:1 31112:1 31114:1 31116:1 31125:1 31126:1 31136:1 31145:1 31151:1 31155:1 31182:1 31186:1 31194:1 31196:1 31212:1 31223:1 31225:1 31241:1 31245:1 31246:1 31259:1 31267:1 31269:1 31278:1 31281:1 31285:1 31294:1 31303:1 31304:1 31315:1 31318:1 31334:1 31351:1 31353:1 31357:1 31359:1 31367:1 31371:1 31373:1 31377:1 31384:1 31389:1 31393:1 31395:1 31411:1 31435:1 31449:1 31453:1 31454:1 31455:1 31458:1 31466:1 31478:1 31485:1 31493:1 31495:1 31497:1 31501:1 31502:1 31506:1 31515:1 31519:1 31526:1 31530:1 31534:1 31538:1 31559:1 31566:1 31568:1 31581:1 31589:1 31609:1 31613:1 31642:1 31646:1 31647:1 31649:1 31666:1 31668:1 31677:1 31678:1 31680:1 31687:1 31689:1 31692:1 31702:1 31709:1 31712:1 31720:1 31732:1 31738:1 31742:1 31748:1 31749:1 31756:1 31762:1 31774:1 31810:1 31811:1 31814:1 31819:1 31827:1 31845:1 31855:1 31867:1 31881:1 31882:1 31888:1 31891:1 31899:1 31925:1 31930:1 31933:1 31936:1 31960:1 31968:1 31975:1 31984:1 31998:1 32000:1 32003:1 32009:1 32010:1 32014:1 32016:1 32020:1 32028:1 32042:1 32044:1 32058:1 32064:1 32067:1 32080:1 32087:1 32094:1 32098:1 32100:1 32103:1 32106:1 32109:1 32123:1 32129:1 32132:1 32144:1 32154:1 32162:1 32169:1 32173:1 32177:1 32183:1 32186:1 32197:1 32209:1 32214:1 32216:1 32217:1 32227:1 32243:1 32248:1 32259:1 32273:1 32279:1 32287:1 32299:1 32306:1 32312:1 32324:1 32325:1 32331:1 32339:1 32343:1 32347:1 32354:1 32357:1 32359:1 32367:1 32379:1 32380:1 32384:1 32385:1 32398:1 32402:1 32411:1 32413:1 32418:1 32422:1 32431:1 32434:1 32435:1 32437:1 32440:1 32448:1 32458:1 32475:1 32476:1 32477:1 32480:1 32500:1 32513:1 32516:1 32521:1 32525:1 32528:1 32542:1 32557:1 32573:1 32580:1 32585:1 32591:1 32599:1 32600:1 32622:1 32643:1 32648:1 32668:1 32671:1 32681:1 32689:1 32691:1 32698:1 32702:1 32708:1 32716:1 32727:1 32746:1 32747:1 32748:1 32759:1 32761:1 32768:1 32776:1 32786:1 32792:1 32799:1 32816:1 32820:1 32822:1 32834:1 32844:1 32848:1 32857:1 32860:1 32882:1 32892:1 32900:1 32904:1 32907:1 32914:1 32926:1 32934:1 32947:1 32956:1 32960:1 32969:1 32971:1 32976:1 32984:1 32993:1 33000:1 33004:1 33007:1 33010:1 33011:1 33032:1 33035:1 33036:1 33039:1 33052:1 33067:1 33069:1 33072:1 33073:1 33075:1 33080:1 33099:1 33101:1 33107:1 33108:1 33113:1 33115:1 33123:1 33126:1 33131:1 33136:1 33138:1 33142:1 33164:1 33168:1 33173:1 33178:1 33182:1 33188:1 33193:1 33199:1 33210:1 33213:1 33214:1 33218:1 33228:1 33229:1 33235:1 33247:1 33249:1 33282:1 33289:1 33301:1 33303:1 33314:1 33324:1 33326:1 33329:1 33333:1 33353:1 33356:1 33359:1 33371:1 33372:1 33383:1 33394:1 33396:1 33401:1 33414:1 33420:1 33435:1 33443:1 33453:1 33455:1 33471:1 33472:1 33483:1 33494:1 33500:1 33514:1 33516:1 33521:1 33544:1 33547:1 33548:1 33549:1 33550:1 33551:1 33561:1 33565:1 33569:1 33573:1 33594:1 33610:1 33620:1 33625:1 33629:1 33633:1 33638:1 33640:1 33645:1 33665:1 33673:1 33684:1 33688:1 33693:1 33698:1 33700:1 33701:1 33708:1 33716:1 33723:1 33731:1 33732:1 33739:1 33741:1 33745:1 33755:1 33758:1 33763:1 33764:1 33767:1 33773:1 33790:1 33792:1 33795:1 33796:1 33806:1 33824:1 33826:1 33828:1 33835:1 33848:1 33849:1 33852:1 33855:1 33863:1 33878:1 33882:1 33888:1 33890:1 33900:1 33902:1 33908:1 33909:1 33912:1 33931:1 33934:1 33939:1 33951:1 33957:1 33966:1 33967:1 33969:1 33970:1 33972:1 33973:1 33975:1 33977:1 33988:1 34008:1 34011:1 34013:1 34015:1 34023:1 34024:1 34030:1 34039:1 34040:1 34042:1 34043:1 34050:1 34054:1 34071:1 34072:1 34074:1 34077:1 34080:1 34081:1 34101:1 34102:1 34103:1 34104:1 34122:1 34131:1 34132:1 34133:1 34141:1 34149:1 34167:1 34180:1 34192:1 34208:1 34211:1 34212:1 34225:1 34228:1 34234:1 34235:1 34253:1 34259:1 34265:1 34267:1 34272:1 34278:1 34280:1 34281:1 34286:1 34296:1 34305:1 34310:1 34324:1 34340:1 34347:1 34353:1 34367:1 34372:1 34374:1 34376:1 34385:1 34392:1 34393:1 34404:1 34406:1 34411:1 34414:1 34416:1 34426:1 34431:1 34436:1 34439:1 34446:1 34460:1 34483:1 34488:1 34490:1 34492:1 34494:1 34505:1 34506:1 34510:1 34537:1 34540:1 34541:1 34550:1 34559:1 34563:1 34566:1 34571:1 34575:1 34589:1 34595:1 34597:1 34598:1 34599:1 34614:1 34616:1 34618:1 34622:1 34631:1 34632:1 34638:1 34645:1 34649:1 34652:1 34656:1 34661:1 34670:1 34672:1 34673:1 34685:1 34705:1 34710:1 34714:1 34715:1 34722:1 34724:1 34728:1 34730:1 34731:1 34732:1 34735:1 34744:1 34756:1 34762:1 34764:1 34769:1 34772:1 34774:1 34781:1 34785:1 34786:1 34787:1 34791:1 34802:1 34815:1 34818:1 34825:1 34846:1 34862:1 34874:1 34877:1 34880:1 34884:1 34886:1 34902:1 34905:1 34907:1 34912:1 34913:1 34915:1 34923:1 34932:1 34935:1 34939:1 34943:1 34950:1 34956:1 34962:1 34964:1 34967:1 34972:1 34975:1 34984:1 34988:1 34991:1 34994:1 34999:1 35021:1 35033:1 35036:1 35038:1 35041:1 35043:1 35053:1 35054:1 35055:1 35066:1 35069:1 35073:1 35077:1 35082:1 35099:1 35114:1 35117:1 35122:1 35127:1 35129:1 35140:1 35143:1 35144:1 35145:1 35149:1 35154:1 35159:1 35161:1 35163:1 35164:1 35170:1 35172:1 35174:1 35179:1 35182:1 35191:1 35194:1 35196:1 35200:1 35206:1 35208:1 35214:1 35228:1 35232:1 35253:1 35257:1 35272:1 35275:1 35276:1 35284:1 35295:1 35312:1 35316:1 35322:1 35328:1 35334:1 35338:1 35343:1 35353:1 35363:1 35376:1 35380:1 35386:1 35398:1 35408:1 35432:1 35445:1 35446:1 35452:1 35462:1 35475:1 35478:1 35497:1 35500:1 35507:1 35510:1 35517:1 35522:1 35539:1 35550:1 35572:1 35574:1 35578:1 35580:1 35584:1 35590:1 35591:1 35598:1 35601:1 35603:1 35611:1 35613:1 35616:1 35640:1 35643:1 35650:1 35651:1 35654:1 35657:1 35658:1 35667:1 35669:1 35670:1 35673:1 35678:1 35682:1 35686:1 35688:1 35690:1 35711:1 35717:1 35718:1 35724:1 35734:1 35743:1 35745:1 35747:1 35748:1 35760:1 35762:1 35769:1 35773:1 35781:1 35790:1 35794:1 35795:1 35802:1 35832:1 35833:1 35841:1 35855:1 35857:1 35860:1 35865:1 35871:1 35885:1 35890:1 35892:1 35893:1 35912:1 35914:1 35916:1 35919:1 35948:1 35952:1 35953:1 35957:1 35968:1 35973:1 35974:1 35989:1 35998:1 35999:1 36004:1 36013:1 36014:1 36015:1 36020:1 36035:1 36037:1 36043:1 36045:1 36058:1 36059:1 36060:1 36065:1 36066:1 36078:1 36079:1 36080:1 36081:1 36095:1 36105:1 36108:1 36119:1 36120:1 36121:1 36123:1 36127:1 36128:1 36130:1 36143:1 36147:1 36148:1 36155:1 36156:1 36159:1 36162:1 36171:1 36179:1 36186:1 36187:1 36190:1 36191:1 36193:1 36196:1 36197:1 36204:1 36208:1 36217:1 36228:1 36232:1 36233:1 36247:1 36262:1 36270:1 36281:1 36285:1 36286:1 36291:1 36294:1 36295:1 36296:1 36321:1 36327:1 36333:1 36350:1 36362:1 36365:1 36368:1 36374:1 36375:1 36381:1 36411:1 36413:1 36420:1 36422:1 36427:1 36433:1 36438:1 36439:1 36448:1 36453:1 36458:1 36474:1 36502:1 36504:1 36509:1 36513:1 36516:1 36531:1 36533:1 36538:1 36542:1 36549:1 36565:1 36574:1 36578:1 36587:1 36591:1 36592:1 36594:1 36612:1 36619:1 36623:1 36625:1 36650:1 36658:1 36659:1 36660:1 36661:1 36666:1 36668:1 36674:1 36675:1 36676:1 36681:1 36683:1 36689:1 36694:1 36712:1 36732:1 36733:1 36734:1 36738:1 36739:1 36749:1 36756:1 36763:1 36768:1 36789:1 36799:1 36814:1 36817:1 36821:1 36827:1 36835:1 36837:1 36839:1 36845:1 36846:1 36863:1 36872:1 36878:1 36886:1 36893:1 36895:1 36901:1 36916:1 36921:1 36924:1 36926:1 36927:1 36934:1 36936:1 36951:1 36956:1 36962:1 36964:1 36970:1 36984:1 36985:1 36990:1 36992:1 36996:1 37001:1 37010:1 37011:1 37017:1 37023:1 37033:1 37034:1 37046:1 37048:1 37055:1 37065:1 37070:1 37071:1 37076:1 37077:1 37079:1 37083:1 37086:1 37093:1 37099:1 37100:1 37109:1 37120:1 37122:1 37125:1 37129:1 37132:1 37135:1 37142:1 37143:1 37155:1 37156:1 37161:1 37169:1 37174:1 37186:1 37197:1 37211:1 37214:1 37242:1 37243:1 37246:1 37254:1 37274:1 37275:1 37276:1 37279:1 37293:1 37297:1 37299:1 37301:1 37311:1 37316:1 37319:1 37322:1 37326:1 37334:1 37338:1 37350:1 37367:1 37380:1 37381:1 37384:1 37385:1 37389:1 37393:1 37394:1 37399:1 37401:1 37403:1 37406:1 37407:1 37417:1 37424:1 37430:1 37440:1 37442:1 37444:1 37459:1 37460:1 37465:1 37466:1 37473:1 37475:1 37504:1 37519:1 37528:1 37532:1 37547:1 37553:1 37554:1 37569:1 37570:1 37575:1 37579:1 37584:1 37585:1 37590:1 37593:1 37634:1 37641:1 37652:1 37658:1 37662:1 37664:1 37665:1 37669:1 37671:1 37672:1 37679:1 37684:1 37685:1 37706:1 37708:1 37719:1 37720:1 37724:1 37729:1 37733:1 37755:1 37758:1 37777:1 37784:1 37788:1 37796:1 37799:1 37806:1 37838:1 37840:1 37845:1 37854:1 37856:1 37859:1 37866:1 37881:1 37890:1 37895:1 37906:1 37907:1 37921:1 37927:1 37931:1 37937:1 37943:1 37949:1 37952:1 37963:1 37966:1 37974:1 37977:1 37995:1 38006:1 38007:1 38012:1 38014:1 38022:1 38024:1 38032:1 38035:1 38037:1 38050:1 38051:1 38053:1 38062:1 38064:1 38075:1 38092:1 38093:1 38100:1 38101:1 38106:1 38118:1 38123:1 38133:1 38146:1 38148:1 38149:1 38163:1 38166:1 38171:1 38174:1 38181:1 38197:1 38202:1 38213:1 38214:1 38219:1 38226:1 38242:1 38245:1 38255:1 38257:1 38264:1 38269:1 38274:1 38290:1 38294:1 38316:1 38319:1 38342:1 38343:1 38355:1 38361:1 38369:1 38375:1 38376:1 38383:1 38386:1 38390:1 38399:1 38402:1 38412:1 38422:1 38429:1 38434:1 38439:1 38452:1 38462:1 38470:1 38480:1 38483:1 38490:1 38493:1 38495:1 38499:1 38500:1 38510:1 38517:1 38543:1 38548:1 38563:1 38575:1 38577:1 38587:1 38599:1 38600:1 38603:1 38609:1 38616:1 38618:1 38656:1 38659:1 38668:1 38674:1 38676:1 38681:1 38683:1 38688:1 38697:1 38699:1 38700:1 38705:1 38710:1 38717:1 38722:1 38723:1 38725:1 38731:1 38732:1 38745:1 38746:1 38760:1 38777:1 38780:1 38782:1 38787:1 38790:1 38801:1 38808:1 38809:1 38817:1 38819:1 38821:1 38829:1 38837:1 38841:1 38851:1 38859:1 38864:1 38872:1 38878:1 38887:1 38891:1 38894:1 38898:1 38899:1 38902:1 38905:1 38906:1 38909:1 38917:1 38934:1 38943:1 38947:1 38956:1 38959:1 38963:1 38983:1 38986:1 38993:1 38994:1 39001:1 39003:1 39006:1 39012:1 39020:1 39031:1 39036:1 39040:1 39044:1 39046:1 39060:1 39068:1 39070:1 39076:1 39078:1 39081:1 39089:1 39091:1 39095:1 39100:1 39122:1 39135:1 39142:1 39145:1 39149:1 39153:1 39158:1 39162:1 39163:1 39165:1 39168:1 39171:1 39174:1 39179:1 39181:1 39183:1 39187:1 39190:1 39199:1 39204:1 39205:1 39212:1 39227:1 39254:1 39258:1 39260:1 39262:1 39266:1 39269:1 39271:1 39272:1 39276:1 39283:1 39306:1 39307:1 39308:1 39324:1 39330:1 39340:1 39354:1 39355:1 39361:1 39366:1 39371:1 39374:1 39382:1 39389:1 39400:1 39405:1 39408:1 39409:1 39414:1 39425:1 39430:1 39436:1 39439:1 39441:1 39443:1 39444:1 39445:1 39452:1 39455:1 39458:1 39461:1 39464:1 39465:1 39472:1 39476:1 39477:1 39497:1 39501:1 39506:1 39507:1 39508:1 39510:1 39515:1 39518:1 39522:1 39530:1 39531:1 39538:1 39544:1 39551:1 39560:1 39564:1 39569:1 39576:1 39577:1 39595:1 39596:1 39597:1 39607:1 39613:1 39631:1 39633:1 39636:1 39638:1 39647:1 39649:1 39658:1 39660:1 39663:1 39665:1 39675:1 39682:1 39683:1 39688:1 39716:1 39723:1 39725:1 39730:1 39737:1 39740:1 39743:1 39748:1 39760:1 39768:1 39770:1 39771:1 39778:1 39782:1 39783:1 39800:1 39805:1 39808:1 39818:1 39819:1 39835:1 39842:1 39847:1 39852:1 39855:1 39859:1 39881:1 39887:1 39908:1 39909:1 39910:1 39913:1 39917:1 39922:1 39923:1 39926:1 39940:1 39948:1 39956:1 39957:1 39959:1 39966:1 39973:1 39974:1 39981:1 39986:1 39990:1 39995:1 39998:1 40002:1 40008:1 40020:1 40021:1 40023:1 40027:1 40034:1 40041:1 40055:1 40062:1 40071:1 40072:1 40077:1 40078:1 40081:1 40088:1 40101:1 40105:1 40108:1 40109:1 40111:1 40113:1 40118:1 40120:1 40138:1 40155:1 40157:1 40163:1 40166:1 40169:1 40171:1 40182:1 40183:1 40188:1 40197:1 40198:1 40216:1 40221:1 40229:1 40230:1 40234:1 40239:1 40240:1 40255:1 40256:1 40265:1 40274:1 40275:1 40281:1 40283:1 40286:1 40288:1 40297:1 40298:1 40305:1 40325:1 40327:1 40329:1 40331:1 40344:1 40346:1 40370:1 40395:1 40402:1 40410:1 40411:1 40423:1 40426:1 40433:1 40439:1 40443:1 40446:1 40453:1 40459:1 40467:1 40468:1 40475:1 40479:1 40481:1 40485:1 40493:1 40495:1 40497:1 40514:1 40522:1 40525:1 40527:1 40532:1 40535:1 40538:1 40541:1 40546:1 40554:1 40571:1 40577:1 40579:1 40582:1 40600:1 40602:1 40605:1 40607:1 40611:1 40631:1 40640:1 40643:1 40649:1 40650:1 40653:1 40657:1 40659:1 40669:1 40687:1 40688:1 40691:1 40695:1 40700:1 40712:1 40718:1 40720:1 40724:1 40725:1 40733:1 40735:1 40738:1 40743:1 40750:1 40756:1 40759:1 40766:1 40778:1 40787:1 40791:1 40797:1 40803:1 40810:1 40811:1 40814:1 40819:1 40825:1 40826:1 40828:1 40829:1 40833:1 40855:1 40863:1 40866:1 40869:1 40880:1 40905:1 40908:1 40914:1 40917:1 40919:1 40920:1 40931:1 40942:1 40950:1 40953:1 40958:1 40961:1 40972:1 40981:1 40990:1 41000:1 41001:1 41018:1 41024:1 41026:1 41030:1 41036:1 41044:1 41051:1 41056:1 41059:1 41060:1 41075:1 41080:1 41086:1 41089:1 41106:1 41121:1 41124:1 41144:1 41149:1 41153:1 41163:1 41166:1 41167:1 41175:1 41186:1 41197:1 41205:1 41214:1 41216:1 41218:1 41220:1 41243:1 41245:1 41248:1 41249:1 41273:1 41275:1 41281:1 41284:1 41285:1 41288:1 41292:1 41307:1 41322:1 41323:1 41326:1 41329:1 41337:1 41344:1 41348:1 41350:1 41352:1 41353:1 41355:1 41356:1 41358:1 41361:1 41366:1 41369:1 41377:1 41391:1 41392:1 41400:1 41406:1 41408:1 41423:1 41425:1 41429:1 41434:1 41439:1 41446:1 41454:1 41457:1 41459:1 41467:1 41481:1 41485:1 41494:1 41504:1 41509:1 41510:1 41520:1 41525:1 41529:1 41553:1 41554:1 41560:1 41565:1 41566:1 41574:1 41584:1 41590:1 41600:1 41617:1 41621:1 41632:1 41636:1 41653:1 41655:1 41660:1 41666:1 41672:1 41673:1 41678:1 41682:1 41684:1 41689:1 41701:1 41710:1 41713:1 41714:1 41728:1 41732:1 41740:1 41745:1 41754:1 41760:1 41762:1 41764:1 41776:1 41777:1 41780:1 41788:1 41789:1 41793:1 41797:1 41800:1 41808:1 41812:1 41813:1 41822:1 41826:1 41827:1 41828:1 41829:1 41835:1 41838:1 41839:1 41841:1 41842:1 41860:1 41866:1 41868:1 41872:1 41879:1 41882:1 41892:1 41895:1 41896:1 41897:1 41901:1 41903:1 41908:1 41909:1 41910:1 41922:1 41929:1 41931:1 41934:1 41935:1 41943:1 41950:1 41951:1 41955:1 41970:1 41986:1 41995:1 41996:1 42006:1 42011:1 42024:1 42027:1 42028:1 42029:1 42037:1 42042:1 42045:1 42055:1 42057:1 42059:1 42069:1 42075:1 42079:1 42096:1 42100:1 42107:1 42110:1 42132:1 42138:1 42140:1 42143:1 42144:1 42146:1 42162:1 42170:1 42178:1 42184:1 42186:1 42187:1 42190:1 42201:1 42219:1 42225:1 42231:1 42244:1 42250:1 42253:1 42254:1 42265:1 42266:1 42268:1 42272:1 42274:1 42275:1 42286:1 42292:1 42297:1 42298:1 42300:1 42309:1 42311:1 42313:1 42321:1 42322:1 42338:1 42340:1 42346:1 42360:1 42366:1 42374:1 42376:1 42378:1 42385:1 42394:1 42398:1 42401:1 42405:1 42412:1 42432:1 42444:1 42453:1 42458:1 42460:1 42467:1 42475:1 42476:1 42478:1 42479:1 42487:1 42493:1 42500:1 42508:1 42515:1 42516:1 42521:1 42522:1 42528:1 42539:1 42544:1 42547:1 42551:1 42556:1 42560:1 42561:1 42562:1 42567:1 42570:1 42587:1 42590:1 42614:1 42616:1 42623:1 42626:1 42628:1 42629:1 42630:1 42635:1 42640:1 42646:1 42649:1 42651:1 42655:1 42660:1 42661:1 42667:1 42672:1 42673:1 42675:1 42677:1 42694:1 42699:1 42706:1 42713:1 42717:1 42718:1 42719:1 42722:1 42733:1 42742:1 42743:1 42757:1 42759:1 42763:1 42766:1 42773:1 42782:1 42790:1 42792:1 42794:1 42797:1 42805:1 42815:1 42825:1 42843:1 42851:1 42854:1 42866:1 42867:1 42872:1 42875:1 42878:1 42880:1 42882:1 42887:1 42902:1 42906:1 42928:1 42932:1 42935:1 42937:1 42939:1 42949:1 42950:1 42954:1 42957:1 42963:1 42967:1 42971:1 42996:1 42998:1 42999:1 43000:1 43001:1 43004:1 43019:1 43020:1 43023:1 43036:1 43037:1 43042:1 43048:1 43059:1 43061:1 43063:1 43085:1 43097:1 43111:1 43115:1 43116:1 43138:1 43147:1 43151:1 43154:1 43155:1 43167:1 43178:1 43180:1 43197:1 43205:1 43210:1 43228:1 43229:1 43234:1 43243:1 43261:1 43281:1 43292:1 43293:1 43294:1 43312:1 43314:1 43315:1 43324:1 43341:1 43347:1 43353:1 43354:1 43355:1 43380:1 43383:1 43395:1 43400:1 43414:1 43424:1 43430:1 43450:1 43456:1 43464:1 43474:1 43482:1 43492:1 43498:1 43499:1 43507:1 43510:1 43514:1 43515:1 43517:1 43525:1 43526:1 43530:1 43536:1 43540:1 43554:1 43585:1 43590:1 43596:1 43620:1 43635:1 43638:1 43646:1 43653:1 43678:1 43681:1 43704:1 43711:1 43724:1 43729:1 43732:1 43745:1 43751:1 43752:1 43753:1 43755:1 43761:1 43763:1 43769:1 43790:1 43791:1 43799:1 43805:1 43813:1 43818:1 43823:1 43842:1 43845:1 43850:1 43855:1 43856:1 43859:1 43862:1 43864:1 43874:1 43877:1 43882:1 43884:1 43885:1 43891:1 43895:1 43901:1 43914:1 43919:1 43929:1 43930:1 43937:1 43941:1 43942:1 43946:1 43952:1 43961:1 43962:1 43966:1 43971:1 43973:1 43977:1 44002:1 44010:1 44011:1 44012:1 44015:1 44025:1 44031:1 44033:1 44036:1 44044:1 44049:1 44068:1 44071:1 44083:1 44084:1 44091:1 44108:1 44113:1 44115:1 44117:1 44119:1 44120:1 44126:1 44130:1 44134:1 44136:1 44137:1 44143:1 44150:1 44152:1 44153:1 44156:1 44163:1 44170:1 44179:1 44184:1 44198:1 44199:1 44204:1 44210:1 44214:1 44216:1 44226:1 44231:1 44237:1 44247:1 44259:1 44260:1 44265:1 44266:1 44272:1 44292:1 44295:1 44318:1 44323:1 44328:1 44330:1 44332:1 44341:1 44353:1 44366:1 44369:1 44370:1 44373:1 44388:1 44396:1 44397:1 44408:1 44410:1 44421:1 44430:1 44451:1 44454:1 44456:1 44471:1 44490:1 44493:1 44500:1 44502:1 44510:1 44511:1 44520:1 44526:1 44535:1 44538:1 44547:1 44553:1 44554:1 44556:1 44560:1 44577:1 44589:1 44594:1 44598:1 44601:1 44602:1 44606:1 44646:1 44647:1 44651:1 44653:1 44654:1 44663:1 44666:1 44678:1 44679:1 44684:1 44697:1 44700:1 44701:1 44704:1 44712:1 44713:1 44714:1 44720:1 44722:1 44726:1 44727:1 44728:1 44730:1 44737:1 44743:1 44745:1 44754:1 44763:1 44766:1 44768:1 44769:1 44774:1 44777:1 44778:1 44787:1 44794:1 44807:1 44825:1 44828:1 44829:1 44837:1 44862:1 44886:1 44890:1 44892:1 44894:1 44902:1 44917:1 44920:1 44921:1 44924:1 44941:1 44944:1 44948:1 44949:1 44965:1 44985:1 44992:1 44996:1 45020:1 45026:1 45027:1 45031:1 45046:1 45051:1 45054:1 45056:1 45061:1 45067:1 45072:1 45075:1 45079:1 45082:1 45085:1 45086:1 45095:1 45098:1 45103:1 45105:1 45109:1 45110:1 45121:1 45127:1 45134:1 45146:1 45149:1 45153:1 45163:1 45166:1 45169:1 45171:1 45176:1 45178:1 45184:1 45189:1 45199:1 45207:1 45209:1 45210:1 45224:1 45234:1 45242:1 45244:1 45257:1 45261:1 45267:1 45268:1 45270:1 45280:1 45281:1 45288:1 45302:1 45306:1 45312:1 45324:1 45331:1 45332:1 45337:1 45344:1 45348:1 45350:1 45360:1 45372:1 45382:1 45387:1 45391:1 45395:1 45405:1 45411:1 45417:1 45427:1 45435:1 45443:1 45448:1 45453:1 45459:1 45463:1 45471:1 45476:1 45479:1 45486:1 45489:1 45490:1 45497:1 45509:1 45510:1 45523:1 45530:1 45533:1 45534:1 45546:1 45549:1 45554:1 45564:1 45569:1 45578:1 45602:1 45610:1 45619:1 45635:1 45636:1 45638:1 45639:1 45640:1 45653:1 45659:1 45669:1 45684:1 45701:1 45722:1 45724:1 45726:1 45743:1 45757:1 45758:1 45777:1 45778:1 45781:1 45785:1 45788:1 45801:1 45818:1 45819:1 45821:1 45853:1 45858:1 45867:1 45874:1 45879:1 45900:1 45906:1 45907:1 45924:1 45929:1 45935:1 45940:1 45941:1 45951:1 45954:1 45955:1 45964:1 45968:1 45972:1 45980:1 45985:1 45988:1 45991:1 45995:1 45998:1 46002:1 46006:1 46008:1 46016:1 46021:1 46034:1 46040:1 46042:1 46047:1 46049:1 46050:1 46055:1 46058:1 46073:1 46081:1 46095:1 46099:1 46100:1 46111:1 46118:1 46141:1 46144:1 46151:1 46153:1 46154:1 46157:1 46163:1 46169:1 46179:1 46199:1 46200:1 46207:1 46209:1 46210:1 46214:1 46216:1 46227:1 46228:1 46241:1 46244:1 46251:1 46252:1 46253:1 46256:1 46264:1 46267:1 46283:1 46302:1 46313:1 46321:1 46323:1 46325:1 46332:1 46343:1 46348:1 46354:1 46355:1 46368:1 46369:1 46376:1 46380:1 46390:1 46391:1 46397:1 46398:1 46406:1 46408:1 46411:1 46414:1 46416:1 46418:1 46422:1 46423:1 46425:1 46427:1 46428:1 46429:1 46433:1 46434:1 46435:1 46440:1 46442:1 46456:1 46460:1 46481:1 46484:1 46494:1 46521:1 46536:1 46543:1 46553:1 46564:1 46565:1 46567:1 46579:1 46596:1 46600:1 46617:1 46630:1 46633:1 46635:1 46652:1 46653:1 46675:1 46681:1 46682:1 46683:1 46684:1 46685:1 46691:1 46693:1 46695:1 46703:1 46708:1 46709:1 46723:1 46724:1 46725:1 46728:1 46731:1 46742:1 46748:1 46763:1 46772:1 46779:1 46785:1 46792:1 46795:1 46796:1 46797:1 46804:1 46805:1 46807:1 46813:1 46816:1 46821:1 46827:1 46830:1 46841:1 46842:1 46847:1 46866:1 46878:1 46879:1 46881:1 46893:1 46900:1 46903:1 46912:1 46914:1 46922:1 46929:1 46941:1 46947:1 46954:1 46956:1 46958:1 46964:1 46974:1 46986:1 46993:1 47008:1 47018:1 47020:1 47021:1 47023:1 47032:1 47035:1 47053:1 47054:1 47061:1 47062:1 47063:1 47067:1 47080:1 47089:1 47103:1 47109:1 47113:1 47116:1 47119:1 47122:1 47142:1 47144:1 47145:1 47148:1 47151:1 47154:1 47156:1 47160:1 47163:1 47170:1 47177:1 47178:1 47181:1 47184:1 47188:1 47191:1 47193:1 47195:1 47212:1 47231:1 47235:1 47238:1 47248:1 47250:1 47251:1 47253:1 47256:1 47266:1 47275:1 47278:1 47282:1 47286:1 47288:1 47292:1 47293:1 47296:1 47298:1 47301:1 47334:1 47336:1 47340:1 47343:1 47345:1 47360:1 47363:1 47368:1 47383:1 47386:1 47391:1 47392:1 47393:1 47412:1 47429:1 47434:1 47445:1 47454:1 47458:1 47461:1 47470:1 47473:1 47484:1 47490:1 47494:1 47503:1 47504:1 47506:1 47509:1 47511:1 47555:1 47562:1 47575:1 47585:1 47591:1 47597:1 47602:1 47606:1 47607:1 47619:1 47621:1 47625:1 47634:1 47646:1 47650:1 47657:1 47663:1 47673:1 47678:1 47685:1 47686:1 47690:1 47692:1 47694:1 47704:1 47708:1 47711:1 47713:1 47727:1 47728:1 47745:1 47748:1 47767:1 47772:1 47778:1 47780:1 47782:1 47786:1 47795:1 47797:1 47804:1 47805:1 47806:1 47811:1 47814:1 47830:1 47835:1 47839:1 47860:1 47861:1 47866:1 47873:1 47875:1 47878:1 47879:1 47881:1 47883:1 47899:1 47904:1 47905:1 47906:1 47907:1 47915:1 47920:1 47922:1 47937:1 47944:1 47953:1 47956:1 47960:1 47971:1 47972:1 47976:1 47978:1 47982:1 47984:1 47993:1 48000:1 48007:1 48008:1 48039:1 48041:1 48047:1 48059:1 48073:1 48087:1 48100:1 48102:1 48103:1 48108:1 48109:1 48110:1 48117:1 48120:1 48121:1 48137:1 48145:1 48146:1 48153:1 48162:1 48167:1 48169:1 48171:1 48177:1 48178:1 48184:1 48188:1 48192:1 48193:1 48195:1 48197:1 48198:1 48205:1 48220:1 48223:1 48228:1 48241:1 48243:1 48247:1 48249:1 48265:1 48272:1 48287:1 48292:1 48303:1 48306:1 48325:1 48336:1 48342:1 48347:1 48351:1 48373:1 48374:1 48388:1 48389:1 48392:1 48407:1 48408:1 48414:1 48415:1 48417:1 48423:1 48438:1 48444:1 48445:1 48451:1 48453:1 48454:1 48456:1 48457:1 48482:1 48489:1 48490:1 48491:1 48497:1 48499:1 48505:1 48509:1 48524:1 48538:1 48540:1 48550:1 48551:1 48559:1 48561:1 48574:1 48579:1 48580:1 48591:1 48596:1 48597:1 48605:1 48628:1 48634:1 48635:1 48643:1 48644:1 48648:1 48649:1 48653:1 48655:1 48659:1 48669:1 48672:1 48678:1 48681:1 48682:1 48685:1 48690:1 48706:1 48716:1 48737:1 48740:1 48742:1 48744:1 48753:1 48756:1 48770:1 48777:1 48782:1 48814:1 48818:1 48824:1 48838:1 48844:1 48845:1 48849:1 48850:1 48853:1 48863:1 48869:1 48877:1 48881:1 48882:1 48884:1 48892:1 48899:1 48908:1 48909:1 48911:1 48924:1 48935:1 48940:1 48958:1 48959:1 48964:1 48966:1 48969:1 48971:1 48981:1 48988:1 48990:1 48994:1 48997:1 49007:1 49029:1 49034:1 49035:1 49040:1 49042:1 49046:1 49047:1 49067:1 49074:1 49075:1 49078:1 49081:1 49085:1 49089:1 49094:1 49098:1 49108:1 49115:1 49128:1 49132:1 49150:1 49160:1 49174:1 49175:1 49179:1 49180:1 49190:1 49219:1 49221:1 49226:1 49231:1 49240:1 49245:1 49254:1 49267:1 49270:1 49271:1 49284:1 49286:1 49288:1 49293:1 49299:1 49301:1 49305:1 49316:1 49321:1 49323:1 49324:1 49326:1 49339:1 49344:1 49347:1 49349:1 49351:1 49354:1 49367:1 49370:1 49380:1 49381:1 49385:1 49387:1 49391:1 49395:1 49396:1 49402:1 49407:1 49410:1 49411:1 49415:1 49423:1 49424:1 49445:1 49455:1 49467:1 49470:1 49473:1 49474:1 49478:1 49491:1 49493:1 49494:1 49501:1 49504:1 49511:1 49513:1 49515:1 49516:1 49521:1 49540:1 49556:1 49558:1 49562:1 49569:1 49573:1 49580:1 49596:1 49603:1 49605:1 49616:1 49630:1 49640:1 49654:1 49671:1 49705:1 49710:1 49712:1 49716:1 49726:1 49728:1 49747:1 49756:1 49762:1 49772:1 49777:1 49783:1 49784:1 49785:1 49787:1 49788:1 49797:1 49817:1 49823:1 49824:1 49828:1 49830:1 49837:1 49858:1 49861:1 49866:1 49867:1 49868:1 49886:1 49887:1 49902:1 49918:1 49920:1 49923:1 49924:1 49930:1 49936:1 49947:1 49958:1 49960:1 49974:1 49978:1 49982:1 49983:1 49984:1 49988:1 50004:1 50018:1 50020:1 50021:1 50022:1 50025:1 50027:1 50030:1 50033:1 50049:1 50051:1 50054:1 50061:1 50064:1 50069:1 50070:1 50072:1 50076:1 50085:1 50098:1 50104:1 50108:1 50120:1 50121:1 50136:1 50144:1 50147:1 50153:1 50163:1 50167:1 50168:1 50180:1 50183:1 50187:1 50189:1 50200:1 50204:1 50209:1 50211:1 50215:1 50221:1 50232:1 50254:1 50268:1 50282:1 50285:1 50301:1 50302:1 50305:1 50307:1 50309:1 50315:1 50321:1 50339:1 50364:1 50373:1 50375:1 50378:1 50386:1 50388:1 50393:1 50398:1 50417:1 50429:1 50433:1 50434:1 50438:1 50439:1 50445:1 50451:1 50461:1 50463:1 50472:1 50476:1 50479:1 50491:1 50494:1 50497:1 50501:1 50519:1 50520:1 50533:1 50540:1 50541:1 50547:1 50550:1 50554:1 50562:1 50565:1 50568:1 50571:1 50584:1 50585:1 50591:1 50596:1 50600:1 50602:1 50604:1 50608:1 50620:1 50626:1 50629:1 50644:1 50645:1 50649:1 50653:1 50654:1 50659:1 50661:1 50666:1 50675:1 50679:1 50681:1 50683:1 50701:1 50703:1 50705:1 50718:1 50720:1 50722:1 50732:1 50740:1 50760:1 50763:1 50767:1 50773:1 50774:1 50777:1 50778:1 50789:1 50790:1 50791:1 50795:1 50796:1 50799:1 50827:1 50835:1 50841:1 50842:1 50864:1 50867:1 50874:1 50875:1 50878:1 50879:1 50884:1 50887:1 50892:1 50900:1 50905:1 50922:1 50924:1 50940:1 50946:1 50954:1 50972:1 50973:1 50984:1 50985:1 50987:1 50990:1 50991:1 50992:1 51002:1 51006:1 51012:1 51016:1 51029:1 51030:1 51033:1 51048:1 51049:1 51060:1 51074:1 51082:1 51097:1 51100:1 51108:1 51110:1 51112:1 51117:1 51120:1 51127:1 51143:1 51161:1 51165:1 51174:1 51182:1 51184:1 51185:1 51197:1 51203:1 51204:1 51212:1 51213:1 51217:1 51221:1 51229:1 51233:1 51242:1 51243:1 51244:1 51256:1 51257:1 51280:1 51285:1 51287:1 51295:1 51296:1 51306:1 51319:1 51321:1 51324:1 51337:1 51340:1 51347:1 51353:1 51361:1 51372:1 51381:1 51385:1 51391:1 51396:1 51400:1 51401:1 51407:1 51426:1 51429:1 51430:1 51444:1 51448:1 51454:1 51459:1 51460:1 51461:1 51462:1 51465:1 51466:1 51467:1 51469:1 51485:1 51488:1 51509:1 51521:1 51531:1 51542:1 51562:1 51564:1 51573:1 51578:1 51582:1 51584:1 51601:1 51629:1 51631:1 51641:1 51647:1 51649:1 51653:1 51670:1 51685:1 51688:1 51694:1 51701:1 51704:1 51712:1 51720:1 51725:1 51728:1 51732:1 51736:1 51751:1 51762:1 51764:1 51773:1 51774:1 51777:1 51778:1 51792:1 51795:1 51800:1 51803:1 51805:1 51808:1 51810:1 51822:1 51844:1 51847:1 51849:1 51853:1 51866:1 51867:1 51889:1 51893:1 51906:1 51913:1 51917:1 51918:1 51920:1 51921:1 51924:1 51930:1 51932:1 51933:1 51936:1 51937:1 51938:1 51947:1 51949:1 51969:1 51971:1 51973:1 51981:1 51987:1 52004:1 52007:1 52014:1 52019:1 52022:1 52034:1 52047:1 52050:1 52060:1 52066:1 52080:1 52083:1 52093:1 52095:1 52110:1 52116:1 52118:1 52127:1 52128:1 52136:1 52145:1 52148:1 52151:1 52152:1 52153:1 52161:1 52164:1 52170:1 52176:1 52179:1 52186:1 52191:1 52233:1 52244:1 52252:1 52253:1 52255:1 52264:1 52273:1 52275:1 52286:1 52295:1 52297:1 52309:1 52328:1 52331:1 52347:1 52350:1 52352:1 52355:1 52364:1 52373:1 52382:1 52389:1 52397:1 52403:1 52410:1 52417:1 52420:1 52421:1 52436:1 52441:1 52446:1 52452:1 52471:1 52475:1 52485:1 52489:1 52504:1 52509:1 52511:1 52522:1 52526:1 52532:1 52541:1 52549:1 52551:1 52568:1 52571:1 52575:1 52582:1 52588:1 52589:1 52599:1 52600:1 52605:1 52606:1 52614:1 52618:1 52627:1 52633:1 52643:1 52645:1 52651:1 52672:1 52679:1 52680:1 52681:1 52695:1 52700:1 52712:1 52718:1 52729:1 52735:1 52740:1 52744:1 52746:1 52764:1 52767:1 52771:1 52779:1 52784:1 52788:1 52796:1 52808:1 52825:1 52842:1 52843:1 52852:1 52856:1 52860:1 52862:1 52874:1 52882:1 52884:1 52898:1 52910:1 52917:1 52922:1 52923:1 52950:1 52969:1 52977:1 52979:1 52993:1 52994:1 53029:1 53032:1 53035:1 53053:1 53058:1 53067:1 53080:1 53084:1 53093:1 53101:1 53104:1 53115:1 53128:1 53135:1 53138:1 53139:1 53141:1 53144:1 53148:1 53158:1 53166:1 53169:1 53171:1 53175:1 53196:1 53197:1 53202:1 53206:1 53217:1 53218:1 53221:1 53230:1 53236:1 53238:1 53242:1 53243:1 53248:1 53254:1 53255:1 53257:1 53259:1 53287:1 53291:1 53295:1 53297:1 53301:1 53305:1 53314:1 53320:1 53327:1 53328:1 53334:1 53342:1 53350:1 53351:1 53352:1 53355:1 53358:1 53373:1 53374:1 53376:1 53378:1 53381:1 53382:1 53384:1 53392:1 53398:1 53404:1 53406:1 53407:1 53426:1 53435:1 53457:1 53468:1 53481:1 53488:1 53502:1 53506:1 53508:1 53513:1 53515:1 53527:1 53528:1 53533:1 53543:1 53544:1 53552:1 53556:1 53560:1 53571:1 53581:1 53582:1 53590:1 53597:1 53602:1 53615:1 53619:1 53623:1 53631:1 53641:1 53645:1 53648:1 53654:1 53660:1 53666:1 53667:1 53668:1 53676:1 53679:1 53684:1 53686:1 53688:1 53693:1 53695:1 53698:1 53726:1 53736:1 53742:1 53746:1 53751:1 53753:1 53757:1 53759:1 53760:1 53772:1 53773:1 53792:1 53801:1 53809:1 53819:1 53822:1 53823:1 53835:1 53841:1 53843:1 53846:1 53857:1 53859:1 53871:1 53872:1 53873:1 53877:1 53878:1 53888:1 53897:1 53906:1 53914:1 53917:1 53928:1 53933:1 53945:1 53948:1 53951:1 53953:1 53959:1 53966:1 53976:1 53980:1 
1.078714109510002e-05 9:1 13:1 22:1 38:1 41:1 43:1 47:1 48:1 51:1 56:1 57:1 71:1 75:1 84:1 90:1 98:1 103:1 110:1 114:1 121:1 124:1 138:1 139:1 141:1 146:1 147:1 153:1 160:1 164:1 168:1 184:1 194:1 203:1 208:1 225:1 226:1 234:1 241:1 269:1 273:1 291:1 297:1 307:1 313:1 315:1 322:1 331:1 343:1 353:1 356:1 360:1 365:1 383:1 392:1 405:1 417:1 426:1 434:1 440:1 447:1 450:1 463:1 471:1 505:1 508:1 510:1 515:1 521:1 522:1 531:1 546:1 557:1 559:1 567:1 594:1 600:1 602:1 605:1 614:1 619:1 626:1 629:1 631:1 638:1 640:1 657:1 658:1 671:1 673:1 674:1 677:1 678:1 682:1 685:1 687:1 695:1 700:1 703:1 709:1 725:1 728:1 743:1 749:1 755:1 770:1 775:1 789:1 792:1 793:1 794:1 796:1 797:1 800:1 804:1 806:1 810:1 815:1 816:1 834:1 838:1 866:1 873:1 875:1 878:1 879:1 881:1 890:1 893:1 895:1 908:1 911:1 912:1 913:1 926:1 929:1 938:1 948:1 953:1 958:1 959:1 969:1 973:1 975:1 989:1 990:1 994:1 999:1 1003:1 1008:1 1014:1 1029:1 1032:1 1033:1 1044:1 1045:1 1057:1 1063:1 1064:1 1077:1 1083:1 1094:1 1096:1 1100:1 1102:1 1105:1 1112:1 1122:1 1129:1 1142:1 1150:1 1156:1 1167:1 1169:1 1173:1 1174:1 1186:1 1197:1 1198:1 1220:1 1224:1 1225:1 1236:1 1250:1 1256:1 1262:1 1267:1 1270:1 1280:1 1282:1 1283:1 1286:1 1287:1 1290:1 1296:1 1297:1 1304:1 1306:1 1325:1 1332:1 1346:1 1347:1 1353:1 1357:1 1360:1 1366:1 1371:1 1377:1 1389:1 1394:1 1413:1 1441:1 1444:1 1448:1 1454:1 1465:1 1474:1 1477:1 1481:1 1498:1 1514:1 1515:1 1521:1 1533:1 1539:1 1547:1 1548:1 1552:1 1563:1 1565:1 1600:1 1607:1 1609:1 1610:1 1620:1 1621:1 1632:1 1638:1 1642:1 1648:1 1669:1 1674:1 1677:1 1678:1 1679:1 1684:1 1687:1 1691:1 1698:1 1699:1 1701:1 1709:1 1710:1 1714:1 1716:1 1732:1 1733:1 1736:1 1745:1 1758:1 1789:1 1792:1 1801:1 1808:1 1814:1 1823:1 1829:1 1831:1 1840:1 1850:1 1857:1 1861:1 1864:1 1868:1 1870:1 1871:1 1883:1 1889:1 1892:1 1899:1 1901:1 1920:1 1936:1 1938:1 1951:1 1953:1 1957:1 1963:1 1969:1 1978:1 1994:1 2001:1 2006:1 2009:1 2019:1 2032:1 2039:1 2042:1 2053:1 2055:1 2086:1 2100:1 2105:1 2108:1 2114:1 2130:1 2133:1 2137:1 2167:1 2173:1 2175:1 2176:1 2178:1 2181:1 2182:1 2184:1 2197:1 2198:1 2201:1 2202:1 2207:1 2209:1 2210:1 2225:1 2227:1 2231:1 2232:1 2238:1 2239:1 2240:1 2243:1 2253:1 2254:1 2256:1 2267:1 2272:1 2295:1 2299:1 2300:1 2304:1 2313:1 2316:1 2320:1 2325:1 2339:1 2343:1 2344:1 2347:1 2358:1 2363:1 2364:1 2378:1 2387:1 2391:1 2392:1 2398:1 2405:1 2413:1 2422:1 2439:1 2441:1 2446:1 2459:1 2460:1 2463:1 2471:1 2477:1 2478:1 2479:1 2483:1 2484:1 2486:1 2490:1 2493:1 2503:1 2508:1 2517:1 2520:1 2523:1 2524:1 2526:1 2528:1 2539:1 2549:1 2552:1 2560:1 2565:1 2567:1 2581:1 2584:1 2596:1 2600:1 2601:1 2604:1 2607:1 2620:1 2627:1 2633:1 2635:1 2636:1 2656:1 2662:1 2672:1 2677:1 2683:1 2684:1 2690:1 2693:1 2694:1 2698:1 2707:1 2718:1 2721:1 2724:1 2725:1 2734:1 2740:1 2748:1 2751:1 2757:1 2763:1 2765:1 2775:1 2778:1 2791:1 2821:1 2822:1 2832:1 2853:1 2858:1 2864:1 2878:1 2898:1 2935:1 2948:1 2954:1 2956:1 2965:1 2984:1 2991:1 2995:1 3016:1 3029:1 3038:1 3040:1 3042:1 3043:1 3048:1 3051:1 3054:1 3065:1 3066:1 3068:1 3075:1 3080:1 3081:1 3091:1 3100:1 3114:1 3119:1 3144:1 3152:1 3154:1 3163:1 3166:1 3167:1 3173:1 3191:1 3196:1 3209:1 3210:1 3219:1 3228:1 3229:1 3232:1 3239:1 3247:1 3251:1 3257:1 3264:1 3270:1 3277:1 3287:1 3289:1 3305:1 3307:1 3314:1 3336:1 3346:1 3349:1 3371:1 3382:1 3383:1 3385:1 3390:1 3397:1 3401:1 3402:1 3406:1 3407:1 3410:1 3418:1 3421:1 3423:1 3427:1 3429:1 3439:1 3450:1 3457:1 3460:1 3467:1 3468:1 3474:1 3478:1 3481:1 3482:1 3484:1 3492:1 3494:1 3496:1 3503:1 3511:1 3514:1 3517:1 3524:1 3529:1 3533:1 3538:1 3541:1 3545:1 3546:1 3553:1 3556:1 3560:1 3565:1 3567:1 3573:1 3574:1 3581:1 3586:1 3594:1 3600:1 3601:1 3606:1 3612:1 3615:1 3619:1 3624:1 3628:1 3635:1 3636:1 3646:1 3647:1 3649:1 3652:1 3653:1 3657:1 3675:1 3677:1 3681:1 3706:1 3714:1 3723:1 3724:1 3732:1 3733:1 3737:1 3740:1 3742:1 3743:1 3750:1 3768:1 3769:1 3772:1 3776:1 3778:1 3792:1 3795:1 3801:1 3803:1 3808:1 3811:1 3819:1 3822:1 3823:1 3834:1 3837:1 3863:1 3878:1 3886:1 3889:1 3896:1 3897:1 3898:1 3907:1 3909:1 3926:1 3928:1 3934:1 3936:1 3939:1 3940:1 3947:1 3951:1 3954:1 3963:1 3971:1 3973:1 3974:1 3975:1 3993:1 3995:1 4005:1 4018:1 4025:1 4028:1 4039:1 4042:1 4050:1 4052:1 4055:1 4061:1 4065:1 4078:1 4084:1 4091:1 4095:1 4098:1 4099:1 4100:1 4105:1 4108:1 4111:1 4113:1 4131:1 4138:1 4145:1 4154:1 4161:1 4185:1 4196:1 4200:1 4207:1 4211:1 4215:1 4219:1 4231:1 4236:1 4238:1 4239:1 4245:1 4258:1 4262:1 4263:1 4274:1 4277:1 4280:1 4282:1 4287:1 4291:1 4297:1 4308:1 4310:1 4325:1 4343:1 4364:1 4369:1 4388:1 4389:1 4393:1 4404:1 4405:1 4407:1 4411:1 4426:1 4429:1 4446:1 4450:1 4457:1 4463:1 4470:1 4476:1 4491:1 4492:1 4497:1 4502:1 4503:1 4504:1 4520:1 4523:1 4527:1 4532:1 4534:1 4538:1 4540:1 4547:1 4558:1 4566:1 4571:1 4574:1 4576:1 4597:1 4609:1 4610:1 4613:1 4614:1 4615:1 4617:1 4621:1 4625:1 4633:1 4635:1 4640:1 4641:1 4649:1 4654:1 4668:1 4673:1 4683:1 4685:1 4691:1 4692:1 4695:1 4707:1 4713:1 4720:1 4731:1 4733:1 4735:1 4740:1 4745:1 4746:1 4761:1 4769:1 4774:1 4780:1 4781:1 4791:1 4793:1 4796:1 4818:1 4822:1 4824:1 4826:1 4839:1 4859:1 4864:1 4867:1 4869:1 4873:1 4875:1 4877:1 4878:1 4885:1 4891:1 4892:1 4894:1 4898:1 4907:1 4926:1 4944:1 4946:1 4975:1 4987:1 5001:1 5009:1 5011:1 5021:1 5026:1 5027:1 5044:1 5047:1 5049:1 5054:1 5057:1 5060:1 5068:1 5069:1 5075:1 5081:1 5091:1 5092:1 5098:1 5103:1 5108:1 5114:1 5118:1 5122:1 5135:1 5137:1 5171:1 5172:1 5202:1 5204:1 5210:1 5212:1 5243:1 5246:1 5250:1 5257:1 5261:1 5265:1 5271:1 5284:1 5287:1 5291:1 5292:1 5299:1 5303:1 5304:1 5309:1 5312:1 5315:1 5321:1 5360:1 5364:1 5366:1 5368:1 5369:1 5372:1 5390:1 5391:1 5407:1 5410:1 5423:1 5432:1 5437:1 5440:1 5442:1 5458:1 5461:1 5462:1 5468:1 5470:1 5482:1 5499:1 5502:1 5506:1 5508:1 5516:1 5518:1 5523:1 5537:1 5538:1 5548:1 5562:1 5564:1 5573:1 5577:1 5585:1 5586:1 5589:1 5590:1 5592:1 5605:1 5610:1 5622:1 5633:1 5644:1 5646:1 5659:1 5669:1 5679:1 5693:1 5699:1 5700:1 5701:1 5704:1 5713:1 5714:1 5718:1 5719:1 5722:1 5723:1 5740:1 5746:1 5752:1 5753:1 5754:1 5764:1 5766:1 5776:1 5778:1 5780:1 5792:1 5796:1 5798:1 5801:1 5818:1 5834:1 5837:1 5844:1 5852:1 5859:1 5872:1 5874:1 5878:1 5879:1 5892:1 5893:1 5894:1 5911:1 5915:1 5918:1 5921:1 5937:1 5938:1 5945:1 5947:1 5948:1 5956:1 5968:1 5972:1 5991:1 5996:1 5998:1 6008:1 6027:1 6033:1 6035:1 6041:1 6049:1 6053:1 6059:1 6060:1 6067:1 6069:1 6071:1 6081:1 6083:1 6084:1 6086:1 6096:1 6107:1 6109:1 6115:1 6119:1 6123:1 6124:1 6128:1 6147:1 6154:1 6169:1 6170:1 6174:1 6177:1 6181:1 6183:1 6187:1 6189:1 6208:1 6211:1 6217:1 6222:1 6225:1 6234:1 6235:1 6241:1 6242:1 6247:1 6259:1 6260:1 6266:1 6267:1 6273:1 6276:1 6283:1 6284:1 6295:1 6301:1 6324:1 6329:1 6337:1 6348:1 6358:1 6363:1 6386:1 6400:1 6401:1 6406:1 6408:1 6413:1 6414:1 6415:1 6418:1 6419:1 6429:1 6440:1 6442:1 6445:1 6446:1 6462:1 6473:1 6478:1 6479:1 6480:1 6491:1 6506:1 6509:1 6510:1 6515:1 6519:1 6531:1 6533:1 6540:1 6541:1 6542:1 6543:1 6544:1 6557:1 6561:1 6566:1 6569:1 6578:1 6580:1 6582:1 6587:1 6590:1 6599:1 6606:1 6616:1 6617:1 6636:1 6642:1 6644:1 6652:1 6655:1 6657:1 6661:1 6670:1 6671:1 6672:1 6673:1 6682:1 6686:1 6698:1 6705:1 6709:1 6710:1 6718:1 6719:1 6720:1 6726:1 6744:1 6750:1 6770:1 6773:1 6774:1 6808:1 6818:1 6823:1 6832:1 6852:1 6853:1 6857:1 6868:1 6874:1 6878:1 6889:1 6901:1 6903:1 6907:1 6909:1 6925:1 6937:1 6940:1 6949:1 6972:1 6973:1 6979:1 6985:1 6986:1 6992:1 7009:1 7010:1 7011:1 7016:1 7025:1 7035:1 7048:1 7051:1 7052:1 7053:1 7060:1 7061:1 7066:1 7067:1 7070:1 7072:1 7073:1 7074:1 7088:1 7091:1 7092:1 7094:1 7108:1 7115:1 7118:1 7127:1 7157:1 7160:1 7161:1 7166:1 7169:1 7173:1 7178:1 7190:1 7196:1 7200:1 7219:1 7222:1 7229:1 7233:1 7242:1 7245:1 7246:1 7249:1 7259:1 7270:1 7278:1 7279:1 7281:1 7288:1 7289:1 7290:1 7305:1 7313:1 7316:1 7318:1 7321:1 7322:1 7328:1 7341:1 7361:1 7364:1 7370:1 7375:1 7378:1 7387:1 7390:1 7401:1 7407:1 7411:1 7416:1 7422:1 7424:1 7428:1 7433:1 7434:1 7438:1 7452:1 7458:1 7470:1 7473:1 7474:1 7476:1 7479:1 7482:1 7492:1 7493:1 7495:1 7497:1 7499:1 7503:1 7521:1 7537:1 7539:1 7542:1 7575:1 7578:1 7590:1 7610:1 7611:1 7615:1 7620:1 7622:1 7624:1 7629:1 7632:1 7633:1 7642:1 7647:1 7652:1 7654:1 7660:1 7663:1 7666:1 7669:1 7670:1 7681:1 7695:1 7706:1 7707:1 7711:1 7719:1 7728:1 7731:1 7735:1 7737:1 7748:1 7768:1 7781:1 7782:1 7797:1 7801:1 7810:1 7816:1 7838:1 7859:1 7860:1 7863:1 7874:1 7899:1 7901:1 7902:1 7906:1 7910:1 7913:1 7914:1 7929:1 7935:1 7938:1 7944:1 7945:1 7946:1 7954:1 7958:1 7964:1 7970:1 7976:1 7979:1 7986:1 7992:1 7993:1 8001:1 8006:1 8017:1 8019:1 8033:1 8036:1 8043:1 8055:1 8059:1 8064:1 8067:1 8069:1 8072:1 8088:1 8102:1 8103:1 8110:1 8127:1 8144:1 8147:1 8148:1 8149:1 8150:1 8151:1 8160:1 8170:1 8172:1 8176:1 8184:1 8190:1 8200:1 8201:1 8208:1 8210:1 8228:1 8230:1 8233:1 8238:1 8240:1 8241:1 8246:1 8249:1 8252:1 8256:1 8265:1 8274:1 8295:1 8296:1 8299:1 8310:1 8322:1 8327:1 8334:1 8344:1 8354:1 8357:1 8358:1 8371:1 8372:1 8386:1 8394:1 8396:1 8406:1 8407:1 8421:1 8424:1 8433:1 8435:1 8445:1 8451:1 8457:1 8458:1 8466:1 8468:1 8476:1 8486:1 8492:1 8493:1 8494:1 8504:1 8505:1 8537:1 8545:1 8550:1 8554:1 8555:1 8567:1 8569:1 8571:1 8579:1 8582:1 8585:1 8602:1 8605:1 8606:1 8609:1 8610:1 8622:1 8625:1 8642:1 8650:1 8656:1 8662:1 8664:1 8673:1 8688:1 8689:1 8697:1 8715:1 8718:1 8726:1 8732:1 8742:1 8744:1 8757:1 8769:1 8775:1 8779:1 8781:1 8785:1 8786:1 8791:1 8796:1 8797:1 8809:1 8820:1 8821:1 8829:1 8830:1 8833:1 8834:1 8838:1 8842:1 8844:1 8850:1 8861:1 8868:1 8892:1 8899:1 8902:1 8905:1 8909:1 8912:1 8914:1 8918:1 8921:1 8924:1 8928:1 8930:1 8956:1 8959:1 8963:1 8968:1 8971:1 8973:1 8980:1 8989:1 8993:1 9003:1 9015:1 9021:1 9032:1 9036:1 9045:1 9055:1 9057:1 9063:1 9065:1 9070:1 9076:1 9081:1 9084:1 9087:1 9091:1 9096:1 9108:1 9118:1 9119:1 9124:1 9125:1 9131:1 9133:1 9137:1 9145:1 9148:1 9150:1 9151:1 9165:1 9167:1 9168:1 9174:1 9175:1 9179:1 9182:1 9187:1 9197:1 9201:1 9204:1 9214:1 9216:1 9218:1 9222:1 9223:1 9228:1 9229:1 9236:1 9251:1 9254:1 9258:1 9260:1 9262:1 9271:1 9277:1 9285:1 9287:1 9289:1 9292:1 9294:1 9296:1 9302:1 9308:1 9310:1 9314:1 9322:1 9325:1 9331:1 9336:1 9342:1 9345:1 9353:1 9354:1 9360:1 9362:1 9363:1 9366:1 9373:1 9385:1 9386:1 9393:1 9400:1 9405:1 9408:1 9409:1 9411:1 9413:1 9419:1 9420:1 9423:1 9436:1 9440:1 9443:1 9444:1 9454:1 9473:1 9477:1 9478:1 9479:1 9485:1 9487:1 9490:1 9494:1 9499:1 9503:1 9550:1 9551:1 9555:1 9569:1 9585:1 9595:1 9598:1 9603:1 9604:1 9605:1 9615:1 9616:1 9624:1 9653:1 9655:1 9663:1 9669:1 9677:1 9684:1 9690:1 9694:1 9697:1 9699:1 9700:1 9715:1 9716:1 9726:1 9736:1 9756:1 9758:1 9762:1 9768:1 9781:1 9783:1 9784:1 9798:1 9819:1 9820:1 9827:1 9839:1 9841:1 9852:1 9855:1 9864:1 9868:1 9890:1 9901:1 9908:1 9923:1 9924:1 9934:1 9939:1 9947:1 9953:1 9961:1 9972:1 9975:1 9986:1 9992:1 9997:1 10000:1 10001:1 10009:1 10010:1 10015:1 10017:1 10025:1 10037:1 10043:1 10050:1 10057:1 10068:1 10070:1 10072:1 10080:1 10081:1 10090:1 10092:1 10097:1 10111:1 10113:1 10117:1 10130:1 10136:1 10139:1 10142:1 10149:1 10150:1 10152:1 10156:1 10162:1 10177:1 10179:1 10191:1 10194:1 10209:1 10215:1 10217:1 10225:1 10244:1 10246:1 10267:1 10270:1 10272:1 10274:1 10278:1 10279:1 10291:1 10318:1 10331:1 10340:1 10362:1 10370:1 10374:1 10389:1 10402:1 10428:1 10435:1 10442:1 10445:1 10450:1 10462:1 10467:1 10469:1 10471:1 10478:1 10481:1 10503:1 10507:1 10510:1 10517:1 10525:1 10564:1 10573:1 10585:1 10586:1 10587:1 10590:1 10597:1 10604:1 10615:1 10618:1 10631:1 10634:1 10635:1 10656:1 10657:1 10661:1 10662:1 10669:1 10679:1 10700:1 10704:1 10706:1 10715:1 10729:1 10732:1 10733:1 10734:1 10742:1 10748:1 10750:1 10753:1 10771:1 10791:1 10794:1 10810:1 10813:1 10815:1 10820:1 10828:1 10831:1 10840:1 10846:1 10847:1 10858:1 10869:1 10876:1 10878:1 10883:1 10894:1 10898:1 10902:1 10908:1 10912:1 10926:1 10930:1 10932:1 10951:1 10960:1 10972:1 10975:1 10990:1 11012:1 11013:1 11038:1 11041:1 11042:1 11045:1 11046:1 11049:1 11062:1 11074:1 11093:1 11099:1 11102:1 11104:1 11116:1 11122:1 11141:1 11156:1 11167:1 11171:1 11184:1 11185:1 11208:1 11218:1 11219:1 11225:1 11235:1 11239:1 11241:1 11244:1 11254:1 11281:1 11297:1 11305:1 11312:1 11315:1 11316:1 11318:1 11321:1 11323:1 11326:1 11337:1 11341:1 11345:1 11347:1 11363:1 11367:1 11369:1 11370:1 11383:1 11396:1 11397:1 11398:1 11408:1 11409:1 11415:1 11416:1 11418:1 11420:1 11425:1 11430:1 11433:1 11434:1 11447:1 11448:1 11451:1 11452:1 11456:1 11472:1 11474:1 11478:1 11504:1 11508:1 11513:1 11516:1 11521:1 11523:1 11529:1 11533:1 11534:1 11535:1 11540:1 11545:1 11553:1 11554:1 11556:1 11557:1 11558:1 11560:1 11572:1 11574:1 11580:1 11584:1 11593:1 11612:1 11617:1 11624:1 11659:1 11660:1 11662:1 11663:1 11665:1 11668:1 11673:1 11674:1 11678:1 11693:1 11715:1 11721:1 11736:1 11751:1 11752:1 11759:1 11762:1 11770:1 11775:1 11790:1 11791:1 11796:1 11802:1 11818:1 11819:1 11828:1 11829:1 11830:1 11836:1 11838:1 11842:1 11850:1 11863:1 11874:1 11875:1 11877:1 11882:1 11889:1 11916:1 11919:1 11920:1 11926:1 11927:1 11942:1 11947:1 11954:1 11957:1 11965:1 11967:1 11968:1 11978:1 11982:1 11995:1 12004:1 12012:1 12015:1 12017:1 12018:1 12020:1 12021:1 12028:1 12043:1 12061:1 12084:1 12088:1 12095:1 12100:1 12102:1 12117:1 12126:1 12132:1 12142:1 12145:1 12146:1 12147:1 12167:1 12187:1 12210:1 12215:1 12219:1 12223:1 12225:1 12230:1 12231:1 12233:1 12245:1 12246:1 12254:1 12258:1 12259:1 12272:1 12276:1 12286:1 12294:1 12298:1 12308:1 12314:1 12318:1 12326:1 12329:1 12339:1 12349:1 12352:1 12370:1 12378:1 12389:1 12391:1 12404:1 12416:1 12421:1 12426:1 12428:1 12429:1 12435:1 12454:1 12460:1 12466:1 12467:1 12472:1 12486:1 12502:1 12503:1 12515:1 12520:1 12522:1 12526:1 12529:1 12532:1 12539:1 12543:1 12552:1 12579:1 12594:1 12604:1 12619:1 12629:1 12636:1 12640:1 12664:1 12667:1 12682:1 12687:1 12689:1 12691:1 12695:1 12702:1 12704:1 12714:1 12721:1 12726:1 12735:1 12743:1 12755:1 12768:1 12769:1 12770:1 12771:1 12779:1 12783:1 12788:1 12800:1 12802:1 12803:1 12833:1 12837:1 12839:1 12845:1 12852:1 12853:1 12856:1 12857:1 12864:1 12868:1 12875:1 12879:1 12883:1 12886:1 12897:1 12899:1 12911:1 12919:1 12929:1 12936:1 12938:1 12939:1 12941:1 12943:1 12946:1 12950:1 12961:1 12963:1 12966:1 12970:1 12975:1 12978:1 12988:1 12989:1 12999:1 13013:1 13030:1 13032:1 13033:1 13043:1 13046:1 13059:1 13071:1 13072:1 13074:1 13076:1 13082:1 13087:1 13091:1 13097:1 13101:1 13102:1 13110:1 13113:1 13114:1 13119:1 13124:1 13125:1 13127:1 13129:1 13132:1 13134:1 13135:1 13137:1 13147:1 13151:1 13152:1 13162:1 13168:1 13177:1 13183:1 13192:1 13197:1 13198:1 13201:1 13206:1 13211:1 13231:1 13236:1 13254:1 13275:1 13276:1 13282:1 13287:1 13296:1 13302:1 13310:1 13323:1 13325:1 13328:1 13329:1 13337:1 13342:1 13348:1 13350:1 13356:1 13362:1 13370:1 13374:1 13380:1 13392:1 13396:1 13398:1 13399:1 13413:1 13417:1 13420:1 13421:1 13426:1 13429:1 13436:1 13437:1 13438:1 13442:1 13449:1 13467:1 13468:1 13477:1 13482:1 13489:1 13490:1 13499:1 13503:1 13514:1 13532:1 13534:1 13539:1 13544:1 13553:1 13556:1 13563:1 13570:1 13579:1 13604:1 13607:1 13608:1 13622:1 13631:1 13632:1 13633:1 13645:1 13648:1 13649:1 13662:1 13663:1 13686:1 13690:1 13691:1 13694:1 13698:1 13699:1 13702:1 13703:1 13705:1 13707:1 13708:1 13714:1 13718:1 13726:1 13729:1 13738:1 13740:1 13744:1 13746:1 13754:1 13756:1 13762:1 13770:1 13774:1 13791:1 13792:1 13804:1 13807:1 13809:1 13814:1 13825:1 13833:1 13845:1 13856:1 13862:1 13866:1 13871:1 13882:1 13892:1 13895:1 13898:1 13902:1 13909:1 13921:1 13927:1 13930:1 13938:1 13943:1 13948:1 13949:1 13953:1 13964:1 13965:1 13979:1 13993:1 13995:1 14007:1 14013:1 14023:1 14028:1 14056:1 14062:1 14072:1 14081:1 14086:1 14087:1 14090:1 14109:1 14112:1 14123:1 14136:1 14171:1 14180:1 14187:1 14192:1 14194:1 14195:1 14196:1 14197:1 14212:1 14213:1 14216:1 14217:1 14244:1 14255:1 14259:1 14262:1 14263:1 14264:1 14267:1 14275:1 14279:1 14293:1 14295:1 14301:1 14318:1 14324:1 14338:1 14344:1 14352:1 14374:1 14379:1 14400:1 14408:1 14410:1 14416:1 14417:1 14419:1 14423:1 14427:1 14446:1 14462:1 14463:1 14469:1 14472:1 14476:1 14478:1 14485:1 14488:1 14491:1 14492:1 14495:1 14498:1 14506:1 14512:1 14515:1 14521:1 14525:1 14527:1 14533:1 14534:1 14541:1 14543:1 14544:1 14553:1 14563:1 14567:1 14575:1 14600:1 14609:1 14611:1 14616:1 14623:1 14638:1 14651:1 14659:1 14661:1 14664:1 14666:1 14676:1 14681:1 14682:1 14694:1 14705:1 14730:1 14731:1 14749:1 14752:1 14758:1 14763:1 14779:1 14780:1 14807:1 14809:1 14820:1 14824:1 14827:1 14836:1 14838:1 14841:1 14851:1 14852:1 14874:1 14878:1 14883:1 14891:1 14894:1 14900:1 14904:1 14906:1 14917:1 14919:1 14920:1 14933:1 14935:1 14944:1 14945:1 14949:1 14953:1 14963:1 14971:1 14974:1 14976:1 14978:1 14998:1 15007:1 15008:1 15010:1 15011:1 15016:1 15020:1 15022:1 15030:1 15034:1 15042:1 15047:1 15059:1 15077:1 15080:1 15081:1 15082:1 15083:1 15085:1 15087:1 15089:1 15093:1 15101:1 15102:1 15107:1 15109:1 15115:1 15116:1 15128:1 15132:1 15133:1 15135:1 15138:1 15143:1 15151:1 15153:1 15158:1 15166:1 15167:1 15170:1 15176:1 15184:1 15186:1 15188:1 15197:1 15207:1 15209:1 15214:1 15221:1 15235:1 15236:1 15239:1 15249:1 15256:1 15260:1 15267:1 15269:1 15296:1 15298:1 15304:1 15308:1 15311:1 15314:1 15316:1 15317:1 15320:1 15341:1 15348:1 15349:1 15354:1 15360:1 15362:1 15372:1 15373:1 15378:1 15379:1 15383:1 15384:1 15387:1 15407:1 15410:1 15426:1 15435:1 15440:1 15442:1 15444:1 15445:1 15451:1 15466:1 15467:1 15486:1 15490:1 15492:1 15493:1 15498:1 15500:1 15503:1 15505:1 15509:1 15511:1 15520:1 15523:1 15525:1 15526:1 15539:1 15541:1 15544:1 15552:1 15577:1 15588:1 15607:1 15617:1 15636:1 15652:1 15656:1 15668:1 15685:1 15687:1 15689:1 15695:1 15698:1 15699:1 15712:1 15722:1 15730:1 15744:1 15755:1 15764:1 15770:1 15772:1 15775:1 15786:1 15796:1 15802:1 15803:1 15816:1 15821:1 15823:1 15824:1 15826:1 15831:1 15838:1 15845:1 15849:1 15851:1 15852:1 15854:1 15859:1 15889:1 15891:1 15901:1 15908:1 15923:1 15928:1 15937:1 15949:1 15950:1 15962:1 15965:1 15973:1 15982:1 15985:1 15994:1 15999:1 16012:1 16022:1 16033:1 16036:1 16051:1 16056:1 16061:1 16063:1 16064:1 16069:1 16070:1 16071:1 16076:1 16079:1 16082:1 16089:1 16099:1 16102:1 16108:1 16121:1 16122:1 16124:1 16125:1 16134:1 16139:1 16145:1 16147:1 16162:1 16171:1 16172:1 16184:1 16191:1 16194:1 16200:1 16205:1 16210:1 16216:1 16227:1 16239:1 16242:1 16247:1 16254:1 16257:1 16261:1 16279:1 16284:1 16293:1 16299:1 16309:1 16325:1 16326:1 16327:1 16333:1 16355:1 16381:1 16384:1 16392:1 16399:1 16406:1 16408:1 16435:1 16440:1 16449:1 16450:1 16455:1 16460:1 16461:1 16462:1 16463:1 16464:1 16494:1 16495:1 16498:1 16506:1 16516:1 16517:1 16542:1 16547:1 16549:1 16558:1 16565:1 16567:1 16569:1 16575:1 16582:1 16588:1 16589:1 16598:1 16605:1 16612:1 16618:1 16622:1 16648:1 16651:1 16652:1 16657:1 16660:1 16663:1 16666:1 16670:1 16671:1 16673:1 16688:1 16699:1 16712:1 16726:1 16729:1 16735:1 16754:1 16760:1 16762:1 16771:1 16775:1 16785:1 16800:1 16801:1 16803:1 16827:1 16842:1 16847:1 16853:1 16854:1 16856:1 16876:1 16886:1 16891:1 16892:1 16898:1 16903:1 16906:1 16908:1 16911:1 16915:1 16927:1 16931:1 16948:1 16949:1 16957:1 16961:1 16971:1 16980:1 17004:1 17007:1 17010:1 17018:1 17027:1 17030:1 17033:1 17037:1 17058:1 17063:1 17066:1 17071:1 17089:1 17096:1 17099:1 17108:1 17111:1 17120:1 17128:1 17141:1 17144:1 17145:1 17152:1 17156:1 17170:1 17172:1 17184:1 17194:1 17203:1 17219:1 17220:1 17224:1 17237:1 17240:1 17242:1 17251:1 17262:1 17269:1 17276:1 17285:1 17296:1 17297:1 17301:1 17304:1 17306:1 17307:1 17309:1 17311:1 17315:1 17325:1 17330:1 17339:1 17347:1 17350:1 17361:1 17371:1 17373:1 17377:1 17384:1 17400:1 17407:1 17408:1 17424:1 17427:1 17435:1 17440:1 17449:1 17451:1 17476:1 17477:1 17478:1 17482:1 17484:1 17489:1 17498:1 17507:1 17510:1 17520:1 17525:1 17526:1 17537:1 17547:1 17553:1 17559:1 17568:1 17575:1 17579:1 17596:1 17611:1 17621:1 17624:1 17625:1 17630:1 17638:1 17643:1 17649:1 17659:1 17660:1 17673:1 17680:1 17681:1 17683:1 17691:1 17692:1 17698:1 17708:1 17712:1 17723:1 17734:1 17736:1 17752:1 17754:1 17758:1 17759:1 17767:1 17776:1 17777:1 17781:1 17788:1 17790:1 17794:1 17795:1 17804:1 17805:1 17828:1 17834:1 17839:1 17841:1 17842:1 17846:1 17856:1 17859:1 17870:1 17871:1 17875:1 17878:1 17879:1 17880:1 17883:1 17884:1 17887:1 17894:1 17895:1 17900:1 17908:1 17914:1 17915:1 17923:1 17930:1 17940:1 17941:1 17946:1 17950:1 17959:1 17962:1 17969:1 17981:1 17983:1 17984:1 17988:1 17991:1 17992:1 17995:1 17998:1 18002:1 18006:1 18010:1 18013:1 18015:1 18016:1 18028:1 18036:1 18039:1 18045:1 18046:1 18050:1 18084:1 18085:1 18089:1 18098:1 18103:1 18105:1 18107:1 18115:1 18134:1 18136:1 18141:1 18161:1 18172:1 18173:1 18174:1 18191:1 18193:1 18204:1 18208:1 18215:1 18224:1 18239:1 18240:1 18246:1 18263:1 18270:1 18285:1 18286:1 18288:1 18292:1 18294:1 18296:1 18297:1 18307:1 18313:1 18325:1 18330:1 18347:1 18350:1 18362:1 18365:1 18369:1 18371:1 18377:1 18379:1 18385:1 18397:1 18401:1 18421:1 18431:1 18435:1 18436:1 18446:1 18450:1 18455:1 18462:1 18465:1 18475:1 18486:1 18487:1 18508:1 18515:1 18516:1 18530:1 18533:1 18535:1 18540:1 18544:1 18549:1 18553:1 18562:1 18564:1 18565:1 18569:1 18585:1 18607:1 18613:1 18624:1 18631:1 18632:1 18634:1 18654:1 18657:1 18659:1 18666:1 18673:1 18680:1 18683:1 18693:1 18695:1 18698:1 18699:1 18719:1 18721:1 18724:1 18772:1 18776:1 18787:1 18792:1 18795:1 18802:1 18810:1 18836:1 18839:1 18842:1 18849:1 18858:1 18867:1 18871:1 18878:1 18892:1 18901:1 18911:1 18919:1 18931:1 18932:1 18942:1 18946:1 18950:1 18960:1 18963:1 18967:1 18968:1 18984:1 18986:1 18987:1 18990:1 18994:1 18996:1 19010:1 19015:1 19018:1 19023:1 19040:1 19055:1 19068:1 19087:1 19088:1 19090:1 19096:1 19101:1 19106:1 19135:1 19136:1 19146:1 19150:1 19157:1 19168:1 19180:1 19185:1 19193:1 19206:1 19207:1 19212:1 19217:1 19230:1 19245:1 19250:1 19251:1 19252:1 19254:1 19258:1 19261:1 19263:1 19271:1 19277:1 19278:1 19283:1 19292:1 19294:1 19312:1 19313:1 19321:1 19323:1 19330:1 19335:1 19340:1 19349:1 19352:1 19356:1 19364:1 19372:1 19381:1 19384:1 19391:1 19427:1 19429:1 19438:1 19444:1 19451:1 19454:1 19456:1 19463:1 19475:1 19481:1 19482:1 19486:1 19489:1 19492:1 19493:1 19499:1 19511:1 19512:1 19513:1 19517:1 19518:1 19521:1 19522:1 19528:1 19533:1 19538:1 19547:1 19549:1 19559:1 19567:1 19568:1 19570:1 19578:1 19584:1 19588:1 19590:1 19591:1 19602:1 19617:1 19639:1 19643:1 19652:1 19669:1 19674:1 19686:1 19688:1 19703:1 19710:1 19721:1 19724:1 19729:1 19750:1 19757:1 19758:1 19769:1 19772:1 19783:1 19786:1 19789:1 19792:1 19794:1 19796:1 19810:1 19818:1 19820:1 19843:1 19845:1 19851:1 19852:1 19859:1 19872:1 19879:1 19891:1 19893:1 19894:1 19897:1 19904:1 19907:1 19913:1 19915:1 19916:1 19933:1 19946:1 19956:1 19959:1 19961:1 19963:1 19966:1 19972:1 19974:1 19975:1 19976:1 19982:1 19983:1 19989:1 19995:1 19997:1 20011:1 20020:1 20023:1 20034:1 20045:1 20049:1 20055:1 20061:1 20062:1 20079:1 20081:1 20086:1 20088:1 20089:1 20091:1 20099:1 20111:1 20112:1 20119:1 20139:1 20145:1 20151:1 20152:1 20154:1 20162:1 20170:1 20185:1 20190:1 20192:1 20198:1 20200:1 20203:1 20206:1 20211:1 20212:1 20218:1 20232:1 20245:1 20248:1 20263:1 20265:1 20269:1 20277:1 20281:1 20282:1 20287:1 20288:1 20293:1 20300:1 20313:1 20314:1 20322:1 20323:1 20326:1 20329:1 20338:1 20342:1 20343:1 20344:1 20346:1 20350:1 20368:1 20382:1 20386:1 20387:1 20389:1 20391:1 20392:1 20400:1 20407:1 20410:1 20419:1 20420:1 20421:1 20424:1 20425:1 20427:1 20434:1 20444:1 20449:1 20469:1 20471:1 20472:1 20476:1 20478:1 20482:1 20491:1 20492:1 20495:1 20516:1 20520:1 20521:1 20523:1 20537:1 20542:1 20560:1 20563:1 20564:1 20566:1 20575:1 20579:1 20588:1 20610:1 20611:1 20612:1 20615:1 20625:1 20633:1 20639:1 20655:1 20662:1 20670:1 20671:1 20679:1 20684:1 20695:1 20698:1 20703:1 20721:1 20726:1 20733:1 20736:1 20742:1 20743:1 20749:1 20750:1 20757:1 20768:1 20779:1 20789:1 20792:1 20796:1 20799:1 20800:1 20811:1 20824:1 20831:1 20832:1 20833:1 20835:1 20845:1 20856:1 20867:1 20868:1 20905:1 20908:1 20931:1 20940:1 20959:1 20960:1 20968:1 20975:1 20985:1 20987:1 21004:1 21005:1 21011:1 21021:1 21024:1 21029:1 21034:1 21043:1 21052:1 21055:1 21059:1 21083:1 21090:1 21097:1 21098:1 21132:1 21143:1 21144:1 21145:1 21153:1 21154:1 21157:1 21158:1 21167:1 21184:1 21186:1 21188:1 21194:1 21195:1 21200:1 21205:1 21207:1 21235:1 21253:1 21258:1 21262:1 21264:1 21265:1 21275:1 21277:1 21296:1 21303:1 21305:1 21315:1 21329:1 21336:1 21343:1 21350:1 21377:1 21392:1 21401:1 21409:1 21412:1 21417:1 21426:1 21427:1 21431:1 21434:1 21438:1 21444:1 21445:1 21456:1 21462:1 21463:1 21472:1 21473:1 21477:1 21483:1 21485:1 21492:1 21494:1 21495:1 21503:1 21513:1 21515:1 21519:1 21520:1 21525:1 21527:1 21533:1 21542:1 21549:1 21550:1 21558:1 21569:1 21573:1 21577:1 21578:1 21586:1 21591:1 21602:1 21603:1 21604:1 21611:1 21614:1 21615:1 21617:1 21629:1 21631:1 21632:1 21653:1 21660:1 21661:1 21664:1 21670:1 21673:1 21675:1 21677:1 21682:1 21694:1 21708:1 21713:1 21742:1 21745:1 21747:1 21748:1 21750:1 21752:1 21753:1 21755:1 21760:1 21765:1 21776:1 21781:1 21783:1 21784:1 21786:1 21792:1 21793:1 21794:1 21797:1 21802:1 21805:1 21807:1 21808:1 21814:1 21816:1 21817:1 21829:1 21834:1 21835:1 21843:1 21853:1 21858:1 21866:1 21875:1 21876:1 21885:1 21894:1 21896:1 21906:1 21915:1 21920:1 21923:1 21929:1 21939:1 21959:1 21963:1 21965:1 21966:1 21980:1 21985:1 21989:1 22007:1 22008:1 22012:1 22014:1 22015:1 22018:1 22024:1 22026:1 22033:1 22043:1 22054:1 22057:1 22058:1 22061:1 22079:1 22082:1 22089:1 22093:1 22097:1 22106:1 22108:1 22123:1 22124:1 22125:1 22143:1 22147:1 22152:1 22154:1 22155:1 22162:1 22170:1 22184:1 22195:1 22205:1 22213:1 22216:1 22218:1 22243:1 22244:1 22251:1 22254:1 22262:1 22265:1 22276:1 22277:1 22285:1 22286:1 22287:1 22299:1 22308:1 22313:1 22326:1 22327:1 22333:1 22334:1 22340:1 22348:1 22359:1 22360:1 22365:1 22381:1 22383:1 22394:1 22404:1 22410:1 22417:1 22420:1 22424:1 22449:1 22459:1 22462:1 22469:1 22471:1 22473:1 22486:1 22500:1 22508:1 22511:1 22517:1 22519:1 22523:1 22524:1 22531:1 22534:1 22535:1 22537:1 22540:1 22546:1 22550:1 22557:1 22561:1 22570:1 22578:1 22591:1 22593:1 22612:1 22616:1 22622:1 22632:1 22635:1 22637:1 22651:1 22654:1 22664:1 22669:1 22671:1 22675:1 22677:1 22683:1 22688:1 22694:1 22700:1 22705:1 22706:1 22714:1 22747:1 22748:1 22750:1 22760:1 22763:1 22766:1 22775:1 22776:1 22781:1 22783:1 22785:1 22789:1 22792:1 22795:1 22796:1 22799:1 22803:1 22810:1 22811:1 22812:1 22818:1 22819:1 22827:1 22831:1 22832:1 22858:1 22862:1 22869:1 22874:1 22875:1 22884:1 22887:1 22890:1 22898:1 22907:1 22910:1 22913:1 22915:1 22923:1 22928:1 22930:1 22937:1 22938:1 22943:1 22944:1 22950:1 22974:1 22979:1 22981:1 22992:1 22994:1 23002:1 23008:1 23019:1 23030:1 23036:1 23038:1 23044:1 23045:1 23052:1 23055:1 23058:1 23059:1 23061:1 23063:1 23069:1 23071:1 23081:1 23091:1 23093:1 23096:1 23097:1 23099:1 23111:1 23112:1 23125:1 23139:1 23140:1 23143:1 23149:1 23151:1 23153:1 23160:1 23171:1 23176:1 23185:1 23190:1 23201:1 23214:1 23225:1 23231:1 23236:1 23246:1 23252:1 23253:1 23273:1 23277:1 23279:1 23292:1 23299:1 23300:1 23305:1 23307:1 23311:1 23325:1 23328:1 23349:1 23351:1 23354:1 23364:1 23368:1 23369:1 23372:1 23380:1 23390:1 23391:1 23435:1 23437:1 23438:1 23440:1 23452:1 23461:1 23467:1 23468:1 23474:1 23475:1 23477:1 23479:1 23483:1 23502:1 23510:1 23512:1 23513:1 23517:1 23525:1 23527:1 23528:1 23535:1 23536:1 23553:1 23556:1 23564:1 23567:1 23568:1 23577:1 23589:1 23606:1 23609:1 23624:1 23628:1 23649:1 23651:1 23664:1 23665:1 23669:1 23675:1 23679:1 23694:1 23703:1 23708:1 23718:1 23723:1 23727:1 23730:1 23741:1 23742:1 23749:1 23754:1 23756:1 23757:1 23770:1 23772:1 23781:1 23782:1 23786:1 23792:1 23807:1 23814:1 23817:1 23824:1 23825:1 23828:1 23829:1 23834:1 23849:1 23856:1 23860:1 23865:1 23873:1 23876:1 23878:1 23882:1 23885:1 23895:1 23897:1 23904:1 23908:1 23910:1 23922:1 23929:1 23931:1 23934:1 23937:1 23941:1 23942:1 23953:1 23964:1 23966:1 23972:1 23977:1 23983:1 23988:1 23991:1 23995:1 24000:1 24007:1 24010:1 24016:1 24024:1 24033:1 24040:1 24043:1 24046:1 24054:1 24060:1 24063:1 24065:1 24076:1 24088:1 24095:1 24097:1 24100:1 24105:1 24134:1 24145:1 24156:1 24174:1 24175:1 24177:1 24178:1 24192:1 24199:1 24201:1 24207:1 24211:1 24212:1 24219:1 24241:1 24242:1 24245:1 24253:1 24268:1 24274:1 24278:1 24281:1 24284:1 24293:1 24299:1 24303:1 24316:1 24317:1 24320:1 24346:1 24356:1 24373:1 24374:1 24390:1 24397:1 24407:1 24421:1 24438:1 24443:1 24468:1 24475:1 24482:1 24493:1 24496:1 24498:1 24508:1 24511:1 24514:1 24518:1 24526:1 24533:1 24535:1 24548:1 24563:1 24565:1 24578:1 24579:1 24582:1 24588:1 24608:1 24615:1 24620:1 24621:1 24636:1 24647:1 24648:1 24649:1 24651:1 24661:1 24667:1 24685:1 24701:1 24707:1 24714:1 24719:1 24720:1 24728:1 24734:1 24738:1 24745:1 24761:1 24762:1 24764:1 24773:1 24789:1 24796:1 24804:1 24810:1 24813:1 24817:1 24823:1 24824:1 24846:1 24851:1 24852:1 24866:1 24872:1 24873:1 24877:1 24879:1 24881:1 24882:1 24888:1 24891:1 24892:1 24904:1 24912:1 24914:1 24918:1 24926:1 24927:1 24928:1 24929:1 24932:1 24945:1 24953:1 24960:1 24964:1 24972:1 24977:1 24990:1 24999:1 25018:1 25019:1 25022:1 25023:1 25024:1 25041:1 25046:1 25055:1 25064:1 25071:1 25090:1 25092:1 25102:1 25104:1 25105:1 25107:1 25110:1 25128:1 25144:1 25146:1 25152:1 25158:1 25163:1 25166:1 25167:1 25174:1 25182:1 25183:1 25188:1 25190:1 25196:1 25197:1 25207:1 25214:1 25220:1 25222:1 25228:1 25229:1 25239:1 25247:1 25248:1 25267:1 25272:1 25284:1 25288:1 25294:1 25297:1 25301:1 25304:1 25318:1 25336:1 25339:1 25341:1 25347:1 25361:1 25366:1 25369:1 25377:1 25385:1 25386:1 25393:1 25394:1 25401:1 25405:1 25407:1 25410:1 25411:1 25413:1 25420:1 25429:1 25433:1 25444:1 25464:1 25465:1 25466:1 25481:1 25486:1 25494:1 25496:1 25498:1 25512:1 25520:1 25526:1 25542:1 25543:1 25544:1 25549:1 25572:1 25576:1 25587:1 25601:1 25602:1 25608:1 25611:1 25620:1 25624:1 25634:1 25640:1 25647:1 25651:1 25657:1 25660:1 25663:1 25668:1 25670:1 25672:1 25673:1 25678:1 25680:1 25682:1 25684:1 25718:1 25721:1 25725:1 25735:1 25751:1 25762:1 25764:1 25773:1 25776:1 25777:1 25780:1 25783:1 25786:1 25793:1 25796:1 25798:1 25800:1 25808:1 25817:1 25821:1 25824:1 25830:1 25851:1 25863:1 25874:1 25885:1 25891:1 25896:1 25899:1 25904:1 25911:1 25923:1 25924:1 25929:1 25934:1 25939:1 25944:1 25947:1 25948:1 25956:1 25966:1 25967:1 25968:1 25978:1 25984:1 25991:1 25996:1 26006:1 26008:1 26014:1 26015:1 26022:1 26023:1 26044:1 26056:1 26086:1 26095:1 26102:1 26103:1 26105:1 26112:1 26120:1 26124:1 26131:1 26139:1 26164:1 26173:1 26178:1 26186:1 26193:1 26201:1 26203:1 26208:1 26222:1 26231:1 26239:1 26247:1 26250:1 26254:1 26260:1 26265:1 26268:1 26272:1 26274:1 26278:1 26281:1 26292:1 26305:1 26321:1 26338:1 26349:1 26350:1 26353:1 26362:1 26363:1 26368:1 26369:1 26373:1 26379:1 26380:1 26382:1 26384:1 26392:1 26398:1 26415:1 26423:1 26425:1 26428:1 26434:1 26439:1 26444:1 26450:1 26452:1 26458:1 26480:1 26496:1 26506:1 26527:1 26528:1 26531:1 26535:1 26537:1 26539:1 26544:1 26547:1 26567:1 26578:1 26585:1 26586:1 26593:1 26599:1 26603:1 26612:1 26621:1 26622:1 26624:1 26626:1 26634:1 26640:1 26645:1 26652:1 26668:1 26669:1 26681:1 26687:1 26693:1 26694:1 26695:1 26701:1 26706:1 26715:1 26720:1 26742:1 26758:1 26764:1 26771:1 26778:1 26796:1 26798:1 26799:1 26802:1 26814:1 26818:1 26823:1 26824:1 26825:1 26826:1 26832:1 26848:1 26849:1 26856:1 26873:1 26876:1 26897:1 26903:1 26906:1 26923:1 26946:1 26951:1 26952:1 26964:1 26967:1 26969:1 26973:1 26980:1 26984:1 26985:1 26991:1 27002:1 27014:1 27030:1 27031:1 27037:1 27045:1 27056:1 27065:1 27076:1 27088:1 27089:1 27090:1 27095:1 27106:1 27108:1 27123:1 27128:1 27133:1 27137:1 27140:1 27141:1 27147:1 27162:1 27163:1 27166:1 27167:1 27170:1 27171:1 27179:1 27189:1 27190:1 27194:1 27206:1 27236:1 27253:1 27255:1 27260:1 27272:1 27273:1 27276:1 27288:1 27294:1 27295:1 27305:1 27312:1 27314:1 27315:1 27332:1 27336:1 27338:1 27339:1 27343:1 27349:1 27363:1 27365:1 27369:1 27382:1 27384:1 27386:1 27389:1 27391:1 27394:1 27405:1 27415:1 27423:1 27425:1 27428:1 27429:1 27432:1 27441:1 27453:1 27464:1 27468:1 27469:1 27475:1 27480:1 27486:1 27489:1 27491:1 27498:1 27510:1 27519:1 27520:1 27521:1 27526:1 27540:1 27546:1 27560:1 27565:1 27580:1 27581:1 27585:1 27592:1 27598:1 27599:1 27609:1 27614:1 27619:1 27624:1 27649:1 27651:1 27660:1 27673:1 27692:1 27705:1 27706:1 27707:1 27720:1 27722:1 27725:1 27729:1 27737:1 27741:1 27746:1 27753:1 27756:1 27757:1 27774:1 27776:1 27782:1 27785:1 27786:1 27792:1 27802:1 27803:1 27809:1 27818:1 27821:1 27839:1 27840:1 27845:1 27855:1 27860:1 27865:1 27872:1 27878:1 27881:1 27882:1 27890:1 27895:1 27911:1 27912:1 27919:1 27924:1 27931:1 27932:1 27933:1 27942:1 27947:1 27964:1 27966:1 27968:1 27971:1 27972:1 27973:1 27980:1 27990:1 27993:1 27994:1 27997:1 28006:1 28009:1 28012:1 28016:1 28020:1 28023:1 28028:1 28029:1 28032:1 28036:1 28068:1 28094:1 28097:1 28100:1 28101:1 28105:1 28110:1 28112:1 28114:1 28116:1 28119:1 28122:1 28126:1 28130:1 28132:1 28138:1 28142:1 28143:1 28161:1 28162:1 28181:1 28192:1 28197:1 28203:1 28218:1 28228:1 28229:1 28238:1 28240:1 28258:1 28260:1 28267:1 28272:1 28277:1 28278:1 28286:1 28288:1 28298:1 28300:1 28303:1 28308:1 28309:1 28310:1 28312:1 28323:1 28324:1 28333:1 28340:1 28343:1 28350:1 28361:1 28363:1 28373:1 28375:1 28377:1 28381:1 28398:1 28401:1 28425:1 28426:1 28438:1 28441:1 28446:1 28447:1 28459:1 28460:1 28462:1 28467:1 28468:1 28471:1 28472:1 28475:1 28482:1 